0.07761427760124207 0.06188764050602913 0.03581402450799942 0.0261458158493042 0.05602157488465309 -0.09426213055849075 -0.062352683395147324 0.032233767211437225 0.005757780745625496 -0.03723359853029251 0.036212000995874405 -0.1350000947713852 -0.09630554169416428 -0.03366130590438843 0.02940617874264717 -0.10671180486679077 -0.02597830258309841 -0.0743274837732315 -0.03995928913354874 -0.014208963140845299 -0.0064314743503928185 0.03278306871652603 -0.0016402151668444276 0.06910557299852371 -0.0868200808763504 -0.005090781487524509 -0.001572954235598445 -0.11479797214269638 0.12112881988286972 0.04223121702671051 0.02588525600731373 -0.032114457339048386 -0.05849349871277809 -0.04754025116562843 -0.15869000554084778 0.05877433344721794 -0.06214394420385361 -0.022047625854611397 -0.01792263612151146 0.022932596504688263 0.0699007511138916 0.1755477786064148 -0.04202345386147499 -0.051608674228191376 0.05530689284205437 0.027196159586310387 0.008780505508184433 -0.07848576456308365 0.01975269615650177 -0.003957206849008799 -0.06441882252693176 -0.041803132742643356 0.03029455617070198 0.006429095286875963 0.047466687858104706 0.051825910806655884 0.07400394976139069 0.01941516436636448 -0.02915729023516178 -0.05889733508229256 0.03450391814112663 -0.05676655098795891 -0.05310240387916565 -0.034358177334070206 2.393742761341855e-05 -0.0457276776432991 0.0236669909209013 0.09044249355792999 -0.035242561250925064 -0.05415625125169754 0.018806157633662224 0.06214191019535065 -0.0007433179416693747 -0.09524289518594742 0.02588493749499321 0.023889023810625076 -0.007811198942363262 -0.07831651717424393 -0.013422762043774128 -0.05980050563812256 0.008023443631827831 0.07348062098026276 0.07227957248687744 0.05343949422240257 0.030170423910021782 -0.004143083933740854 0.01641710475087166 0.0067360661923885345 -0.0009639434283599257 0.11550310254096985 0.013323884457349777 0.04096095263957977 0.009046109393239021 -0.014644167385995388 0.011609301902353764 0.09652391821146011 0.10792198032140732 0.035408131778240204 0.008698025718331337 -0.04792875796556473 0.04377709701657295 -0.06224838271737099 0.026597751304507256 -0.0406653918325901 0.02310798689723015 -0.07144337892532349 -0.034454625099897385 0.005290206056088209 0.006784763652831316 -0.04427054896950722 -0.07254200428724289 0.0419364757835865 0.003724468406289816 0.008897025138139725 -0.039684925228357315 0.11073169112205505 0.05249540135264397 -0.007517294958233833 0.0021151697728782892 0.020537829026579857 0.06881178170442581 0.08529947698116302 -0.00817230623215437 -0.016934741288423538 0.0013351094676181674 0.027849987149238586 -0.07082360237836838 0.04257684573531151 -0.06922828406095505 0.02676542103290558 0.044454459100961685 -0.08262646943330765 -0.0312055554240942 -0.026640944182872772 -0.08997026085853577 0.05071527510881424 0.09215283393859863 0.007894890382885933 -0.025111287832260132 0.09907987713813782 -0.007346745580434799 0.028301769867539406 -0.040446460247039795 -0.01561439223587513 -0.008540032431483269 -0.009024287573993206 0.021996648982167244 -0.051536645740270615 -0.05776641145348549 0.024916527792811394 -0.007157486397773027 -0.04709019511938095 -0.0106825465336442 -0.07977861166000366 -0.06282199174165726 -0.010609515942633152 -0.019126471132040024 -0.0272454135119915 -0.02287979982793331 0.048599984496831894 -0.06798190623521805 0.02224568836390972 0.005046163219958544 -0.02506580390036106 0.15177923440933228 0.019988490268588066 0.026535144075751305 -0.09055429697036743 -0.06785069406032562 -0.06123770773410797 0.010372722521424294 -0.015301362611353397 -0.16830530762672424 0.021143697202205658 0.11176469177007675 0.05286991968750954 0.10093215107917786 -0.0747528076171875 -0.01902681030333042 0.05877987667918205 0.018382789567112923 -0.0530962310731411 -0.043141305446624756 0.026988724246621132 -0.007430202327668667 -0.004402501042932272 0.049577999860048294 -0.051137104630470276 0.09855946898460388 -0.053984738886356354 -0.024019019678235054 -0.030886249616742134 0.058564443141222 -0.005809775087982416 -0.07741405069828033 -0.05540292710065842 0.014088842086493969 0.0024309742730110884 -0.0024408288300037384 0.18037758767604828 -0.0036417990922927856 -0.06967828422784805 -0.17150311172008514 -0.02906057983636856 0.00524386391043663 0.007048223167657852 0.04766395688056946 -0.006155692506581545 0.047428954392671585 -0.09944142401218414 -0.010102525353431702 0.005039163865149021 -0.06617940962314606 0.01934916339814663 0.02011902630329132 0.01560563500970602 -0.038724277168512344 -0.06932953745126724 -0.12986086308956146 -0.0005722342757508159 -0.004858626518398523 0.02231939136981964 0.16438256204128265 0.05365340784192085 0.09312278032302856 0.006788881029933691 0.0643538385629654 -0.05128985270857811 0.027973569929599762 0.08294010907411575 -0.061109889298677444 -0.014637547545135021 -0.03432580456137657 0.017239242792129517 0.010973399505019188 -0.010018650442361832 -0.014051384292542934 -0.08839040249586105 -0.012676588259637356 -0.035169269889593124 0.041368551552295685 -0.017428388819098473 0.043506234884262085 -0.06530974805355072 0.009759354405105114 0.01715165004134178 0.06947392225265503 0.030256830155849457 -0.04449499770998955 -0.0025754193775355816 -0.03060365468263626 -0.03687899932265282 0.0010917867766693234 0.06794316321611404 -0.07278583198785782 -0.0622226744890213
0.10829044133424759 0.05644375830888748 0.01767995022237301 -0.058226119726896286 0.10305560380220413 -0.015531313605606556 0.023916257545351982 0.11134523153305054 -0.029773643240332603 0.04578477516770363 0.01913953572511673 -0.020041417330503464 0.03529823571443558 0.08069991320371628 -0.005346893798559904 -0.015612063929438591 0.008871094323694706 -0.006051398813724518 -0.0553378202021122 0.11946991086006165 -0.15460260212421417 0.03929108381271362 0.052294082939624786 0.10775237530469894 0.02583511359989643 -0.0526411309838295 -1.716129554552026e-05 -0.03930105268955231 -0.043111708015203476 0.054968636482954025 -0.0320567786693573 -0.07821887731552124
0.037010084837675095 0.20558027923107147 0.19454121589660645 -0.08024252206087112 -0.13796371221542358 0.1176418587565422 0.0867704227566719 0.006050091236829758 -0.09083139896392822 0.021047214046120644 0.0815596729516983 0.022329000756144524 0.12298814207315445 0.10862618684768677 0.15054742991924286 -0.03279580548405647 -0.0426592156291008 0.09907367080450058 0.1999448537826538 0.041942838579416275 0.1911482959985733 0.039553623646497726 -0.01770329289138317 -0.06420741975307465 0.12979072332382202 0.05374499037861824 -0.000125049045891501 0.14985083043575287 -0.14132867753505707 -0.07160697132349014 0.07754840701818466 0.05675065144896507
-0.010827521793544292
