-0.046848490834236145 -0.0090405298396945 -0.017389655113220215 0.034004293382167816 -0.15383878350257874 -0.06773993372917175 -0.16256874799728394 -0.11806430667638779 0.03639271482825279 0.0020665216725319624 -0.008690053597092628 -0.15482719242572784 0.010846555233001709 0.010976388119161129 -0.028584642335772514 -0.07819727808237076 0.006609191186726093 -0.14774344861507416 -0.11293172836303711 -0.018087340518832207 0.0165428314357996 -0.025179078802466393 -0.089531809091568 0.052930716425180435 -0.05260465666651726 -0.04853706434369087 0.012515774928033352 0.043150801211595535 0.1019539013504982 -0.023159004747867584 -0.013617978431284428 -0.0060214996337890625 -0.08194389939308167 0.012317621149122715 -0.014749196358025074 -0.2100752592086792 0.05271124467253685 -0.0035730411764234304 -0.08650945872068405 -0.02630259282886982 0.023800959810614586 0.006808505859225988 -0.05488771200180054 -0.15900975465774536 -0.04589374363422394 -0.016760004684329033 -0.0014658994041383266 -0.018532291054725647 -0.021380869671702385 -0.08476714044809341 -0.008974415250122547 -0.024966442957520485 -0.027589326724410057 -0.06825871020555496 -0.001681479741819203 -0.018944162875413895 0.008462246507406235 0.014012524858117104 -0.005043149460107088 0.11493870615959167 0.010944229550659657 0.023024817928671837 -0.27459433674812317 -0.026364898309111595 -0.014908773824572563 -0.005262323189526796 -0.027371585369110107 0.006580226123332977 -0.028599491342902184 -0.1331053376197815 -0.019557729363441467 0.1518690586090088 -0.06644608825445175 -0.04484483227133751 -0.14335115253925323 -0.13076791167259216 -0.2614503502845764 -0.024982457980513573 -0.015557480044662952 -0.022573234513401985 -0.22496432065963745 -0.0782146230340004 -0.19472089409828186 -0.03597006946802139 -0.14150840044021606 0.12385617196559906 -0.11212046444416046 -0.1367020606994629 -0.0731670930981636 -0.0556926503777504 -0.03139107674360275 0.08748047053813934 -0.14700184762477875 -0.036079488694667816 -0.009916807524859905 -0.24350352585315704 0.055088918656110764 -0.016695402562618256 -0.013153152540326118 0.05986175313591957 -0.026402754709124565 -0.020639173686504364 -0.03663870692253113 -0.1204499676823616 -0.11143773049116135 -0.07749488949775696 0.0191572904586792 0.011838153004646301 0.006877453997731209 -0.07734604179859161 -0.05220446363091469 -0.006830892525613308 0.03428163379430771 -0.028420045971870422 -0.10869237780570984 -0.0409160852432251 -0.059085406363010406 0.020447103306651115 -0.03647280111908913 -0.010398405604064465 -0.15270228683948517 -0.18669486045837402 0.007096854969859123 -0.04137664660811424 0.04333047941327095 0.026349779218435287 0.0027977058198302984 0.033998843282461166 -0.09991087764501572 0.0189529899507761 -0.13590966165065765 -0.11191181093454361 -0.08382091671228409 -0.0817834883928299 -0.026171503588557243 0.015416540205478668 -0.02386954426765442 -0.07142812758684158 -0.057246964424848557 -0.03297241032123566 0.059049300849437714 -0.030212445184588432 -0.043292880058288574 0.004356107208877802 -0.04833684861660004 -0.15456783771514893 -0.16190524399280548 -0.05903071165084839 -0.18264323472976685 -0.03388696908950806 -0.047790031880140305 -0.043216776102781296 -0.04191724583506584 -0.022169461473822594 -0.024308573454618454 0.006288988050073385 -0.004750221502035856 -0.0009619106422178447 0.12218373268842697 -0.026861853897571564 -0.034576166421175 -0.026806224137544632 -0.002722928998991847 -0.18062767386436462 -0.014344075694680214 0.1159038245677948 -0.12756405770778656 0.005793148651719093 -0.10430049896240234 -0.15017768740653992 -0.14449985325336456 -0.022526800632476807 -0.04096536710858345 -0.06395438313484192 -0.060793276876211166 -0.08429205417633057 0.0008044506539590657 -0.027543865144252777 -0.017766525968909264 -0.14287443459033966 0.14311984181404114 0.04442698508501053 -0.026230202987790108 -0.039297059178352356 -0.024404093623161316 0.05343297868967056 -0.19285839796066284 -0.09610982984304428 -0.08588770776987076 -0.0017250381642952561 -0.007936150766909122 0.00032782036578282714 -0.09646166115999222 0.031744781881570816 -0.05030740424990654 -0.01589755341410637 -0.17529377341270447 0.07836879044771194 -0.0360848493874073 -0.05226930230855942 -0.013700197450816631 -0.03194253146648407 -0.014514212496578693 -0.0163921806961298 -0.031962521374225616 -0.07199474424123764 0.019477739930152893 -0.013761010020971298 -0.13956084847450256 -0.05295981466770172 -0.011595271527767181 -0.241895854473114 -0.020305907353758812 -0.050375498831272125 -0.008599113672971725 0.062348637729883194 -0.005381520371884108 -0.16938252747058868 -0.11121669411659241 -0.11193443834781647 -0.029836613684892654 0.003357409732416272 -0.11049749702215195 -0.06453757733106613 -0.006660432554781437 0.017539409920573235 -0.008442859165370464 -0.014210160821676254 -0.03469950705766678 -0.01972522959113121 -0.21224108338356018 -0.030499480664730072 0.02748969942331314 -0.22620007395744324 -0.018416251987218857 -0.03247934952378273 -0.17950314283370972 -0.00560541357845068 -9.66079460340552e-05 -0.08659537881612778 -0.11301547288894653 -0.16962653398513794 0.012890806421637535 0.022587161511182785 -0.16785842180252075 -0.020551856607198715 -0.015638506039977074 0.05953110381960869 -0.16637615859508514 -0.016428444534540176 -0.022513503208756447 0.005838413722813129 0.0414259247481823 -0.03825879096984863 0.0024385876022279263 0.09602925181388855
-0.059941377490758896 -0.1326914280653 0.00346044241450727 -0.07774726301431656 -0.042783260345458984 -0.09432581067085266 0.09628087282180786 -0.06251222640275955 -0.025583302602171898 -0.04808029159903526 -0.23872703313827515 0.025731200352311134 -0.03126085549592972 -0.010862665250897408 -0.05534769222140312 -0.02940596081316471 -0.19335691630840302 0.045231614261865616 -0.05850828438997269 0.0234824288636446 -0.016307272017002106 0.0399172343313694 -0.07220248878002167 0.07559853792190552 0.14337928593158722 0.04934562370181084 0.007969244383275509 0.0653407946228981 0.22014087438583374 -0.0075268829241395 0.01531200110912323 -0.09720302373170853
0.030258426442742348 0.09051655977964401 0.13795843720436096 0.10601785778999329 -0.002324092434719205 -0.002575863618403673 0.09509921073913574 0.06369238346815109 0.018843036144971848 -0.0718059241771698 -0.00045137322740629315 -0.013211113400757313 -0.03227328509092331 0.00625459011644125 -0.0018510489026084542 0.15753166377544403 -0.016132190823554993 0.0012091125827282667 0.12534739077091217 0.06416396796703339 0.02631625346839428 0.05421188101172447 0.09702518582344055 0.09515732526779175 -0.0009722376125864685 -0.07994619756937027 -0.06000620126724243 -0.01585560478270054 0.11119401454925537 0.00015995866851881146 0.042255986481904984 -0.04157332330942154
-0.05649368837475777
