-0.691487193107605 -0.18506011366844177 0.10389924794435501 -0.2798783779144287 -0.2632735073566437 -0.3768661320209503 -0.18782971799373627 -0.05024101585149765 0.03716610372066498 -0.019009005278348923 -0.027298884466290474 -0.3943997323513031 -0.06573305279016495 -0.16767629981040955 -0.32709553837776184 0.12301550805568695 -0.016607770696282387 -1.79203462600708 -0.44358134269714355 0.11890102177858353 -0.2010878473520279 -2.0953524112701416 -0.10827852040529251 0.04700097069144249 -2.2742741107940674 -0.7901826500892639 0.5202016830444336 0.1134691908955574 -3.368237018585205 -0.3115164339542389 -0.2977689206600189 0.34686458110809326 -0.2687908113002777 -1.5754927396774292 -0.3191222846508026 0.3735741376876831 -1.556256890296936 -0.2195872813463211 -0.19680596888065338 -0.08194746822118759 -0.37518709897994995 -0.8199520111083984 -0.5288249850273132 -0.09977515041828156 -0.20241764187812805 -0.15000194311141968 -1.2177928686141968 -0.43289217352867126 0.029178185388445854 -0.29167667031288147 -0.38242021203041077 -1.3812867403030396 -1.8398840427398682 0.03574523329734802 -0.410804808139801 -0.6743631958961487 -2.2220723628997803 0.3728199601173401 -0.5596362948417664 -0.5015144348144531 -0.1710788458585739 -0.13988585770130157 -0.6126445531845093 -0.005407121963799 -2.2678301334381104 0.12862125039100647 -2.595659017562866 0.18877311050891876 -0.030194254592061043 0.20725557208061218 -0.07931029796600342 -0.5402553677558899 -0.45274943113327026 0.1489841490983963 -1.1305747032165527 -0.34544602036476135 -2.6020452976226807 -0.7537692189216614 -0.1283898502588272 -0.34531351923942566 0.290941059589386 -0.11454354971647263 -1.5955636501312256 0.049477942287921906 -0.534957230091095 -0.48550519347190857 -0.5763733983039856 -0.43849244713783264 -0.644464373588562 -0.43623217940330505 -1.1846691370010376 -0.7429785132408142 -0.6641998291015625 -0.14468532800674438 -0.9096312522888184 0.19562436640262604 -0.46529653668403625 -0.23608539998531342 -0.3657488524913788 0.19377216696739197 -2.447655439376831 0.30437102913856506 -0.7808088660240173 -0.7545867562294006 -1.6232572793960571 -1.495700716972351 -0.3077021539211273 -0.35603174567222595 -0.39531412720680237 0.0662560760974884 -0.07248764485120773 -0.22610192000865936 -1.5168840885162354 -0.07513223588466644 0.14794373512268066 0.01168198324739933 -1.9483985900878906 -0.3182051181793213 -1.0276150703430176 -0.34722161293029785 0.1752404272556305 -0.7553901076316833 0.23397599160671234 -0.16692768037319183 -0.561051607131958 -1.070204734802246 -1.1985774040222168 0.03603731095790863 -0.25721344351768494 -2.3662002086639404 -0.14602787792682648 -2.112494468688965 -2.5560646057128906 -0.44764548540115356 -0.09072849899530411 -0.32924410700798035 -0.211300790309906 -0.12863613665103912 -0.38014957308769226 -0.048126474022865295 -1.1437453031539917 -0.13349086046218872 0.5047862529754639 0.07156895101070404 -0.28551003336906433 -1.426509976387024 -1.1097376346588135 -0.20089474320411682 -0.5799791812896729 -0.2695588171482086 -0.45276516675949097 -0.5143842697143555 0.12636153399944305 -0.19793903827667236 -0.860802412033081 -0.0077415648847818375 -0.20481407642364502 0.6982846856117249 -0.07140431553125381 -0.09701176732778549 -0.45272621512413025 -0.018276797607541084 -0.344507098197937 -2.2119574546813965 -0.011665325611829758 -0.11356016993522644 0.291232168674469 -0.1152341291308403 -1.951237440109253 -2.3580031394958496 0.03466229885816574 -0.4636625647544861 -0.2799391746520996 -1.4829785823822021 -0.08090568333864212 -1.929244041442871 -0.18847496807575226 -0.3314817547798157 -0.45735102891921997 -1.8662770986557007 -0.13204102218151093 -0.09505485743284225 0.04960727319121361 -0.3136199116706848 -0.28428956866264343 -0.30424755811691284 0.10242145508527756 -1.4131559133529663 0.012632624246180058 -0.21972857415676117 -1.2710762023925781 -0.1933295726776123 -0.6057793498039246 -0.3924449682235718 -0.22926951944828033 -0.28880730271339417 -0.2781880497932434 -2.3032026290893555 -0.3140697479248047 0.20454543828964233 -1.6039633750915527 0.33515599370002747 -0.037459515035152435 -0.8111515641212463 -0.038921236991882324 -0.1613018810749054 0.05615857616066933 -3.0676610469818115 -0.37820303440093994 -0.2600148022174835 -2.4002163410186768 -0.6669989824295044 0.0818076878786087 -1.6477030515670776 0.3917088508605957 -0.22815614938735962 -0.3036618232727051 -0.30620667338371277 -0.24636782705783844 -1.4063773155212402 -0.14712640643119812 -0.6465151309967041 -1.2899116277694702 -1.3729431629180908 0.24964787065982819 -0.7356824278831482 0.18241657316684723 -0.3158241808414459 -0.038546353578567505 -0.1158423125743866 -1.9141358137130737 -1.9039591550827026 -1.5859222412109375 -0.12014591693878174 -1.1647170782089233 0.1360706090927124 0.09645380079746246 -0.08692548424005508 0.16569139063358307 -0.5278011560440063 -0.3669396936893463 0.06633761525154114 -0.06315835565328598 -0.23425854742527008 -0.5572702288627625 0.03122669830918312 -0.18571481108665466 -0.11123025417327881 -0.1775934249162674 0.006897361949086189 0.22167542576789856 0.2698434889316559 -0.09331607818603516 -0.6305791735649109 -0.25102728605270386 -0.996574342250824
-0.2846929132938385 0.4747750461101532 0.5464942455291748 -1.3660356998443604 -0.396593302488327 0.49448707699775696 -0.3525133728981018 0.1828710287809372 -0.1106569692492485 0.48946303129196167 0.8489028215408325 0.8921743631362915 -0.5662912130355835 -0.32731470465660095 0.19377869367599487 0.1680736541748047 -2.2810704708099365 -0.11367926746606827 0.48189273476600647 -2.8325958251953125 -0.4015038311481476 0.4011194705963135 -2.4541001319885254 -0.43555310368537903 -0.3035704791545868 0.3817881941795349 -3.606559991836548 0.39674830436706543 0.1672762632369995 -2.2304911613464355 -2.0536179542541504 0.2941574156284332
-0.1476859301328659
