-0.02044530026614666 -0.11292975395917892 -0.010900619439780712 0.1532963514328003 0.014481570571660995 0.015083102509379387 -0.028146669268608093 -0.012126022949814796 -0.07537886500358582 -0.06149335578083992 -0.02721969224512577 0.05589795112609863 -0.07228602468967438 -0.07162553817033768 -0.03563988581299782 -0.11755721271038055 0.008355515077710152 -0.06042855605483055 -0.025207605212926865 0.028639646247029305 0.10126505047082901 0.07794051617383957 -0.07447376102209091 0.06512609869241714 0.01699870079755783 -0.026945682242512703 -0.05380227044224739 -0.03631041198968887 0.008009523153305054 0.0470522902905941 -0.019673479720950127 0.06130749732255936 0.08416363596916199 0.023344265297055244 0.02066524513065815 -0.036158107221126556 -0.01568114198744297 -0.06923247128725052 -0.039579667150974274 -0.009071321226656437 -0.021957924589514732 0.025035010650753975 -0.048512548208236694 -0.03186315670609474 -0.03941638395190239 -0.0025366630870848894 -0.08763276040554047 -0.029724936932325363 -0.16435472667217255 0.009842811152338982 -0.024491766467690468 -0.056786470115184784 -0.014171025715768337 -0.037717871367931366 -0.09349419176578522 -0.04738321527838707 0.01749398000538349 -0.11332011967897415 0.018615009263157845 0.058278121054172516 0.050917211920022964 -0.01130528561770916 -0.030794009566307068 0.04261277616024017 -0.00884777307510376 0.02363373339176178 0.10367468744516373 0.02583531104028225 0.010639021173119545 -0.0339568629860878 0.06862248480319977 -0.015580171719193459 0.06598620116710663 -0.10617133975028992 0.05693355202674866 0.03472616896033287 0.002230333164334297 -0.02779359556734562 0.011811310425400734 -0.0581979863345623 0.026555771008133888 -0.04476717486977577 0.034190259873867035 0.019620010629296303 0.12098444253206253 0.06182989850640297 0.0919470265507698 0.023472215980291367 -0.01626874879002571 -0.018139630556106567 0.028697069734334946 -0.013254725374281406 -0.0565544031560421 0.06025713309645653 0.025360912084579468 0.04275327920913696 -0.02301045134663582 0.015911709517240524 0.010588699951767921 -0.01072340551763773 -0.029717814177274704 -0.0411594919860363 0.03284565731883049 0.000568253977689892 0.0037879105657339096 0.08477213978767395 0.009148198179900646 0.0028708772733807564 -0.0013624511193484068 0.03200497105717659 -0.10169585794210434 -0.014252511784434319 0.00897006131708622 -0.03287708759307861 0.06704393029212952 -0.004793904721736908 0.025539075955748558 -0.07660863548517227 0.0032867947593331337 0.049246832728385925 0.016312317922711372 -0.06131083890795708 0.002021363703534007 -0.005667154211550951 -0.021398421376943588 0.016344677656888962 0.05666962265968323 -0.09277176856994629 -0.020382419228553772 0.09876061975955963 -0.036010194569826126 0.053336840122938156 -0.05163600668311119 -0.013392609544098377 -0.056765105575323105 -0.12050248682498932 -0.05784521624445915 -0.03152996301651001 0.004574744962155819 -0.07159344106912613 0.07505346834659576 -0.03868980333209038 0.024146249517798424 0.020153166726231575 0.11446495354175568 -0.006031996104866266 -0.03729596361517906 -0.09999965131282806 0.0687028244137764 -0.011729362420737743 -0.032819248735904694 0.05365079641342163 -0.08612488210201263 0.07337778061628342 0.025790825486183167 0.014108320698142052 0.019156215712428093 -0.1074918732047081 0.0437040776014328 0.025540132075548172 0.10609541088342667 0.04983116686344147 0.00868697464466095 0.014072251506149769 0.02842145413160324 0.011688251979649067 0.04689536988735199 -0.10247759521007538 -0.06569382548332214 -0.12348242104053497 -0.04389099404215813 -0.03935159370303154 -0.06807723641395569 -0.02855842001736164 -0.04000544920563698 -0.032050490379333496 0.07819200307130814 0.07094007730484009 0.06890222430229187 0.007551443763077259 0.09227264672517776 -0.054798517376184464 0.049646101891994476 0.010938422754406929 0.06929069012403488 -0.03963210806250572 0.10233050584793091 -0.055095311254262924 -0.04194406419992447 -0.21542420983314514 0.19850017130374908 -0.1612166166305542 0.0351867638528347 0.03449675440788269 0.02680480293929577 0.015854647383093834 0.03354443982243538 -0.06948070228099823 -0.07448356598615646 -0.016850359737873077 -0.02334040030837059 -0.026722358539700508 -0.009425552561879158 -0.04332248494029045 0.022745618596673012 -0.026847578585147858 -0.025444021448493004 0.029977083206176758 -0.037489015609025955 0.05726812779903412 -0.052097294479608536 -0.1012428030371666 0.028096016496419907 0.0018407426541671157 0.06180378422141075 0.018942689523100853 0.05583849921822548 0.038793180137872696 0.03720724955201149 -0.025747869163751602 -0.030727237462997437 -0.06811190396547318 -0.03168530762195587 0.0266787838190794 -0.029306992888450623 -0.0028006944339722395 -0.012059401720762253 -0.02670086733996868 -0.04000945761799812 0.0321911983191967 -0.0481409952044487 0.011329587548971176 0.049422986805438995 -0.003987815231084824 0.016086287796497345 -0.005004888400435448 -0.04630390182137489 0.051713526248931885 0.0496385432779789 -0.040214911103248596 0.04659881442785263 0.05728570744395256 0.00876824650913477 0.009133335202932358 -0.03600337356328964 0.02103017270565033 -0.037576016038656235 0.0025528299156576395 -0.02140074223279953 -0.013028074987232685 -0.03143058717250824 -0.06999518722295761 -0.04201154038310051 0.039043691009283066 0.024361716583371162 0.009702971205115318 -0.1671103537082672 0.02803380787372589 0.03553120419383049 0.006129410583525896 0.023843729868531227 0.07592000812292099 0.3369862735271454 0.3142443299293518 0.07080525904893875 -0.05275958776473999 0.03718908131122589 -0.012486456893384457 0.05528777092695236 0.005220900289714336 -0.0049851988442242146 0.16349919140338898 -0.007323380559682846 0.036165863275527954 -0.033528782427310944 0.0031467594671994448 0.0002150494692614302 0.03902050852775574 -0.02857884392142296 -0.1676091104745865 0.014217198826372623 0.014959580264985561 -0.08611730486154556 -0.006482208613306284 -0.012783026322722435 0.03373750299215317 0.06230423226952553 -0.016406115144491196 -0.029165737330913544 -0.027945078909397125 0.03727903217077255 -0.020763535052537918 -0.010464225895702839 -0.05341503024101257 0.02415771782398224 -0.030924588441848755 -0.004634054843336344 -0.03669145703315735 -0.022126859053969383 -0.00304320827126503 -0.0351189561188221 0.01599566452205181 -0.039409685879945755 -0.05813107639551163 -0.05465162545442581 -0.0205818023532629 -0.06444120407104492 -0.05650757998228073 0.0075300224125385284 -0.0172883253544569 -0.009888350032269955 0.02221684902906418 0.05672317370772362 -0.039836298674345016 0.008139269426465034 -0.05990900471806526 0.004219925031065941 -0.007500872481614351 0.0017008510185405612 -0.018976591527462006 -0.01590462028980255 0.024634430184960365 -0.047012414783239365 -0.002271508565172553 -0.004374150186777115 -0.06292477995157242 -0.19108664989471436 -0.2119167149066925 0.002051313640549779 0.016941292211413383 0.003078371984884143 0.014667397364974022 0.04499603062868118 -0.08438360691070557 0.19556230306625366 0.04850966855883598 0.010274405591189861 0.013122604228556156 -0.07581222802400589 -0.019259445369243622 0.009699423797428608 0.04686403647065163 0.0027321302331984043 -0.17667029798030853 -0.027563778683543205 0.03562255948781967 -0.07494956254959106 -0.013629416935145855 -0.003957485314458609 0.0008524236036464572 0.031483374536037445 -0.058951959013938904 -0.006972421891987324 -0.05388164892792702 0.04525771364569664 0.002366279251873493 -0.005625125020742416 -0.027853820472955704 0.05386817827820778 0.04032173007726669 -0.03306614235043526 -0.015253749676048756 -0.010382616892457008 -0.002917295088991523 -0.05159050598740578 -0.004953088238835335 -0.032384589314460754 -0.06607454270124435 -0.029538875445723534 -0.01860641874372959 -0.08823937177658081 -0.061474163085222244 -0.016396068036556244 -0.046242211014032364 0.001797868637368083 -0.027919083833694458 0.0003913023101631552 -0.025022774934768677 0.016374800354242325 -0.02291196584701538 -0.017588704824447632 -0.031244177371263504 -0.02679305151104927 -0.01221746951341629 -0.0522172749042511 -0.030686698853969574 0.028101306408643723 -0.04421678185462952 -0.10707801580429077 0.04197802022099495 -0.01997753046452999 0.058216553181409836 -0.02488616853952408 0.006498259492218494 -0.07058019936084747 -0.05286717787384987 -0.03944598138332367 -0.15410126745700836 -0.05005541816353798 0.05170552060008049 0.014236949384212494 -0.034384287893772125 -0.08365849405527115 -0.0058713932521641254 -0.03511139377951622 -0.06715978682041168 -0.04312225803732872 -0.016955044120550156 0.019983021542429924 0.03395513817667961 0.04695548862218857 0.02059761807322502 -0.005996130872517824 -0.003455901285633445 -0.15991783142089844 -0.05541416257619858 0.053596168756484985 -0.02394344098865986 0.015592789277434349 0.028839271515607834 -0.0010620485991239548 -0.044285502284765244 -0.01415953692048788 0.005960848648101091 0.014573417603969574 0.010428379289805889 0.048996150493621826 -0.02062080055475235 0.06791903078556061 -0.029445698484778404 -0.06485537439584732 -0.004852165002375841 0.10634002834558487 -0.03985479101538658 0.000515765103045851 0.04621417820453644 -0.042952507734298706 -0.0017327085370197892 0.009835311211645603 -0.05166017264127731 0.06100474298000336 -0.043584320694208145 -0.04570668935775757 0.07459412515163422 -0.029087210074067116 -0.0471922792494297 -0.04451215639710426 -0.033375032246112823 0.08527763187885284 0.011646275408565998 0.03716782480478287 0.04385130852460861 -0.09301011264324188 -0.15724195539951324 0.08877898007631302 -0.014226133935153484 0.006287385709583759 -0.04040519520640373 0.10942130535840988 -0.005001323763281107 0.13982652127742767 -0.024958522990345955 -0.017054613679647446 -0.05566324293613434 0.011071722954511642 0.040572330355644226 0.016001898795366287 -0.022683629766106606 -0.03277869150042534 0.03377199545502663 0.01655631698668003 -0.07454963773488998 -0.038709718734025955 0.023958861827850342 0.016632499173283577 0.01261647418141365 0.036046888679265976 -0.028321444988250732 0.039895202964544296 -0.035381678491830826 0.07864884287118912 -0.023712877184152603 -0.06013721972703934 0.004796762019395828 0.03431796655058861 0.0005859450902789831 -0.01212952472269535 -0.0006689929869025946 0.04604239761829376 -0.044380687177181244 0.04155759513378143 -0.06572037190198898 0.052753087133169174 0.03172319009900093 0.035077206790447235 -0.007226256653666496 0.08241879940032959 0.053003616631031036 0.012892557308077812 -0.011705379001796246 0.03423614427447319 0.021860292181372643 -0.04787622392177582 0.016561558470129967 0.026652881875634193 0.02106642909348011 0.03141704946756363 0.0858687236905098 -0.04512393847107887 -0.05567554384469986 0.02223021909594536 -0.017160991206765175 0.5950623154640198 0.48187869787216187 0.11849957704544067 0.009638073854148388 -0.008518676273524761 -0.0014293581480160356 -0.00228013820014894 0.01793491281569004 0.38938865065574646 0.13917675614356995 -0.05369528755545616 -0.08660907298326492 -0.05144188925623894 0.01511444617062807 -0.018194233998656273 -0.0014005115954205394 -0.29781705141067505 -0.11682689934968948 -0.1175912544131279 -0.08040070533752441 -0.07583802938461304 -0.04400920495390892 -0.009687150828540325 -0.0414709597826004 0.040553729981184006 -0.03215032070875168 -0.0830811932682991 -0.08248993754386902 -0.07382744550704956 -0.07457361370325089 -0.03576568141579628 0.0017530786572024226 0.006545215845108032 -0.05812983587384224 -0.06422306597232819 -0.07884026318788528 -0.0719052329659462 -0.0423588864505291 -0.0038169631734490395 0.022228391841053963 -0.01582588069140911 -0.0056286160834133625 -0.0598687082529068 -0.09828902781009674 -0.029438357800245285 -0.048485733568668365 -0.025771090760827065 0.0013520917855203152 -0.02174295112490654 -0.010915842838585377 0.010512569919228554 -0.02656245417892933 0.00260857748799026 -0.02392847090959549 0.00506596639752388 0.006537952460348606 0.018333900719881058 0.00515341991558671 -0.023028479889035225 -0.0025325287133455276 0.020189527422189713 -0.005946094635874033 0.006976628676056862 0.007157446350902319 0.6110566854476929 0.6009105443954468 0.13893546164035797 0.047727860510349274 -0.018409637734293938 -0.013622882775962353 -0.017540760338306427 -0.010546248406171799 0.5329375863075256 0.4697214961051941 0.006967651192098856 -0.10144664347171783 -0.07203220576047897 -0.0032766659278422594 -0.002777677495032549 0.033089909702539444 -0.2847294509410858 -0.057250138372182846 -0.014048103243112564 -0.05753243342041969 -0.0770459696650505 -0.04283059015870094 -0.01362096332013607 -0.014273777604103088 0.0950678288936615 -0.01713525503873825 -0.06856710463762283 -0.07194331288337708 -0.08011817932128906 -0.06587093323469162 -0.022345801815390587 -0.01772565394639969 -0.026718098670244217 -0.064551942050457 -0.07340861111879349 -0.0761110931634903 -0.08238033950328827 -0.05103025585412979 -0.02280101180076599 0.019283059984445572 -0.002321119187399745 -0.010463083162903786 -0.05867402255535126 -0.09284225106239319 -0.028263892978429794 -0.03664544224739075 -0.029924912378191948 0.0021983112674206495 -0.0417063906788826 -0.004818948917090893 -0.008545245043933392 -0.01574469543993473 -0.010884692892432213 -0.022204263135790825 0.008922754786908627 -0.006132639478892088 -0.022855542600154877 0.028834573924541473 -0.023552073165774345 -0.007756255567073822 0.018950771540403366 -0.016877902671694756 0.0058728549629449844 0.00739612802863121 -0.11799099296331406 0.09362238645553589 -0.06242892146110535 -0.01748555153608322 -0.037181273102760315 0.02822789177298546 -0.01395484246313572 0.11663433164358139 0.043419815599918365 0.020304575562477112 -0.027545353397727013 0.030934400856494904 0.05050155892968178 -0.0034378389827907085 -0.03995982185006142 -0.06839337944984436 -0.05310538783669472 -0.026415353640913963 -0.03717151656746864 0.027394579723477364 0.010477716103196144 -0.01820673607289791 0.024370700120925903 0.03460193797945976 -0.00588414678350091 -0.09804198145866394 0.01921035163104534 -0.026042547076940536 -0.06348752975463867 -0.05791666358709335 -0.0034614955075085163 -0.03187652677297592 -0.007714226841926575 0.04962814971804619 0.06115657091140747 -0.02128843404352665 -0.020213518291711807 0.012563684023916721 0.013401362113654613 0.03606969490647316 -0.016964174807071686 0.014385269023478031 0.006401425693184137 -0.11225271224975586 -0.03111708164215088 0.005255758762359619 0.01030348427593708 -0.0589681901037693 0.04677918925881386 0.008249728940427303 0.20674331486225128 0.1450604945421219 0.09113190323114395 -0.04672885313630104 -0.049724090844392776 0.0674426332116127 -0.15274548530578613 -0.0492880679666996 0.10203638672828674 0.017128081992268562 0.06456642597913742 -0.1357795149087906 0.10614508390426636 -0.11373196542263031 0.1335359662771225 -0.039536189287900925 -0.02757316827774048 -0.032189857214689255 0.06172008812427521 0.003658994333818555 -0.056422796100378036 -0.10790156573057175 0.019778341054916382 -0.07514291256666183 0.02537066675722599 -0.03870457038283348 0.011080527678132057 -0.017338767647743225 0.04760279878973961 -0.013159808702766895 -0.007195709738880396 0.00024226565437857062 -0.05769192427396774 -0.007173123769462109 0.03447850048542023 -0.002219218760728836 -0.03642721846699715 0.0029201721772551537 -0.039620302617549896 -0.03595513850450516 -0.04112958535552025 -0.04238881170749664 -0.006261812523007393 -0.09067629277706146 0.01969870552420616 0.004978126380592585 -0.08784664422273636 0.02200053259730339 0.015397701412439346 -0.04774909093976021 -0.048785898834466934 -0.02438538335263729 -0.033152103424072266 -0.026065992191433907 0.002133490052074194 0.01378030888736248 0.08032559603452682 0.013924737460911274 -0.024284228682518005 0.00613210117444396 -0.014416924677789211 0.019763989374041557 -0.06327243149280548 -0.04773460701107979 0.10265054553747177 0.14650613069534302 0.07210517674684525 0.06529103219509125 0.0234138872474432 -0.021935531869530678 0.02979169599711895 -0.17831212282180786 -0.043466586619615555 0.009491963312029839 -0.0061941291205585 -0.014146953821182251 -0.10883422195911407 0.08941184729337692 0.203344464302063 0.08635811507701874 -0.06855472177267075 0.18744373321533203 0.1290598213672638 0.05478724464774132 0.04674221947789192 0.22188524901866913 -0.023322755470871925 0.054574206471443176 -0.04936875030398369 -0.027390480041503906 -0.044686928391456604 -0.028358647599816322 0.06001938134431839 0.016394533216953278 0.04751162230968475 0.05037799850106239 -0.02773318998515606 -0.09400751441717148 -0.0843522921204567 -0.020949285477399826 0.02831478789448738 0.048031240701675415 0.016429826617240906 -0.03902317211031914 -0.0016267873579636216 -0.09304546564817429 -0.09143352508544922 0.015193875879049301 -0.06847932934761047 -0.014424631372094154 0.06952236592769623 0.04618310555815697 -0.024031862616539 -0.09615150839090347 -0.08618177473545074 -0.01837959513068199 0.035186365246772766 0.045830849558115005 -0.018618840724229813 -0.0010039161425083876 -0.0016609322046861053 -0.03310295566916466 -0.04192842170596123 0.018099302425980568 -0.027044810354709625 -0.003208969486877322 0.0019818523433059454 -0.0020811916328966618 -0.022004809230566025 0.006985920015722513 0.00701531395316124 -0.01943090558052063 0.008129660971462727 -0.05882851779460907 0.020703518763184547 -0.002019316190853715 0.04058152809739113 0.003679050365462899 0.024015318602323532 0.012618779204785824 0.019539950415492058 -0.036755651235580444 0.02610020712018013 0.34003180265426636 0.06812278926372528 0.001687861979007721 0.017912311479449272 0.09551090747117996 0.25508370995521545 -0.07773667573928833 -0.025651486590504646 -0.06441792845726013 0.13798856735229492 0.0030200625769793987 0.03759680315852165 0.09500138461589813 -0.00919447373598814 -0.019036253914237022 -0.045125607401132584 -0.0014810645952820778 -0.016249114647507668 -0.04670767858624458 -0.05020420625805855 0.0007920353673398495 0.029838114976882935 -0.05138067156076431 0.06851553171873093 -0.011898612603545189 0.0026526034343987703 -0.06773775070905685 -0.07039112597703934 0.008336564525961876 -0.037312135100364685 0.0655326098203659 0.013666373677551746 -0.004630626179277897 -0.01371559128165245 -0.06514788419008255 -0.0755239874124527 -0.037632472813129425 0.010891558602452278 -0.014349197037518024 -0.04620368778705597 -0.03399423509836197 -0.01986037753522396 -0.027503928169608116 -0.037779442965984344 -0.017082946375012398 -0.007298911456018686 -0.09155510365962982 0.027513520792126656 -0.01889878138899803 -0.037221308797597885 0.040143419057130814 0.03224955126643181 -0.045857563614845276 0.0050676497630774975 0.029699591919779778 -0.0024199075996875763 -0.016942724585533142 0.05139891430735588 0.0469510555267334 -0.00020471832249313593 0.01745588146150112 0.02299698255956173 0.030733879655599594 -0.18412530422210693 0.0877966657280922 0.03558739647269249 0.019428391009569168 0.04031221568584442 -0.0430009663105011 -0.012315155938267708 0.030136093497276306 -0.010830908082425594 -0.018494654446840286 0.020612530410289764 -0.027672043070197105 -0.02238777093589306 0.010180477984249592 -0.02654941938817501 -0.03385963290929794 -0.027668680995702744 0.05855012312531471 0.05768192186951637 -0.0013900968478992581 0.04016689583659172 -0.04486304894089699 0.06928963214159012 0.031232427805662155 0.028452178463339806 0.17766964435577393 -0.06262142211198807 -0.06104506552219391 -0.04938068985939026 -0.01533249020576477 0.0035498864017426968 -0.03782067820429802 0.05614497512578964 0.18624012172222137 -0.1708976775407791 -0.060916025191545486 -0.07278690487146378 -0.058864206075668335 0.01035646628588438 -0.004114124923944473 -0.04423040896654129 0.20423124730587006 0.10042788833379745 0.02693294733762741 0.004958306904882193 0.015522493049502373 0.019332457333803177 0.04852507263422012 0.0010478332405909896 -0.007240235805511475 0.10328345000743866 -0.029350072145462036 -0.040048133581876755 0.004570177290588617 -0.059813421219587326 0.05612315237522125 -0.23336997628211975 0.012381783686578274 0.02564685046672821 -0.02300899662077427 -0.008067148737609386 -0.06580748409032822 -0.06790994852781296 0.03946663439273834 0.05739559605717659 -0.006420789752155542 -0.02052762545645237 0.015923937782645226 0.027408862486481667 0.0099368030205369 0.022513462230563164 -0.010771706700325012 -0.10142163932323456 -0.11308838427066803 -0.011937337927520275 -0.06686912477016449 -0.043113090097904205 -0.03611770272254944 0.03215799480676651 -0.02363613247871399 -0.024014119058847427 0.0464448407292366 0.03927811235189438 -0.010664344765245914 -0.0006458117859438062 -0.05134560540318489 0.02950882352888584 -0.01093037985265255 -0.057089898735284805 0.15154705941677094 0.03667802736163139 -0.05865153297781944 -0.07042176276445389 -0.010384852066636086 -0.030488433316349983 0.00376750691793859 -0.0552988275885582 0.18300212919712067 0.03777537867426872 -0.0568874217569828 -0.04786616563796997 -0.03489210456609726 -0.019447917118668556 0.0096129784360528 -0.12066812813282013 0.14334742724895477 0.1410813182592392 -0.06111358851194382 -0.05611257255077362 -0.03238357976078987 0.008948412723839283 0.02458774298429489 -0.15885958075523376 -0.0643453374505043 -0.025900311768054962 -0.06014368683099747 -0.033475711941719055 -0.06595414131879807 -0.019253838807344437 -0.05781364068388939 0.12470847368240356 -0.023426324129104614 -0.03221212700009346 0.011935830116271973 -0.00276062055490911 -0.008252284489572048 -0.046618640422821045 0.01787838153541088 0.0008149306522682309 -0.05396976321935654 0.017729468643665314 0.016629790887236595 -0.02779579535126686 -0.026787111535668373 -0.016892006620764732 -0.0025717339012771845 0.06935145705938339 -0.05455949157476425 0.02387920767068863 -0.005431514699012041 -0.04940500855445862 -0.0014676653081551194 -0.026828434318304062 -0.027596881613135338 -0.08747385442256927 0.0403490886092186 -0.03013642132282257 -0.01764371618628502 -0.10818277299404144 -0.030084121972322464 -0.022871840745210648 0.011007561348378658 -0.04235085844993591 0.02951923757791519 -0.052664656192064285 0.015212804079055786 0.013324994593858719 -0.0013532793382182717 0.006855627987533808 -0.029752792790532112 -0.04144124686717987 -0.018047628924250603 -0.04007106274366379 0.02461598627269268 0.025693921372294426 -0.03527672588825226 -0.029709309339523315 0.0003421352885197848 -0.11282523721456528 -0.04004532843828201 0.05141511932015419 0.004363528452813625 -0.0011542693246155977 -0.034107986837625504 -0.008922651410102844 -0.012664145790040493 -0.24320392310619354 0.03355465829372406 0.04079222306609154 -0.018109513446688652 -0.013976293615996838 -0.00885000266134739 0.0018445190507918596 -0.003808141453191638 -0.11979906260967255 0.07613102346658707 -0.24072426557540894 0.003045247169211507 -0.036685578525066376 -0.08362004905939102 -0.058230407536029816 0.009108475409448147 -0.15697550773620605 0.07535161823034286 -0.02300059236586094 -0.002687418134883046 -0.047538384795188904 0.03436125069856644 -0.0012455928372219205 0.008273477666079998 0.03900361806154251 -0.09175123274326324 -7.897418254287913e-05 -0.011850764974951744 -0.013606762513518333 -0.055037178099155426 -0.019273756071925163 -0.026036303490400314 0.04461504518985748 0.005759432911872864 0.00034107707324437797 -0.045994833111763 -0.10624030232429504 -0.013662764802575111 -0.002067251829430461 0.013326660729944706 0.014297934249043465 0.019467230886220932 -0.020239533856511116 0.02318064123392105 0.02371339127421379 -0.0014844523975625634 -0.038675226271152496 -0.044269680976867676 0.052025821059942245 0.011515269987285137 0.0015242301160469651 0.013448082841932774 0.010940666310489178 -0.005037909373641014 -0.02274857647716999 -0.028662314638495445 -0.02863471396267414 -0.008716722950339317 0.039924222975969315 0.035987503826618195 -0.006541614420711994 -0.011396978981792927 -0.005426634103059769 0.019578076899051666 0.3277979791164398 -0.05852365866303444 -0.039941057562828064 0.05168675631284714 -0.009739300236105919 -0.035306721925735474 0.00790245458483696 0.027732660993933678 0.39367493987083435 0.1822437345981598 -0.22468745708465576 0.01636369526386261 -0.024237889796495438 -0.035409022122621536 -0.04329925775527954 -0.039271481335163116 -0.21389733254909515 0.09710367769002914 -0.028663473203778267 0.029216133058071136 0.02230239287018776 -0.068675696849823 0.028772780671715736 -0.19035957753658295 0.14805634319782257 -0.031033148989081383 0.03775300830602646 -0.018070504069328308 0.0697626993060112 -0.03338857740163803 -0.07749248296022415 -0.019049670547246933 -0.05367225408554077 0.05053747445344925 0.11054696142673492 0.05145670846104622 0.02212667465209961 0.040909282863140106 0.01391274482011795 0.048044126480817795 0.018470002338290215 -0.0029482687823474407 -0.008425635285675526 -0.016297517344355583 -0.03804928436875343 0.08815290033817291 0.022175563499331474 0.015580439008772373 -0.026572218164801598 0.09916707873344421 -0.01777941919863224 0.002253989689052105 -0.0017189664067700505 0.01497309934347868 0.005127450916916132 0.04415447637438774 0.019108273088932037 -0.08558788895606995 -0.028512032702565193 0.030077660456299782 0.006294880993664265 -0.035410065203905106 0.04677840322256088 0.06696642190217972 0.03973206877708435 -0.08099406212568283 -0.11792805790901184 0.0038561506662517786 -0.057590145617723465 0.00908772274851799 -0.03689556196331978 -0.0328519232571125 -0.06332777440547943 0.0667288675904274 0.009876488707959652 0.013662011362612247 -0.020990567281842232 -0.04926569014787674 0.005279020871967077 -0.016596665605902672 0.07956374436616898 -0.12517158687114716 -0.026779741048812866 -0.07920071482658386 -0.04860081151127815 -0.13751277327537537 -0.13662376999855042 0.019121896475553513 0.02431364730000496 -0.07404223829507828 0.026322633028030396 0.028334656730294228 -0.006820967420935631 -0.0021955170668661594 -0.051173388957977295 -0.048770345747470856 -0.05714317038655281 -0.0048608132638037205 0.0905715748667717 0.08038181066513062 0.09183717519044876 0.015732048079371452 -0.04628143087029457 -0.06967673450708389 0.04199320450425148 -0.0302650835365057 0.047011446207761765 0.015770096331834793 0.040030449628829956 0.03711598739027977 -0.0032158740796148777 0.03896769881248474 0.016096023842692375 0.06891433149576187 0.018235038965940475 -0.0026488059666007757 0.00322630163282156 -0.028303178027272224 -0.013260431587696075 0.08027748018503189 -0.0020098418463021517 -0.09611883759498596 -0.10729429125785828 -0.06664176285266876 -0.01736825704574585 -0.0648316890001297 0.016842937096953392 0.03328957036137581 0.0030482434667646885 -0.04015583172440529 -0.10370654612779617 -0.0583687387406826 -0.07526814192533493 -0.025615429505705833 -0.004457478411495686 0.04070882126688957 -0.029939934611320496 -0.12743310630321503 -0.010564293712377548 0.033580221235752106 0.010763007216155529 0.017711417749524117 -0.036486413329839706 0.023635929450392723 0.07935860753059387 -0.04500535875558853 -0.04497109726071358 0.01938045024871826 0.022479424253106117 0.01847611926496029 0.020299499854445457 -0.00871127936989069 0.009366679936647415 -0.047721315175294876 -0.003776420373469591 0.012904885224997997 0.02037942223250866 -0.041307561099529266 0.02555440180003643 0.013600358739495277 -0.003827077569440007 -0.03823377937078476 -0.025051403790712357 -0.043626658618450165 -0.01243293471634388 -0.06279187649488449 -0.009379515424370766 0.014658891595900059 0.07432156056165695 0.004357753321528435 -0.04895871877670288 0.0013496186584234238 0.012189904227852821 0.01808621734380722 0.05553703382611275 -0.046294089406728745 0.0017232736572623253 0.035063643008470535 0.01754102110862732 -0.029134972020983696 -0.012035386636853218 -0.07431861758232117 -0.0036154906265437603 -0.001400723005644977 0.08713239431381226 0.06531072407960892 0.15581388771533966 0.036076370626688004 -0.08805137127637863 -0.07866355776786804 -0.03985079750418663 0.005653414875268936 -0.016991985961794853 -0.08687910437583923 -0.05859231576323509 0.1262451857328415 -0.0149342967197299 0.02574044093489647 -0.005794866010546684 0.06092068552970886 0.10154110193252563 -0.058317963033914566 0.006479247473180294 -0.03451349213719368 0.08379250764846802 -0.037763915956020355 -0.03004070557653904 0.037582047283649445 -0.10353074967861176 -0.021529527381062508 0.01708119362592697 0.021975969895720482 -0.02782677300274372 0.06571874022483826 -0.05368996039032936 0.0040174685418605804 -0.0015894790412858129 -0.007985827513039112 -0.00954350270330906 -0.02713550627231598 0.010265601798892021 0.008049032650887966 0.024588827043771744 -0.02708815596997738 -0.024616090580821037 -0.07571463286876678 0.015074718743562698 -0.05868155509233475 0.010514480993151665 -0.06086547672748566 -0.0016883586067706347 0.06264276802539825 -0.08970417082309723 0.05065985769033432 -0.05794411897659302 -0.007607795298099518 -0.018361026421189308 0.014207238331437111 0.07187701016664505 0.006271339487284422 0.07886135578155518 -0.05601886659860611 0.006758636329323053 0.020284242928028107 0.004357454366981983 -0.10354026407003403 -0.005947468802332878 -0.08207690715789795 0.016652153804898262 -0.08566167950630188 -0.05824305862188339 -0.03848107159137726 -0.18141259253025055 -0.045913998037576675 -0.058592136949300766 0.04756326228380203 -0.04182370752096176 0.1338978260755539 0.19415192306041718 -0.01748836040496826 0.022174742072820663 -0.0025757255498319864 0.0384923554956913 0.02681528590619564 0.1302587389945984 -0.21739055216312408 0.04176560044288635 0.08721095323562622 -0.07922570407390594 -0.0023392895236611366 0.05455159395933151 -0.06284479051828384 0.03676556795835495 -0.037985172122716904 -0.028211360797286034 0.0434207022190094 0.06222788617014885 -0.026183001697063446 -0.00020377946202643216 0.03592179715633392 -0.0665169358253479 -0.03160010650753975 0.009303458966314793 0.0015097330324351788 0.009801965206861496 -0.044295866042375565 0.015774806961417198 -0.00022306229220703244 0.04184320941567421 0.024659747257828712 -0.010701725259423256 0.01812353916466236 -0.010141015984117985 0.026141660287976265 0.012722285464406013 -0.04776536673307419 -0.027902876958251 0.08962931483983994 0.024903468787670135 -0.08350332081317902 -0.08746743947267532 -0.028516624122858047 -0.009414441883563995 0.0214742049574852 0.06038018688559532 0.12384628504514694 -0.027108676731586456 -0.07664283365011215 -0.06576967239379883 0.023636629804968834 -0.0037564244121313095 0.008552182465791702 -0.020182255655527115 0.004056831356137991 0.18092966079711914 -0.012221128679811954 0.003679293440654874 -0.09071467071771622 -0.04177536070346832 -0.01766238361597061 -0.07092178612947464 -0.04072423279285431 0.04912449046969414 0.09691686183214188 -0.005537030752748251 -0.06390253454446793 -0.06861947476863861 -0.023952804505825043 0.0688781887292862 -0.028213046491146088 0.04543447867035866 -0.009795673191547394 0.014233100228011608 0.0063626994378864765 -0.10621057450771332 0.08790186047554016 0.002025786554440856 -0.0031501082703471184 0.032986830919981 0.01668110303580761 0.05060408636927605 0.0015981908654794097 -0.0345965176820755 0.012397116981446743 0.0032859446946531534 -0.0597456693649292 -0.0018756776116788387 0.007466000970453024 0.01943257451057434 -0.0072071184404194355 -0.02461790293455124 -0.04782244190573692 0.039483919739723206 0.06655048578977585 0.024470429867506027 -0.00013105275866109878 -0.009954474866390228 0.02693846821784973 0.053170278668403625 0.02250799722969532 -0.06728354841470718 0.07618168741464615 -0.04920661449432373 -0.07174438238143921 -0.06985621154308319 -0.05943542718887329 -0.018152140080928802 -0.03295867145061493 0.13598991930484772 0.07345157861709595 -0.14379508793354034 -0.08114379644393921 -0.09017879515886307 0.024967845529317856 -0.051479458808898926 0.040386468172073364 -0.015464096330106258 0.2849922776222229 -0.046817902475595474 0.0003148661635350436 0.008063138462603092 -0.0067044831812381744 -0.0004960412043146789 0.013379106298089027 -0.16906994581222534 0.05296601355075836 0.08582113683223724 0.05581507831811905 -0.04382966831326485 0.03642238676548004 -0.09773005545139313 -0.01791207864880562 0.043622586876153946 -0.1626024693250656 0.04741940647363663 -0.025374215096235275 -0.01868472248315811 -0.029570527374744415 -0.06415748596191406 0.00649650814011693 0.008431578986346722 0.07313409447669983 -0.05778152495622635 0.03747092932462692 0.02817992866039276 -0.0005591355729848146 0.018574906513094902 -0.055113110691308975 -0.010453317314386368 -0.07462547719478607 -0.12883619964122772 0.015497811138629913 0.007510619703680277 0.007705485448241234 -0.009639854542911053 0.0025024432688951492 -0.0892253890633583 0.048765137791633606 0.007702311966568232 0.041689105331897736 0.001044627046212554 0.04327980801463127 -0.01768949069082737 0.0041206032037734985 0.04564905911684036 -0.05242716148495674 -0.030102061107754707 0.06286833435297012 0.009745870716869831 0.010598096996545792 0.010290765203535557 0.04073810577392578 0.0143733574077487 -0.07616008818149567 -0.13288535177707672 0.07884544879198074 0.01024555042386055 0.04074497148394585 0.04691649228334427 0.009514432400465012 -0.02172834612429142 -0.03720838576555252 -0.020619725808501244 0.03270101919770241 0.036169569939374924 -0.015428401529788971 -0.05295543745160103 -0.01271949615329504 -0.03884298354387283 -0.1073911190032959 -0.07488659024238586 0.048861779272556305 -0.011970899067819118 -0.03126627951860428 -0.0016827802173793316 0.012432903051376343 -0.03653992712497711 0.027273502200841904 -0.029893185943365097 0.0378728061914444 0.011018194258213043 0.03525278717279434 0.017436493188142776 0.001944986404851079 -0.038138631731271744 -0.047719914466142654 0.08043764531612396 0.08286014944314957 0.0038033586461097 0.05192131921648979 0.09584774076938629 0.1720522791147232 0.04030834138393402 -0.04933299124240875 -0.11787579953670502 0.02328423038125038 0.03313980996608734 -0.05987705662846565 -0.12066277861595154 0.0799097791314125 -0.02688816376030445 0.01420598104596138 -0.06716287136077881 -0.05572151765227318 0.021711250767111778 0.0011519425315782428 0.003962785471230745 0.04508037492632866 -0.06658288091421127 -0.09178722649812698 -0.028473151847720146 -0.05062701925635338 0.002668459201231599 -0.020552929490804672 0.00919943954795599 0.057943787425756454 -0.02129833772778511 -0.0429910272359848 -0.2251913696527481 -0.07045099884271622 0.0006077832076698542 0.042686108499765396 0.00390366418287158 0.06544855237007141 -0.017270399257540703 -0.03032008744776249 -0.12050650268793106 -0.04240948706865311 0.017895210534334183 -0.016245970502495766 -0.014279864728450775 0.007296355906873941 0.03170635923743248 -0.052059903740882874 -0.04348447918891907 -0.000958337914198637 0.01283936481922865 -0.022732242941856384 -0.012725782580673695 -0.02217951789498329 0.055454373359680176 -0.026830634102225304 -0.01319285947829485 0.054595764726400375 -0.020620401948690414 0.0034578978084027767 0.04064305126667023 0.02681579627096653 0.08301855623722076 -0.04506967216730118 8.340617932844907e-05 0.026477614417672157 0.005543747451156378 0.07783295959234238 -0.047270286828279495 -0.27187272906303406 0.006236263085156679 -0.05438932031393051 -0.0059777600690722466 -0.05607641860842705 -0.04498765245079994 -0.012847820296883583 -0.09429264813661575 -0.0008375985780730844 -0.004404719453305006 -0.026062218472361565 -0.10591621696949005 0.015281183645129204 -0.008778207004070282 -0.013622728176414967 0.011546612717211246 0.07988341152667999 0.012190972454845905 -0.01795821636915207 0.05274365842342377 0.019346270710229874 0.02279081381857395 -0.020316539332270622 -0.11899038404226303 0.03247998654842377 0.008953246288001537 -0.004146835301071405 0.014163805171847343 0.010218251496553421 0.013386193662881851 0.044154174625873566 -0.00625522481277585 -0.0030411407351493835 -0.07957804948091507 -0.04272620752453804 -0.016870731487870216 0.01694294810295105 0.09046678245067596 0.001755300210788846 -0.09056522697210312 0.04734177142381668 -0.00223357230424881 0.016464948654174805 -0.048116229474544525 0.015482978895306587 -0.03431079536676407 -0.012952727265655994 -0.10131049156188965 0.07704373449087143 0.055544402450323105 -0.008937887847423553 -0.049783412367105484 0.05799126252532005 -0.08736924082040787 -0.002265647519379854 0.08898987621068954 0.12200995534658432 -0.07970437407493591 -0.011297725141048431 -0.0468268096446991 0.0128966448828578 -0.003413264872506261 0.05231771618127823 0.14903606474399567 -0.28614556789398193 0.04223748296499252 -0.002702227095142007 -0.018878931179642677 -0.028926510363817215 -0.04171769693493843 -0.05944458395242691 0.02902141958475113 0.30965960025787354 0.027839792892336845 -0.054354049265384674 -0.03970235958695412 0.040480196475982666 -0.007980511523783207 0.04780710116028786 -0.14944878220558167 0.07565908879041672 0.021790094673633575 -0.021408380940556526 0.06137629225850105 -0.0083790123462677 -0.012782999314367771 -0.004078277852386236 -0.08675309270620346 -0.0010800190502777696 -0.012168889865279198 0.019803661853075027 0.01937423087656498 0.0019531443249434233 -0.0038660403806716204 0.07421576231718063 0.016427410766482353 -0.04211093485355377 -0.024000225588679314 -0.026159442961215973 0.013698090799152851 0.023372437804937363 0.06229444593191147 0.03188642859458923 -0.04943249002099037 0.025577712804079056 -0.04770317301154137 0.061520498245954514 -0.0028332869987934828 0.0537605918943882 -0.015497887507081032 -0.060449931770563126 -0.02065155655145645 -0.09083160758018494 0.0635140910744667 -0.16324256360530853 0.042039334774017334 0.012642127461731434 -0.04316353797912598 -0.039186954498291016 0.2494288831949234 -0.12114136666059494 0.03759533911943436 -0.03379795327782631 0.007614183239638805 -0.009624484926462173 -0.0003587376559153199 0.10129085928201675 -0.3783949315547943 0.28549885749816895 0.018970239907503128 0.0239859651774168 0.038557399064302444 0.05645158886909485 0.014046135358512402 0.22954061627388 -0.2588410973548889 -0.23200704157352448 -0.01654151827096939 0.04597296938300133 0.018257439136505127 -0.004954198841005564 0.005774324294179678 -0.00962250679731369 0.04695634916424751 0.11963815242052078 0.003501861123368144 0.03551707789301872 -0.020159557461738586 -0.018540557473897934 -0.036858931183815 0.013033939525485039 -0.01851513795554638 0.0004232027567923069 0.004214995075017214 -0.004730153363198042 -0.03099191002547741 -0.022390343248844147 -0.023855838924646378 0.03151782974600792 -0.018761461600661278 -0.0019145631231367588 0.011818028055131435 0.020726388320326805 -0.04244483634829521 0.034961432218551636 -0.03362886235117912 0.024111716076731682 0.001609960338100791 0.017873601987957954 -0.012601128779351711 0.0031622867099940777 -0.013364733196794987 -0.012971347197890282 0.006997920107096434 0.05066599324345589 0.008046978153288364 -0.004049655981361866 0.05652367323637009 -0.012239900417625904 -0.03146468102931976 -0.005231769289821386 0.016085803508758545 0.00010741138976300135 -0.004450181964784861 0.05604952201247215 0.04155560955405235 -0.00397228030487895 0.004435199312865734 -0.042298153042793274 0.046276506036520004 0.011539564467966557 -0.3699886202812195 0.20721270143985748 -0.004306848160922527 0.01124683115631342 0.032795071601867676 0.08587035536766052 0.011313780210912228 -0.34592631459236145 -0.2736600637435913 -0.22051677107810974 -0.006484723184257746 0.055481065064668655 0.010365962982177734 -0.0012903386959806085 -0.023435764014720917 -0.10299205034971237 -0.05292591452598572 0.07914146780967712 -0.01477714255452156 0.009226239286363125 -0.03533194214105606 -0.009223581291735172 0.007492471486330032 0.001815896132029593 -0.01488447654992342 0.03380961716175079 0.005886640399694443 0.00030066314502619207 -0.013277423568069935 -0.002841681009158492 -0.001553016947582364 0.036220572888851166 0.014007379300892353 -0.020203037187457085 0.025828205049037933 0.02247420884668827 -0.04843851178884506 0.0112000135704875 -0.03148563578724861 0.021906066685914993 -0.0028099871706217527 0.022809429094195366 -0.024786191061139107 -0.010693454183638096 -0.011932902969419956 -0.010016866959631443 -0.004076643381267786 0.05765065178275108 -0.02126636914908886 0.003904272336512804 0.029897872358560562 -0.011329968459904194 -0.034431517124176025 -0.012453243136405945 0.032575566321611404 -0.0013807163340970874 -0.010004161857068539 0.04201578348875046 0.02841814234852791 0.01583883725106716 -0.053490910679101944 0.05532294884324074 0.028414325788617134 0.0030395430512726307 -0.0003984758222941309 -0.0008146537002176046 0.035432130098342896 -0.025060176849365234 -0.0437893308699131 -0.0250095184892416 0.026549968868494034 0.04669280722737312 -0.03631795570254326 0.03726840764284134 0.025883378461003304 0.01629851758480072 -0.0029140429105609655 -0.027594080194830894 -0.019351281225681305 0.0033910979982465506 -0.030906658619642258 0.09111887216567993 0.0060948580503463745 0.014908361248672009 0.018130499869585037 -0.04713727533817291 -0.04959416761994362 -0.025035129860043526 0.0034874326083809137 0.010879029519855976 0.007745212875306606 -0.0040133316069841385 0.003912285901606083 -0.051461026072502136 -0.04236515983939171 -0.02262304723262787 -0.026559799909591675 -0.03683732450008392 0.010630731470882893 -0.058643221855163574 -0.009695621207356453 0.009595255367457867 0.01371501199901104 -0.0003379632253199816 -0.0988374650478363 0.03328051045536995 0.058616168797016144 -0.06582031399011612 0.0004956191987730563 -0.00820974912494421 0.001097148866392672 -0.010190234519541264 -0.0409838929772377 0.0106282290071249 0.09724754840135574 0.10663663595914841 -0.0801185667514801 -0.0007171465549618006 0.007436597254127264 -0.0694977268576622 0.06973804533481598 0.10041607916355133 0.11765055358409882 0.021928895264863968 0.0099184550344944 -0.003978426568210125 0.07610911875963211 -0.03054012544453144 -0.007216859143227339 0.1869637668132782 0.0591457299888134 0.08075891435146332 -0.02204587496817112 -0.021828509867191315 -0.023352310061454773 0.024268142879009247 0.11882975697517395 0.019977590069174767 0.008820423856377602 0.020558655261993408 0.021717693656682968 -0.03277641534805298 -0.023830175399780273 0.021537143737077713 0.030598841607570648 0.026139866560697556 0.06992428004741669 -0.012827862054109573 -0.010894596576690674 -0.031044671311974525 -0.027334479615092278 -0.014686190523207188 -0.019830988720059395 0.02567492052912712 0.06541848927736282 -0.044078532606363297 -0.001981292385607958 -0.026555195450782776 -0.033342231065034866 -0.03335339203476906 -0.06559016555547714 0.04014832153916359 0.033050015568733215 0.08145488053560257 0.08703721314668655 0.00638025114312768 -0.023758934810757637 0.02686724066734314 0.008867021650075912 0.0578138493001461 -0.08800910413265228 -0.02458914928138256 0.0353112630546093 -0.029946204274892807 -0.05126176029443741 0.001609992003068328 0.04063624143600464 -0.03605053946375847 0.21328234672546387 0.019434498623013496 -0.06798183917999268 0.029868297278881073 0.03446429222822189 0.05175330862402916 0.03216870129108429 0.2410370409488678 -0.00875704362988472 0.06532958894968033 0.03511166572570801 -0.038712527602910995 -0.0014614782994613051 -0.00023233755200635642 0.01945560798048973 0.004882028326392174 -0.010687661357223988 0.03643983602523804 -0.019406652078032494 -0.018931832164525986 0.044261086732149124 -0.050494417548179626 -0.007080326788127422 -0.001360735623165965 -0.006551610771566629 -0.05543559417128563 -0.0001438423350919038 -0.015956232324242592 -0.015082646161317825 -0.009939719922840595 -0.01660478301346302 0.017772259190678596 0.0003862240118905902 -0.036183323711156845 0.007828975096344948 -0.007149391807615757 0.0030611702241003513 -0.043417707085609436 -0.021387020125985146 -0.012119505554437637 0.017282674089074135 -0.005769805982708931 0.02472006529569626 0.001640547183342278 -0.011137704364955425 0.0005270169931463897 0.013249468058347702 0.03752791881561279 0.0046087829396128654 0.042319122701883316 -0.004774013534188271 -0.03626687824726105 -0.07915924489498138 -0.043273214250802994 -0.04486435651779175 -0.023576688021421432 -0.009176546707749367 0.0327548086643219 0.09848112612962723 -0.039496053010225296 -0.007683757226914167 -0.019045891240239143 0.01623540185391903 0.020189790055155754 -0.12600673735141754 -0.2613604962825775 -0.22466187179088593 -0.2659105360507965 -0.2101946473121643 -0.2020432949066162 -0.2998254597187042 -0.15100450813770294 0.055441733449697495 -0.062442515045404434 0.015339109115302563 -0.00983352866023779 0.0016149653820320964 -0.023650677874684334 -0.0382879301905632 0.03902534767985344 -0.0687466412782669 -0.01008300669491291 0.007661387789994478 -0.04811285063624382 -0.001541227102279663 0.006706141866743565 -0.035941239446401596 0.013348176144063473 0.011981533840298653 -0.016344277188181877 -0.027308959513902664 -0.009815601631999016 0.010365525260567665 -0.004374619107693434 -0.01773165538907051 0.013375380076467991 0.015933210030198097 0.02165878936648369 0.016745394095778465 0.016551628708839417 0.0017149116611108184 -0.03092079609632492 0.0034287991002202034 0.012935437262058258 -0.032208915799856186 -0.014463414438068867 0.030731545761227608 0.007055866532027721 0.015390617772936821 0.020746132358908653 -0.009098839946091175 -0.024491142481565475 0.044960398226976395 0.016252247616648674 0.039251718670129776 -0.016332505270838737 -0.07816954702138901 0.00015066660125739872 -0.003145800204947591 0.021181181073188782 -0.06621896475553513 -0.13502927124500275 -0.04928869381546974 -0.1054324135184288 -0.12451336532831192 -0.09793863445520401 -0.15315426886081696 -0.06081764027476311 0.17861109972000122 0.1436888724565506 0.17458300292491913 0.21489059925079346 0.1976107358932495 0.0634673535823822 0.11758533865213394 0.07171529531478882 -0.2971034348011017 -0.03854336962103844 0.027431132271885872 0.03463853523135185 -0.0026187726762145758 -0.00022599578369408846 0.0061271907761693 0.021898740902543068 -0.3438709080219269 0.00850542914122343 0.01848200149834156 -0.004635362420231104 0.0026480169035494328 0.014406039379537106 -0.009415552951395512 0.029519831761717796 -0.14716511964797974 0.06138328090310097 -0.017728544771671295 -0.06335532665252686 -0.039327677339315414 0.0074263825081288815 -0.0019382127793505788 0.006125116720795631 -0.06907330453395844 -0.07171797007322311 -0.04752066358923912 -0.08343684673309326 -0.07443775236606598 -0.03137592226266861 -0.04512728750705719 -0.027540357783436775 -0.08230725675821304 -0.01319862063974142 -0.06274893879890442 -0.07495498657226562 -0.0840039849281311 0.0069429040886461735 -0.020566724240779877 0.003877505660057068 -0.2023005187511444 0.05279616266489029 0.015256941318511963 -0.06809495389461517 -0.019354913383722305 -0.024824941530823708 -0.022736255079507828 0.003198529127985239 -0.19208082556724548 0.043151821941137314 0.060630444437265396 0.008689255453646183 -0.016270114108920097 -0.0246798787266016 -0.021817296743392944 0.019003303721547127 -0.19607067108154297 0.0028453534469008446 0.03594104200601578 0.020709000527858734 -0.013331881724298 -0.026613319292664528 0.03874752297997475 0.00539835961535573 -0.05327383056282997 0.022663753479719162 0.030606912449002266 -0.01684347540140152 0.015200890600681305 0.013722764328122139 -0.030419088900089264 0.03495035320520401 0.1652073711156845 -0.08201505988836288 -0.016845757141709328 -0.03765799477696419 -0.0045710401609539986 0.014893172308802605 0.004333969205617905 -0.021892718970775604 0.21748901903629303 -0.07338050752878189 0.01409902609884739 -0.05469924584031105 -0.01841897889971733 -0.006281454116106033 0.005196193233132362 -0.007553559727966785 0.32825908064842224 0.02797497995197773 -0.06835757195949554 -0.06706628203392029 -0.07415981590747833 -0.03423503041267395 -0.037226587533950806 -0.024171000346541405 0.322042852640152 -0.014184260740876198 -0.08402252197265625 -0.07525679469108582 -0.06489945948123932 0.008066931739449501 -0.03948209807276726 0.01291021890938282 0.13952045142650604 -0.06075536459684372 0.05400187894701958 -0.07905755937099457 -0.02319057658314705 -0.022040219977498055 -0.004839057568460703 0.002902067732065916 0.11675768345594406 -0.13113348186016083 0.040120113641023636 -0.03841667249798775 -0.021468812599778175 -0.006209176033735275 0.0044273496605455875 -0.029046187177300453 -0.21705083549022675 -0.010304441675543785 0.052466489374637604 0.0015726244309917092 0.017755966633558273 -0.00899929367005825 -0.04192613810300827 0.0641709417104721 0.0717252567410469 0.006303111556917429 0.04670653119683266 -0.0027846875600516796 -0.048175666481256485 -0.01451947446912527 0.005043532699346542 0.00036985412589274347 0.023130828514695168 -0.03012872114777565 0.06306732445955276 0.02733052708208561 0.034175753593444824 -0.013186929747462273 -0.018447745591402054 0.01597643829882145 -0.008132061921060085 -0.0261361263692379 -0.006702121812850237 0.003906503785401583 0.039569467306137085 0.04386526718735695 -0.007218577899038792 0.03902153670787811 0.07765433192253113 -0.015499500557780266 -0.02136135846376419 -0.07961135357618332 -0.05537375435233116 -0.005256179254502058 0.020900312811136246 -0.038166679441928864 0.013868939131498337 -0.08865152299404144 -0.040805984288454056 -0.04529420658946037 -0.06564155220985413 -0.02957930788397789 0.01277943979948759 0.01884794421494007 0.31779465079307556 -0.010228256694972515 -0.012006505392491817 -0.04536444693803787 -0.03173137456178665 -0.0259324312210083 -0.04150645434856415 -0.003368922509253025 -0.06335732340812683 -0.01990678161382675 0.0001355983258690685 -0.004061512649059296 0.04576469585299492 -0.0405706912279129 -0.0010407248046249151 -0.01040811836719513 0.07941539585590363 -0.0370846688747406 0.05995214357972145 0.06174168363213539 -0.028809064999222755 0.007230662275105715 -0.04348107799887657 -0.01036825217306614 -0.0669248029589653 0.03961120918393135 -0.027319200336933136 0.05457846447825432 -0.14345026016235352 -0.0667409598827362 0.017259443178772926 -0.09108433872461319 0.027768351137638092 0.012237006798386574 0.03290402144193649 0.01822027377784252 -0.03914883732795715 -0.05940750986337662 -0.037602394819259644 0.06410589814186096 -0.07568933814764023 -0.06278739869594574 -0.03983594849705696 0.02912520058453083 0.037534814327955246 0.004947614390403032 -0.028931299224495888 -0.03531116992235184 0.0933522954583168 -0.03568735346198082 -0.03020050749182701 -0.03135330602526665 -0.05795346200466156 0.01546994224190712 0.03686780855059624 0.03306764364242554 0.2687635123729706 0.11925724148750305 -0.010777386836707592 -0.06668747216463089 -0.04519564285874367 -0.011317052878439426 0.002256622537970543 0.038111716508865356 0.040695108473300934 0.07943948358297348 0.00033115563564933836 -0.02165837399661541 -0.023044660687446594 -0.05077940598130226 -0.07083860039710999 -0.09788240492343903 0.015197786502540112 0.06629253923892975 0.047713302075862885 -0.0039005933795124292 0.03607960045337677 -0.03610744699835777 -0.01676092855632305 0.0411248616874218 -0.03138400614261627 0.02429499849677086 0.004488789010792971 0.036537349224090576 0.018379034474492073 0.032934512943029404 -0.08361277729272842 0.0073211295530200005 -0.03169233351945877 -0.005480511114001274 0.06104340776801109 0.011936228722333908 -0.07854708284139633 0.025557491928339005 0.0823732316493988 0.052121277898550034 -0.018351908773183823 0.05657166242599487 0.031230200082063675 -0.0014207365456968546 -0.017982924357056618 -0.012125363573431969 0.07357630133628845 0.025606701150536537 0.0013279151171445847 -0.00522686867043376 -0.05595904216170311 -0.03252440690994263 0.031492818146944046 -0.006975463125854731 -0.0002261221525259316 0.003622571937739849 -0.05845210328698158 0.042446862906217575 -0.021071135997772217 0.004877866245806217 -0.015474580228328705 0.09328041225671768 -3.548777385731228e-05 -0.06389389932155609 -0.007530951872467995 -0.00546968774870038 0.034104641526937485 -0.05773264914751053 0.010959024541079998 0.01736307702958584 0.0976702868938446 0.0014037052169442177 -0.11829055845737457 -0.030545685440301895 -0.009854933246970177 -0.022159496322274208 -0.10914330184459686 0.0182082150131464 -0.007831290364265442 0.05485539883375168 -0.0702715665102005 -0.1056598573923111 0.04545295238494873 0.012584235519170761 0.040682729333639145 0.003664858639240265 0.14017750322818756 0.10984252393245697 0.016506072133779526 -0.09325481206178665 -0.0029870006255805492 -0.07247984409332275 -0.020554961636662483 0.048180341720581055 0.0012837869580835104 0.07778233289718628 -0.014111523516476154 0.0022853557020425797 -0.004489293787628412 0.004243767820298672 0.005719874519854784 -0.007128181867301464 0.007708410266786814 0.11525172740221024 -0.07341116666793823 0.06374187022447586 0.031651563942432404 -0.004590488970279694 -0.011407614685595036 -0.008637778460979462 0.019367389380931854 -0.018147319555282593 -0.011379323899745941 -0.004983900580555201 -0.05533398315310478 -0.005270100198686123 0.04125097021460533 -0.02356669306755066 0.08323880285024643 0.014796738512814045 -0.021947795525193214 0.02765796147286892 -0.02230709418654442 -0.021967781707644463 -0.0020527392625808716 0.12038031965494156 0.016819113865494728 -0.004336925223469734 0.015777315944433212 -0.08737829327583313 0.010425536893308163 0.0388585589826107 -0.028540460392832756 0.062156446278095245 0.10886675864458084 0.01802203804254532 -0.20269399881362915 -0.13654670119285583 -0.08796890079975128 -0.051313553005456924 -0.08783584088087082 -0.0242056492716074 0.05804784968495369 0.0789666548371315 -0.15449492633342743 -0.10087765753269196 -0.13250122964382172 -0.02486657164990902 0.023900844156742096 -0.00617216108366847 0.06996755301952362 0.07895874977111816 0.12263233959674835 -0.0793483629822731 -0.023837944492697716 -0.08034022897481918 -0.11272059381008148 -0.013718982227146626 0.0011314608855172992 0.08342084288597107 -0.03537260740995407 0.0016212579794228077 -0.026153845712542534 -0.02549160085618496 0.02304193191230297 -0.012341569177806377 -0.01681629568338394 -0.06005137413740158 -0.041787970811128616 0.04839413985610008 0.004585502203553915 0.013357317075133324 0.0047087473794817924 -0.056875281035900116 0.010604682378470898 -0.11186613142490387 -0.03322198614478111 -0.032093554735183716 0.010210299864411354 -0.014351729303598404 -0.03801826015114784 -0.016563359647989273 0.09188608080148697 -0.028663843870162964 -0.04823440685868263 -0.02277272380888462 -0.008878852240741253 0.017449812963604927 0.0020652173552662134 0.05100278928875923 0.03830130398273468 0.0006977645680308342 0.008289950899779797 0.008588366210460663 -0.049239907413721085 0.019582154229283333 -0.015518390573561192 -0.008785766549408436 -0.17723317444324493 0.08967281877994537 -0.043900955468416214 0.027503566816449165 -0.017725082114338875 0.0586102195084095 -0.02600851096212864 0.08764979988336563 -0.002027094131335616 0.0009947491344064474 -0.04517189413309097 0.085056833922863 0.05193043127655983 0.08415407687425613 -0.11542066186666489 -0.12617731094360352 0.3318560719490051 0.07772033661603928 0.013279772363603115 -0.12948133051395416 -0.037856653332710266 -0.056975144892930984 0.0776669830083847 -0.07631095498800278 0.2892879545688629 -0.16269001364707947 -0.03157723695039749 0.06786336749792099 0.004684137180447578 0.004020141437649727 -0.04879528284072876 0.032027363777160645 0.011112065054476261 -0.011168607510626316 0.02709069848060608 -0.00812001433223486 -0.0003207697591278702 -0.00512009346857667 0.0008376716286875308 -8.811384759610519e-05 -0.02507833205163479 -0.06498502939939499 -0.041141707450151443 -0.052208755165338516 -0.02702757716178894 -0.006685568019747734 -0.052942145615816116 0.005311609711498022 -0.007708190940320492 -0.07792182266712189 -0.049063652753829956 -0.0026831033173948526 -0.023159293457865715 -0.000910345115698874 0.014482966624200344 0.02733118273317814 -0.016077084466814995 -0.007555209565907717 -0.06461983919143677 0.027741840109229088 -0.04518907517194748 -0.0036005829460918903 0.032325711101293564 -0.03855346143245697 -0.010536108165979385 0.013312174938619137 -0.02772497944533825 0.08123558759689331 0.016153434291481972 0.04434708133339882 0.002669732552021742 0.03864861652255058 0.059072576463222504 0.05980151519179344 -0.01872781477868557 0.04797379672527313 -0.021210376173257828 0.041309572756290436 -0.0926477313041687 0.07929320633411407 0.07214736938476562 0.09599453210830688 0.0043136002495884895 -0.0032913098111748695 -0.1217687651515007 -0.04008764028549194 -0.03983374685049057 0.08951161056756973 0.07859529554843903 -0.014791330322623253 0.030510278418660164 0.024073371663689613 0.021007010713219643 -0.03479268029332161 -0.09637600928544998 -0.033910833299160004 0.033731624484062195 -0.04531419649720192 -0.006738659460097551 -0.033473361283540726 0.02897586300969124 0.051968637853860855 0.06416363269090652 0.03130146116018295 0.01169914472848177 0.07517706602811813 -0.030733386054635048 -0.05884036421775818 -0.06094300374388695 -0.05228709802031517 0.016680452972650528 0.12512467801570892 0.0831046849489212 0.11037008464336395 -0.012753245420753956 -0.020176855847239494 -0.007541021332144737 -0.016473472118377686 -0.029091138392686844 -0.014758334495127201 -0.015075366012752056 0.09959068894386292 0.007178048603236675 -0.003203833242878318 -0.008331790566444397 -0.012136599980294704 -0.02291298843920231 0.0003084446070715785 0.03324268013238907 0.03293807804584503 0.01678144372999668 0.04486127942800522 -0.053085021674633026 -0.05759892985224724 -0.05700630694627762 -0.0663437470793724 -0.04046804830431938 -0.07583551108837128 0.04803261533379555 0.01871064305305481 -0.04266499727964401 -0.04892450571060181 -0.020880961790680885 0.04611645266413689 -0.03190130367875099 -0.011497043073177338 -0.04009382799267769 -0.10351438820362091 -0.13269385695457458 0.0031844950281083584 0.08872346580028534 -0.013228456489741802 0.04435813054442406 0.11068768799304962 -0.05382951721549034 0.09456013143062592 -0.0860246792435646 -0.059869345277547836 -0.016711600124835968 0.06543190032243729 -0.13333815336227417 -0.0037240630481392145 -0.05619964376091957 -0.010113459080457687 0.006894987542182207 0.0350344181060791 0.050041086971759796 0.10845767706632614 0.16124080121517181 0.13742001354694366 -0.0163850337266922 -0.07052278518676758 -0.06094948574900627 -0.10275311768054962 -0.042611125856637955 -0.01080982107669115 -0.1392357051372528 -0.029014384374022484 -0.06039024144411087 0.048747457563877106 -0.009665270335972309 -0.009238118305802345 0.004517632070928812 0.0296234879642725 -0.025827988982200623 0.06440341472625732 0.03662880137562752 0.04004066064953804 -0.04572559893131256 -0.014440838247537613 -0.0028080882038921118 0.020930666476488113 0.06258715689182281 0.015636589378118515 0.03889986127614975 -0.009058778174221516 -0.024991145357489586 0.0306137353181839 -0.06594932824373245 -0.027349600568413734 -0.03814565762877464 -0.05042583495378494 -0.004522436298429966 0.024745067581534386 -0.002600241219624877 0.044560372829437256 -0.00639950530603528 0.008856358006596565 -0.023901114240288734 -0.08457930386066437 0.03772766515612602 -0.09817177057266235 0.03979392349720001 -0.05229177325963974 0.02423160895705223 -0.04796570912003517 0.02571154199540615 -0.01883658766746521 0.12985819578170776 -0.015210870653390884 0.04554798826575279 -0.05129292979836464 0.024067766964435577 0.015372064895927906 -0.0464726984500885 0.09179510176181793 0.018178030848503113 -0.009350763633847237 0.04954804480075836 0.06382203847169876 -0.02270919270813465 -0.03253956139087677 -0.04789741337299347 -0.028707673773169518 -0.041300851851701736 -0.014027928002178669 0.1669837236404419 -0.05727819725871086 -0.02069162018597126 -0.033754196017980576 -0.03351939842104912 -0.0503331758081913 -0.01733272708952427 0.11581337451934814 0.025464924052357674 -0.06729914993047714 -0.02310352586209774 0.015445464290678501 0.03903655335307121 0.0007299442659132183 0.051625918596982956 0.06631196290254593 -0.03937074542045593 -0.05497502163052559 -0.0614597462117672 0.01761169545352459 -0.029613861814141273 0.0012422557920217514 -0.05491778999567032 0.06098799780011177 -0.017283568158745766 0.013032257556915283 0.007357754744589329 -0.04878716915845871 0.03793846815824509 -0.004647288471460342 -0.0498640239238739 -0.0314142070710659 0.005017247051000595 -0.010456763207912445 0.024427589029073715 -0.020576681941747665 0.010845284909009933 0.04466693475842476 0.016619471833109856 0.02971644140779972 -0.010037236846983433 -0.01645101234316826 -0.00850998517125845 -0.03533068671822548 -0.016179049387574196 -0.017704563215374947 0.07659800350666046 -0.011991818435490131 0.009589738212525845 -0.010089339688420296 -0.06919308751821518 -0.011319993063807487 -0.07162488251924515 -0.01674468442797661 -0.21491654217243195 0.07097143679857254 -0.02387167699635029 -0.03416465222835541 -0.01979897916316986 -0.02005801536142826 -0.0586727149784565 -0.03702568635344505 -0.01435250137001276 0.2180873304605484 -0.009276021271944046 0.020740540698170662 -0.01451119128614664 0.05509212985634804 0.01274220459163189 0.003280559554696083 0.05826718360185623 -0.037508659064769745 -0.11207518726587296 -0.021463187411427498 -0.06435668468475342 -0.008329333737492561 0.0018025923054665327 0.018787598237395287 -0.0974176898598671 0.08197807520627975 -0.13780508935451508 -0.03359096869826317 -0.02443363331258297 0.02981850691139698 0.023492982611060143 -0.0696493536233902 0.038359783589839935 0.03368900343775749 0.06380645185709 -0.04665565490722656 0.003553239395841956 -0.019594918936491013 0.037688761949539185 0.07239531725645065 0.02689111977815628 -0.008170406334102154 -0.01619289070367813 0.01774512231349945 0.03164033219218254 -0.006116321310400963 -0.007860561832785606 0.014233873225748539 -0.053945474326610565 0.06283721327781677 -0.008010674268007278 -0.05136120319366455 0.03743872791528702 0.01298106275498867 -0.028592223301529884 0.03540715575218201 -0.07634762674570084 -0.0517796128988266 0.009845437481999397 0.10786237567663193 -0.0631742924451828 -0.04046626389026642 -0.041488248854875565 -0.07791981101036072 -0.07500071078538895 -0.11542332172393799 0.0817629024386406 -0.04297763109207153 -0.028609780594706535 -0.14021962881088257 -0.10379556566476822 -0.03090352937579155 0.01237600576132536 -0.03063633106648922 0.036888279020786285 -0.0010295353131368756 -0.03779523819684982 -0.0219263955950737 0.009512359276413918 -0.0753067135810852 0.021700117737054825 -0.02159479446709156 -0.04557859152555466 0.04618850350379944 0.008727983571588993 0.006923571694642305 -0.018811341375112534 -0.08170820772647858 -0.004718316253274679 -0.026209719479084015 0.0995439738035202 0.047338832169771194 -0.012326410040259361 -0.006610073149204254 -0.04472363367676735 -0.05492238700389862 0.01968906819820404 0.01951753720641136 -0.027196669951081276 0.02633822150528431 -0.006800493691116571 -0.13560886681079865 -0.11633847653865814 -0.019009826704859734 -0.145607590675354 -0.0976150780916214 -0.05510551109910011 0.0623079389333725 -0.08884300291538239 -0.03795897215604782 -0.08345118910074234 -0.03409064933657646 0.11950712651014328 -0.0455329455435276 -0.018901102244853973 0.019400928169488907 0.03629441559314728 0.043501317501068115 0.02709832601249218 0.14833953976631165 -0.07250047475099564 0.1281745880842209 0.02269369550049305 0.0034627211280167103 0.007764331065118313 -0.1071896031498909 -0.03920480236411095 0.018046464771032333 0.0930052101612091 -0.03043091855943203 0.08961492031812668 -0.012225606478750706 0.033070504665374756 -0.09971249103546143 0.019905908033251762 -0.007297529838979244 -0.03604190796613693 -0.03053305298089981 0.029055805876851082 -0.02268836461007595 0.007953512482345104 -0.03975370526313782 0.031899672001600266 0.019516414031386375 0.02661653608083725 -0.052896834909915924 -0.04678583890199661 0.008404640480875969 0.04235486686229706 -0.06259622424840927 0.049203187227249146 0.05680742859840393 -0.010212438181042671 0.030457403510808945 0.07521124184131622 0.004421023651957512 0.06268355250358582 -0.04972410202026367 0.07459881901741028 -0.02395966462790966 -0.06560438126325607 0.04618513211607933 0.026376862078905106 0.05839043855667114 0.008853452280163765 -0.06765037775039673 0.029380401596426964 -0.07060831785202026 -0.0017760348273441195 0.0022120149806141853 0.02445162460207939 0.1266593486070633 0.03367411717772484 -0.015169830061495304 0.15039096772670746 -0.12053316086530685 -0.0999184176325798 -0.00490450207144022 0.008625936694443226 -0.027750149369239807 -0.002383615355938673 -0.034408289939165115 0.02282486855983734 -0.08392299711704254 0.047956954687833786 -0.04640549048781395 -0.00872189924120903 -0.04422946646809578 -0.025549430400133133 -0.042298901826143265 -0.07193661481142044 -0.049007173627614975 -0.06971042603254318 -0.08295398950576782 -0.070442333817482 -0.055870890617370605 -0.11678039282560349 -0.10466722398996353 -0.07417472451925278 -0.04847276955842972 0.012878881767392159 -0.05805647000670433 0.010532477870583534 -0.04290652647614479 -0.12604884803295135 -0.22648167610168457 -0.12006650865077972 -0.04622407630085945 0.03966201841831207 -0.0005572775844484568 0.01078893058001995 -0.06760041415691376 -0.08506754040718079 -0.17587228119373322 -0.15152306854724884 -0.07889313250780106 0.010344846174120903 0.03828887268900871 0.09037041664123535 -0.03577740862965584 -0.05632733181118965 -0.06307949125766754 -0.07761180400848389 -0.12380150705575943 0.04896329343318939 0.028993837535381317 0.08318908512592316 0.011454652063548565 -0.05632910132408142 -0.024778518825769424 -0.07607938349246979 -0.009312262758612633 0.013268067501485348 -0.07441005110740662 0.011675267480313778 0.029386449605226517 -0.0023441705852746964 -0.022969773039221764 -0.1112043485045433 -0.019859090447425842 0.09929057210683823 -0.03142004832625389 0.05063639208674431 -0.053752921521663666 -0.0002664811327122152 0.0021915340330451727 -0.05548236519098282 0.0402628555893898 -0.030103808268904686 0.0757514163851738 -0.060130104422569275 0.01520522404462099 -0.012029683217406273 0.059699662029743195 0.1490153819322586 0.06465151906013489 0.0011572722578421235 -0.02534278854727745 0.033881958574056625 0.03609856218099594 -0.05490187555551529 0.04270566627383232 0.05345822870731354 0.06339728087186813 -0.05223798006772995 -0.029893597587943077 0.02325740084052086 0.05414102226495743 0.018323656171560287 0.04915235936641693 0.037628039717674255 0.07461773604154587 0.0066573601216077805 0.045422572642564774 -0.0016808067448437214 0.01594395749270916 0.03358852118253708 0.0677383616566658 -0.010605311021208763 0.003690967569127679 -0.04514274373650551 0.03523003309965134 0.07229215651750565 -0.017115246504545212 0.004479044582694769 0.022405516356229782 0.011772358790040016 -0.024071523919701576 0.0221612099558115 0.07199780642986298 0.09174194931983948 -0.01508422289043665 -0.037039246410131454 -0.04280854016542435 0.012940047308802605 -0.05839730054140091 0.02545158378779888 -0.027374867349863052 0.04751046746969223 -0.0037385178729891777 0.012477153912186623 -0.03913784772157669 -0.03867528215050697 0.038500815629959106 -0.07653547823429108 -0.018405525013804436 -0.00731623312458396 -0.007753189653158188 0.015008551999926567 -0.10896330326795578 0.03346189484000206 -0.05610477179288864 0.0027445610612630844 0.03558087348937988 0.006560819689184427 0.021049771457910538 -0.020610768347978592 -7.559679943369702e-05 0.014520488679409027 -0.06024280562996864 0.037140559405088425 -0.03465757891535759 -0.01604289561510086 -0.027561038732528687 -0.026923587545752525 -0.038848549127578735 -0.05681881681084633 0.002885062014684081 -0.015358425676822662 -0.020589131861925125 0.030246373265981674 -0.029178287833929062 0.012181761674582958 0.02528352104127407 -0.05227365717291832 -0.09080816060304642 -0.05506115406751633 0.03834953159093857 0.03251705691218376 -0.03534800186753273 -0.028425002470612526 -0.07823078334331512 0.017616983503103256 -0.06314356625080109 0.03824847564101219 -0.012880985625088215 0.02158932201564312 -0.023025700822472572 -0.018459370359778404 0.05844623222947121 -0.021712876856327057 0.08628147840499878 -0.004277060739696026 -0.014869713224470615 0.01361004263162613 -0.02665194496512413 0.014997459948062897 0.027462303638458252 0.23372329771518707 0.2240547388792038 -0.04208562523126602 -0.020863527432084084 0.02698039449751377 0.030564995482563972 0.04859582707285881 -0.030063768848776817 -0.034072231501340866 -0.20347751677036285 -0.01224619708955288 0.07880295068025589 0.0036712810397148132 -0.03444858640432358 0.007744128815829754 -0.0993456095457077 0.021220799535512924 0.1395210176706314 -0.0018945761257782578 -0.023685038089752197 -0.053160589188337326 0.05382586643099785 0.006820644252002239 -0.029347626492381096 0.04538767412304878 0.08411949872970581 0.009783250279724598 -0.04212338849902153 0.017599202692508698 -0.04313894361257553 -0.03776678815484047 -0.030587855726480484 -0.014253701083362103 -0.06009590998291969 -0.04602484032511711 0.015687914565205574 0.024250715970993042 0.0018200234044343233 -0.010068860836327076 -0.03885422274470329 -0.06562124937772751 0.01937796361744404 -0.05568342283368111 0.011116338893771172 0.030728714540600777 -0.013172890059649944 -0.019375527277588844 -0.07612616568803787 -0.09915312379598618 -0.1908462941646576 0.06897269189357758 -0.00820072554051876 -0.0323498472571373 -0.025235440582036972 -0.0286218523979187 -0.03363605961203575 -0.0949663445353508 -0.13090018928050995 -0.016471847891807556 -0.043165963143110275 -0.04650896415114403 0.017893489450216293 0.05837063863873482 -0.014363463968038559 0.044941481202840805 0.002851051278412342 -0.02061249502003193 -0.03606460243463516 0.0808272585272789 0.04426288232207298 0.051610611379146576 -0.05481928586959839 -0.004938818048685789 -0.03391239792108536 0.11175690591335297 0.009997784160077572 0.01273009367287159 -0.020363233983516693 0.006211062427610159 -0.01761658303439617 -0.04736250638961792 0.0891512781381607 -0.02343989536166191 0.017354505136609077 0.07501118630170822 0.009752284735441208 0.0373733714222908 -0.13647425174713135 0.01846066489815712 -0.06657671928405762 -0.06676238775253296 -0.002705537248402834 0.005113733001053333 -0.005621026270091534 0.03287848085165024 -0.06274715811014175 0.026187600567936897 -0.030618516728281975 -0.02641105279326439 -0.03031514585018158 0.00417053559795022 -0.029693670570850372 0.0673677921295166 -0.09748269617557526 0.0544273741543293 -0.06395529955625534 0.062950499355793 0.0016491434071213007 -0.005490139126777649 -0.009289632551372051 0.014796772040426731 -0.08152413368225098 0.019712520763278008 0.1353876143693924 0.0009231017902493477 -0.061277247965335846 0.03375920653343201 0.010100310668349266 0.010916203260421753 -0.10269567370414734 0.03515695407986641 -0.07232515513896942 0.024764450266957283 0.020613007247447968 0.06826229393482208 -0.07711848616600037 -0.024397164583206177 -0.05525662377476692 0.0762246623635292 -0.00811022985726595 0.06873798370361328 -0.013963128440082073 0.051666487008333206 -0.03286656737327576 0.02927049994468689 -0.10534244030714035 0.10075872391462326 -0.0463377945125103 -0.01754475198686123 0.010808740742504597 0.014018876478075981 -0.018422361463308334 0.1333802342414856 -0.13825877010822296 0.1258838027715683 0.018459413200616837 0.005327552556991577 0.052384499460458755 0.021761519834399223 0.11051200330257416 -0.05830538272857666 -0.07006392627954483 -0.02898748219013214 -0.016309015452861786 -0.12000982463359833 0.0005516722449101508 0.041101258248090744 -0.02833092212677002 -0.026030709967017174 -0.033224962651729584 -0.0241593886166811 0.0462268628180027 -0.05008775740861893 -0.07073879987001419 -0.004331434611231089 -0.03710217401385307 0.037300266325473785 -0.05849887803196907 0.01657157391309738 0.0022775023244321346 0.04404868558049202 -0.020996397361159325 -0.03876207023859024 0.020380092784762383 -0.0019431259715929627 -0.05157783254981041 0.06799933314323425 -0.027530072256922722 0.06628847867250443 -0.04877481609582901 0.04614489898085594 0.005959084257483482 0.0037146660033613443 -0.07899380475282669 0.010673584416508675 -0.06935515999794006 0.05315764620900154 0.046366602182388306 0.020794499665498734 -0.055195074528455734 -0.06428080797195435 0.0059011853300035 -0.07538454979658127 -0.004965264815837145 0.01694517582654953 -0.006361098960042 0.05711910128593445 0.09976387768983841 -0.0020940438844263554 0.05548349767923355 -0.04212513938546181 -0.07881443202495575 -0.1048879623413086 -0.023886578157544136 0.06220389902591705 -0.05753355100750923 -0.12012152373790741 0.15731728076934814 0.13519258797168732 0.08545013517141342 0.058718662708997726 -0.10058190673589706 0.022641655057668686 -0.02231128327548504 -0.05036339908838272 0.010680945590138435 -0.026368169113993645 -0.023227768018841743 -0.028238428756594658 -0.006707599386572838 -0.007125739939510822 0.016983315348625183 0.026428494602441788 0.05597219243645668 -0.10830409079790115 -0.10346788913011551 -0.009175946936011314 0.01945645548403263 -0.0006366953020915389 0.08241752535104752 0.05328706279397011 0.0624595582485199 -0.022345807403326035 0.010886520147323608 -0.09012608230113983 -0.009922057390213013 0.024282129481434822 0.037756387144327164 0.03603281453251839 0.02759579010307789 0.05449715256690979 0.02774403616786003 0.025039684027433395 -0.017328236252069473 -0.03893696516752243 0.018217651173472404 -0.005382736679166555 -0.12800849974155426 -0.019555862993001938 -0.028628092259168625 0.027731625363230705 -0.05100857838988304 -0.1156170591711998 -0.004364555701613426 -0.10531526803970337 -0.1751422882080078 -0.02216799184679985 -0.009990602731704712 -0.04493914917111397 -0.0883849561214447 -0.030193598940968513 -0.027173925191164017 -0.015986239537596703 -0.0760141909122467 -0.016688087955117226 -0.023709310218691826 0.0005807937122881413 -0.020737072452902794 -0.026813507080078125 -0.047342076897621155 -0.04054005444049835 0.025258846580982208 -0.013787321746349335 -0.0524606890976429 -0.07734625786542892 0.0123615562915802 -0.06322978436946869 0.02525319717824459 -0.06816370785236359 0.012695984914898872 0.07993903011083603 -0.020186791196465492 0.12530866265296936 -0.056732289493083954 0.029268905520439148 0.02892111800611019 0.08599318563938141 0.014174038544297218 0.059869710355997086 0.05718669295310974 -0.008188685402274132 0.0017385572427883744 -0.023577209562063217 0.08029228448867798 0.05316625162959099 0.07617294788360596 0.03668757528066635 -0.050276219844818115 -0.01052423007786274 0.025214552879333496 0.03811236470937729 0.0073813507333397865 0.010393572971224785 0.013448420912027359 0.10852919518947601 -0.03961394354701042 0.032096296548843384 -0.02068646438419819 -0.08994778990745544 0.027877099812030792 0.04895038530230522 -0.02263803593814373 -0.03014322742819786 -0.02828799933195114 -0.03916999697685242 -0.056193213909864426 -0.020459946244955063 -0.021208681166172028 -0.11437146365642548 -0.12386023998260498 -0.04976973682641983 0.03994959592819214 0.04022848978638649 -0.004781575407832861 0.04906870424747467 0.03476022928953171 0.13985539972782135 -0.1141863465309143 -0.05838810279965401 0.06291775405406952 -0.12024565786123276 0.16472598910331726 0.09993796050548553 -0.03785351291298866 0.00835192110389471 -0.2487901896238327 -0.08452468365430832 -0.014830182306468487 -0.12808749079704285 0.0013608450535684824 -0.030344609171152115 0.007057375740259886 0.06378094851970673 -0.04312776029109955 0.03969047963619232 -0.027267780154943466 -6.706500425934792e-05 0.043103862553834915 0.009668100625276566 0.02187994308769703 0.033775586634874344 -0.03651806712150574 0.046926505863666534 0.03296740725636482 -0.0006189259584061801 -0.0032275645062327385 0.06831760704517365 -0.033037539571523666 0.08457907289266586 -0.0017615220276638865 0.04663003981113434 -0.05059770494699478 -0.0225497018545866 0.018001385033130646 0.008280548267066479 0.037363450974226 0.056461237370967865 -0.012163391336798668 0.0070711541920900345 -0.005676630884408951 0.0473991334438324 0.01755557768046856 0.0688382014632225 0.0822589322924614 0.20287014544010162 -0.17318108677864075 -0.009024747647345066 0.06467025727033615 -0.0027824933640658855 -0.016262486577033997 0.0402524508535862 -0.06479039788246155 -0.16979184746742249 -0.1719811111688614 -0.03180756792426109 -0.06253822892904282 0.017448293045163155 0.002331307390704751 0.021295832470059395 -0.010905779898166656 -0.0071052126586437225 -0.02343345806002617 -0.06741759926080704 0.04226844757795334 -0.11246541887521744 0.07307364046573639 -0.09117003530263901 -0.005177836399525404 0.04315348342061043 -0.13082030415534973 -0.05344260483980179 -0.04212745279073715 0.05523648485541344 -0.021540001034736633 -0.0027647565584629774 0.03389951214194298 0.025221820920705795 -0.01164594478905201 0.004008376505225897 0.06768641620874405 -0.07169359922409058 -0.10572220385074615 -0.01285265851765871 -0.01896645873785019 0.005523928441107273 -0.02616681158542633 -0.030056025832891464 -0.06430598348379135 0.0063528381288051605 -0.006675207056105137 0.06318888068199158 -0.03872530534863472 0.07881272584199905 0.0006285468116402626 0.014281433075666428 0.01100908126682043 0.017473965883255005 0.003128355834633112 0.00942247360944748 0.06627578288316727 0.0463959164917469 -0.03512638434767723 0.00015358846576418728 -0.00027420814149081707 0.01847175695002079 0.0052534956485033035 0.079274483025074 0.020668091252446175 -0.10151384025812149 -0.24228762090206146 -0.054545555263757706 0.019145775586366653 -0.018504228442907333 0.003108962206169963 0.038492850959300995 -0.07633878290653229 -0.20703494548797607 -0.16220660507678986 -0.031379371881484985 -0.047361429780721664 -0.04125501215457916 -0.1212603971362114 -0.03107939474284649 -0.06626878678798676 -0.12054941803216934 -0.07890366017818451 -0.07616548240184784 -0.07300490140914917 0.014612631872296333 -0.01895461603999138 0.03722710534930229 -0.05199829116463661 0.07463720440864563 -0.16993781924247742 -0.04785356670618057 -0.03866346925497055 -0.07837740331888199 -0.03867269679903984 0.015907777473330498 -0.050172049552202225 -0.015055219642817974 0.00420928793027997 -0.03887760639190674 -0.014228950254619122 -0.03821572661399841 0.08765698969364166 0.002178922528401017 0.04572148248553276 -0.009944540448486805 -0.028264177963137627 0.00244408892467618 0.015640128403902054 -0.09805620461702347 -0.032777782529592514 -0.031020741909742355 0.07363644242286682 -0.049881163984537125 0.005626460537314415 -0.0038461554795503616 0.0343773253262043 0.02152031473815441 0.08076625317335129 0.0028003475163131952 -0.013667847961187363 -0.02407097816467285 0.047111865133047104 0.026694457978010178 -0.09869413077831268 0.05800444632768631 -0.01831771433353424 0.032777659595012665 -0.01332645583897829 -0.017755955457687378 0.03391719236969948 -0.030416445806622505 0.05383143573999405 0.18716312944889069 0.17724715173244476 0.050921764224767685 -0.004508443176746368 -0.004107228945940733 -0.0026568244211375713 0.022298678755760193 -0.024248316884040833 -0.07770055532455444 -0.02187533490359783 -0.07328660041093826 -0.003413852071389556 0.02638869173824787 0.019596563652157784 -0.029515976086258888 -0.008464386686682701 0.030596021562814713 -0.014944667927920818 -0.024746954441070557 -0.01791880466043949 -0.039429161697626114 -0.03713821992278099 0.046255141496658325 -0.04662332683801651 0.12666411697864532 0.0633760467171669 -0.02148525044322014 0.027109812945127487 0.024380840361118317 -0.03863094747066498 -0.025296896696090698 0.023607229813933372 0.0008428151486441493 -0.04580429196357727 -0.05840865150094032 -0.023099549114704132 0.013642432168126106 -0.034186434000730515 -0.03552740439772606 -0.025969916954636574 0.02939727157354355 -0.11447159945964813 -0.06874128431081772 -0.005611231550574303 -0.040456485003232956 0.0034282063134014606 0.024069806560873985 -0.03459097445011139 -0.15578815340995789 -0.12197135388851166 0.0031726539600640535 -0.010444549843668938 0.002298008883371949 0.05802890658378601 -0.0396791435778141 0.03372112661600113 -0.22953860461711884 -0.1120247095823288 -0.0293474942445755 -0.010534625500440598 -0.008475030772387981 0.02941109612584114 0.03191514313220978 0.009976665489375591 -0.1588495671749115 -0.02157442644238472 -0.053667761385440826 0.0030355046037584543 0.007336788810789585 -0.02069765515625477 -0.0041154068894684315 0.0015616288874298334 -0.13660664856433868 -0.09720732271671295 -0.11220210045576096 0.02455444075167179 0.0392749048769474 0.04135606065392494 -0.03884842246770859 -0.08082117885351181 -0.013661491684615612 0.012301984243094921 -0.012912021949887276 -0.02448759414255619 -0.0534992516040802 -0.0110792126506567 -0.019792333245277405 0.12038104236125946 -0.062123168259859085 -0.009521355852484703 -0.003154347650706768 0.061323381960392 -0.05126082897186279 0.0263745728880167 -0.05692165344953537 -0.10923262685537338 0.028358792886137962 0.03433918207883835 0.004793964792042971 0.10526638478040695 0.08771975338459015 0.10503093898296356 0.0397816002368927 0.2594349980354309 -0.06014402583241463 -0.07766623049974442 -0.012307546101510525 -0.10069053620100021 -0.10132694989442825 -0.05885912477970123 -0.13487036526203156 -0.15564972162246704 0.01711575873196125 0.027496404945850372 -0.009479212574660778 -0.014679254963994026 0.0025611931923776865 0.09570807218551636 0.04370827600359917 0.06261707097291946 -0.031624261289834976 0.036063458770513535 -0.05435534194111824 -0.0036477092653512955 0.019313018769025803 -0.019654912874102592 -0.005192162469029427 -0.11681418865919113 0.011334153823554516 0.06627412885427475 -0.06648147106170654 0.11832992732524872 -0.09758064895868301 -0.0671626403927803 0.01112379040569067 0.06667675822973251 -0.10176680982112885 -0.05073077976703644 -0.06658989936113358 0.041215185075998306 -0.024649884551763535 0.008846154436469078 -0.10241043567657471 0.02892310917377472 -0.05440879240632057 0.053020745515823364 -0.014419781044125557 0.05987444519996643 -0.00953635759651661 0.04977346956729889 -0.0017729620449244976 -0.0016259807161986828 0.028309082612395287 0.025711216032505035 -0.024867581203579903 0.036195624619722366 -0.045925937592983246 0.014506424777209759 -0.13707095384597778 0.01406654343008995 0.03998914733529091 0.009584711864590645 0.02989223599433899 0.09407798945903778 0.04755691438913345 0.042067740112543106 0.03507518395781517 -0.005442556459456682 -0.02030443213880062 -0.03728507086634636 -0.018213830888271332 -0.05352770537137985 -0.01643001288175583 0.05063251033425331 0.03230621665716171 0.11421430855989456 0.0021809556055814028 -0.03875747695565224 -0.007442557252943516 0.0008215053239837289 -0.018344895914196968 0.04156701639294624 -0.03555738925933838 -0.12713360786437988 0.026375694200396538 0.03682051599025726 -0.01636396162211895 -0.010188978165388107 -0.03608747199177742 -0.03530067950487137 0.008965173736214638 -0.04340081661939621 -0.006620241794735193 0.0192803293466568 0.0037437817081809044 0.060110677033662796 -0.06281359493732452 -0.10689671337604523 -0.0016445447690784931 0.015718741342425346 -0.08778607100248337 -0.03641735389828682 0.06388943642377853 -0.007217496633529663 -0.02345600537955761 0.007668084930628538 -0.005207237787544727 -0.05857463553547859 0.07724764198064804 -0.12271758913993835 0.007838043384253979 -0.007582416757941246 0.04227558150887489 0.04613319784402847 -0.09530161321163177 0.011384150013327599 -0.0013555578188970685 -0.08511924743652344 0.012437913566827774 -0.03361617401242256 -0.015262248925864697 0.03415822982788086 0.029022809118032455 0.0694064199924469 -0.15247000753879547 -0.016472458839416504 -0.05048425868153572 0.014965131878852844 0.019590133801102638 0.025408411398530006 -0.029720865190029144 -0.08833186328411102 -0.17425203323364258 -0.08124379813671112 -0.05080437287688255 0.004959090147167444 0.01642652042210102 -0.005307295825332403 0.006542034912854433 -0.047741200774908066 0.03417346999049187 -0.0626760870218277 0.0026144427247345448 0.0021376721560955048 -0.03501254320144653 -0.025917744264006615 0.0029798666946589947 -0.031152479350566864 0.027409018948674202 0.06784787774085999 0.021672619506716728 -0.035365328192710876 -0.0350382961332798 -0.04485826939344406 -0.06468874961137772 0.005366169847548008 0.08391692489385605 -0.02099919691681862 0.013780264183878899 0.03274080902338028 -0.0536423921585083 0.024510357528924942 -0.017365971580147743 -0.029325835406780243 -0.005155811086297035 0.035999998450279236 0.010108421556651592 -0.009470189921557903 -0.010523617267608643 -0.06869751960039139 0.03382313624024391 -0.009615193121135235 0.21738070249557495 0.12143740803003311 0.06623999029397964 0.07133480161428452 0.031125718727707863 -0.04793024808168411 -0.11851652711629868 0.012016825377941132 -0.118594229221344 -0.05440828576683998 -0.0771356150507927 0.04565408453345299 0.019745539873838425 0.00889385025948286 0.10614664107561111 -0.06743991374969482 -0.205055370926857 -0.08481663465499878 -0.025310473516583443 0.03755692020058632 -0.012585779651999474 -0.05609998479485512 0.014709155075252056 -0.04250004142522812 0.0026277212891727686 0.04224597290158272 -0.05965159460902214 -0.025770077481865883 -0.012086482718586922 0.00013904836669098586 0.013075070455670357 -0.03384263813495636 0.10854184627532959 0.07838120311498642 -0.007296663708984852 -0.006349072325974703 0.026409614831209183 0.02251061424612999 -0.010126378387212753 0.011895399540662766 -0.004501926712691784 0.011515065096318722 -0.037350378930568695 0.030372722074389458 0.02834307961165905 -0.044568873941898346 -0.015364963561296463 -0.020723991096019745 -0.011869385838508606 0.04147566854953766 -0.002899539191275835 0.0665314570069313 -0.033863842487335205 0.07048838585615158 0.010360399261116982 -0.00017047219444066286 -0.0011735439766198397 0.02340126968920231 -0.038817211985588074 -0.029253169894218445 -0.0005668775993399322 -0.0016307912301272154 -0.04762949049472809 0.01017756387591362 0.04138640686869621 -0.020505094900727272 0.010208780877292156 0.10429742187261581 -0.07517203688621521 0.1400149017572403 -0.11757133901119232 -0.03272227197885513 -0.04391951858997345 0.08387374877929688 -0.014585758559405804 -0.02404765784740448 0.0031873472034931183 -0.02990727499127388 -0.06120873987674713 -0.014109846204519272 0.08003382384777069 0.1040741354227066 -0.02165856957435608 0.02326595038175583 -0.034967515617609024 -0.032289743423461914 0.03328591212630272 0.029495226219296455 -0.04568711668252945 -0.04741403087973595 -0.04056248441338539 -0.022475969046354294 0.006824162323027849 0.04012329503893852 0.05593164637684822 -0.05438931658864021 0.01012248732149601 -0.02623225748538971 -0.013774827122688293 -0.051594264805316925 -0.05686802789568901 -0.02583596669137478 0.039296284317970276 -0.04517695680260658 0.13684579730033875 0.03443751484155655 -0.02541503868997097 -0.055646419525146484 -0.03645164147019386 0.040578074753284454 0.001167559763416648 0.0720716267824173 -0.07664170116186142 -0.01267214398831129 0.07160600274801254 -0.016819514334201813 0.042347438633441925 -0.07822450995445251 -0.10292362421751022 -0.04286503046751022 -0.005518619436770678 0.03497415408492088 0.040538765490055084 -0.0004975812043994665 0.034901585429906845 -0.20247001945972443 -0.168728306889534 -0.027976222336292267 -0.04217374697327614 0.010923707857728004 -0.03423280268907547 -0.011488446034491062 0.053104646503925323 0.04386432468891144 -0.05646128207445145 0.09542787075042725 0.07657579332590103 -0.028382595628499985 0.04057548567652702 0.014009873382747173 0.003966636024415493 -0.04546727240085602 -0.0006687496788799763 -0.0195873212069273 -0.05919145420193672 0.04488462209701538 0.016252698376774788 0.020743193104863167 -0.019088605418801308 0.009270706214010715 -0.008805730380117893 0.03526321426033974 0.022261885926127434 0.02127435803413391 -0.07745857536792755 -0.02627432346343994 -0.01674790494143963 0.032013896852731705 0.0018639619229361415 0.007650340441614389 0.15447477996349335 0.0008610660443082452 -0.0005724405054934323 -0.029131941497325897 -0.026539023965597153 0.026809994131326675 0.00982731394469738 0.030430473387241364 -0.21028845012187958 0.008924471214413643 -0.006236461456865072 -0.027168799191713333 -0.04523773863911629 -0.03254500404000282 -0.05325692147016525 0.036044370383024216 0.1493789255619049 -0.0408727191388607 0.04488079249858856 -0.03298455476760864 -0.010610012337565422 0.10943145304918289 0.06413272023200989 -0.094650037586689 0.028391750529408455 -0.01220714021474123 0.06355934590101242 0.013541421853005886 0.00985274650156498 0.0164260882884264 -0.20480158925056458 0.11734113097190857 0.07274030894041061 -0.027214692905545235 0.03401995450258255 0.0013612163020297885 0.03167024627327919 -0.004074103198945522 0.05581824481487274 -0.03204812481999397 -0.12575887143611908 -0.07217079401016235 0.04061315581202507 -0.004436648916453123 0.04617707058787346 0.04669136181473732 -0.05048245191574097 -0.1082371324300766 -0.009318177588284016 0.029333963990211487 0.0011746995151042938 0.017254915088415146 -0.01081455871462822 0.07569783180952072 0.03868112713098526 0.03724048659205437 0.028840258717536926 0.004068524576723576 0.05525201931595802 -0.050888627767562866 -0.03132465109229088 0.031913284212350845 -0.009333431720733643 -0.010978332720696926 -0.08095554262399673 -0.045403916388750076 0.005120611283928156 0.049589820206165314 0.0453350730240345 0.005243042949587107 -0.03455773741006851 -0.06041458249092102 0.010329618118703365 -0.025826577097177505 -0.03829805180430412 -0.007617910858243704 0.011847131885588169 -0.028192587196826935 -0.042410604655742645 0.006816150154918432 -0.06670508533716202 0.036954235285520554 0.06512798368930817 0.023547230288386345 0.0004954012692905962 0.03171532601118088 0.06973738968372345 -0.05503559112548828 0.0499529093503952 -0.026174262166023254 -0.03404875844717026 0.04925693944096565 0.03390531614422798 0.02146460860967636 -0.0503808967769146 0.0858745276927948 -0.0342172347009182 -0.0057697719894349575 0.057625994086265564 -0.036454055458307266 0.050557855516672134 -0.025212382897734642 -0.00803556852042675 -0.036320630460977554 0.06696300953626633 -0.0050405897200107574 -0.029257234185934067 -0.16906914114952087 -0.16336189210414886 -0.08663226664066315 -0.0493420846760273 0.004576739855110645 -0.043516386300325394 -0.09654338657855988 -0.11542605608701706 -0.16156119108200073 -0.10867979377508163 -0.09993720054626465 -0.05134947970509529 -0.03661691024899483 0.051475197076797485 -0.05124053731560707 -0.08324805647134781 -0.16607338190078735 -0.14684858918190002 -0.0615994893014431 -0.04663453623652458 -0.014189470559358597 0.0343422070145607 0.022623436525464058 -0.030645068734884262 -0.039562955498695374 -0.031151290982961655 -4.0516835724702105e-05 -0.012944639660418034 -0.007545008324086666 0.03413219377398491 0.016048744320869446 0.007799670100212097 0.017633384093642235 0.003613689448684454 3.6957033444195986e-05 0.008025958202779293 0.0029736885335296392 -0.04139098525047302 -0.013399681076407433 0.02205231972038746 0.02736457996070385 0.012896150350570679 0.014855041168630123 0.03903241828083992 -0.058459751307964325 0.015467312186956406 -0.07039928436279297 0.0043249535374343395 0.005722692236304283 0.01578724943101406 -0.012121334671974182 -0.035015806555747986 0.004881551023572683 0.043825287371873856 -0.021045975387096405 0.007270389702171087 0.060819726437330246 0.012525331228971481 0.022947419434785843 -0.011661665514111519 0.05481228604912758 -0.1234264075756073 -0.03760413080453873 -0.03310456871986389 -0.044675491750240326 0.03416053205728531 -0.004101613070815802 -0.10964307934045792 0.10322103649377823 -0.12637586891651154 -0.04794999957084656 -0.04127154126763344 -0.017745645716786385 0.0017761609051376581 0.05634662136435509 -0.06974192708730698 0.008874768391251564 -0.11235690116882324 0.04656244441866875 0.021863427013158798 0.04156690090894699 0.03629134222865105 0.028831463307142258 -0.020920852199196815 0.0226797703653574 -0.0431438647210598 0.0021813034545630217 -0.07173309475183487 -0.0076491981744766235 0.001905771903693676 -0.020370380952954292 -0.004313685465604067 0.004200328607112169 0.03131600841879845 0.010767105035483837 -0.04531574994325638 0.018174752593040466 -0.01382082886993885 0.01625625416636467 -0.004554498475044966 -0.050637468695640564 -0.023168031126260757 -0.0806659534573555 0.0264569204300642 -0.041597310453653336 -0.0017787377582862973 -0.01404358446598053 -0.008207593113183975 0.03381961211562157 0.1191021129488945 0.19542910158634186 0.011923303827643394 -0.06360291689634323 -0.05192919075489044 -0.014116376638412476 -0.055082108825445175 -0.040149711072444916 0.29437026381492615 0.12460511177778244 -0.05272137001156807 -0.055422645062208176 0.06752292066812515 -0.003116927808150649 -0.10077185183763504 -0.018334027379751205 -0.313522070646286 0.06519538909196854 -0.07252955436706543 0.004795612767338753 -0.024651989340782166 -0.0014582069125026464 -0.08674709498882294 -0.04505147039890289 0.19256170094013214 -0.13135533034801483 0.010627572424709797 -0.010843454860150814 0.018752826377749443 0.08405666798353195 0.07338663935661316 -0.07813335955142975 0.07148014008998871 -0.06040707603096962 0.014448622241616249 0.0025692684575915337 0.042989738285541534 0.02258407697081566 0.011762550100684166 0.04959958791732788 0.009649493731558323 -0.0034400729928165674 -0.07629672437906265 -0.006142077501863241 -0.017558392137289047 -0.0037339243572205305 0.0022091446444392204 -0.01970888115465641 0.005833865609019995 0.03329036012291908 0.013019860722124577 -0.0335625596344471 -0.005014656111598015 -0.017872972413897514 0.00903991051018238 -0.009686220437288284 0.008172507397830486 0.03825560584664345 0.008631758391857147 -0.05781824141740799 0.024310480803251266 0.003053507301956415 0.02738361619412899 -0.004299705848097801 -0.21776899695396423 -0.0893319621682167 0.10168764740228653 -0.07201340049505234 0.00411972776055336 -0.021212780848145485 -0.02151726372539997 0.019684843719005585 0.3191103935241699 -0.1881348192691803 0.06407901644706726 0.026416927576065063 -0.058312393724918365 0.03884841874241829 0.1383005976676941 -0.16794678568840027 -0.04486975446343422 0.0825570598244667 -0.03659878298640251 -0.02258521132171154 -0.04505681246519089 0.025972263887524605 0.017161404713988304 -0.017920149490237236 -0.09508061408996582 0.006677295081317425 -0.02693919651210308 -0.02207939140498638 0.010248081758618355 -0.03216318041086197 -0.0008367956033907831 -0.0360453799366951 0.12668277323246002 0.11226293444633484 -0.026328779757022858 -0.055045872926712036 -0.016805877909064293 -0.06309814006090164 0.002281930996105075 0.03431544825434685 0.34844568371772766 -0.09361045807600021 -0.10567395389080048 -0.09096851199865341 -0.09314176440238953 0.022720981389284134 0.009978266432881355 -0.033248171210289 0.29135406017303467 -0.16000275313854218 -0.15302661061286926 -0.1067277193069458 -0.09786573052406311 0.01598326675593853 0.0015452336519956589 0.010700780898332596 0.21768812835216522 0.12399701774120331 0.007472287863492966 -0.05932571366429329 0.018086912110447884 -0.03476080670952797 0.020142104476690292 -0.002232623053714633 0.02325247973203659 0.041633643209934235 -0.017217088490724564 -0.06350771337747574 0.030415935441851616 -0.018385037779808044 -0.022062841802835464 0.015621562488377094 -0.04926983639597893 0.09148196130990982 -0.04988007992506027 -0.02886817418038845 -0.020811982452869415 0.024294931441545486 0.00661482335999608 -0.005116527900099754 0.037850700318813324 0.02263491041958332 -0.028396109119057655 -0.04618167132139206 0.0014484667917713523 -0.002600230975076556 -0.007491994649171829 0.011216253973543644 -0.01960301399230957 0.006822857540100813 -0.028933309018611908 -0.04774843528866768 -0.025172384455800056 -0.019451385363936424 -0.025841141119599342 -0.02906951680779457 0.1399785578250885 0.055607881397008896 -0.046116903424263 -0.042099326848983765 -0.010794362053275108 -0.03300841525197029 0.00908829178661108 0.0209675133228302 0.3795943856239319 0.13232912123203278 -0.07933900505304337 -0.11591917276382446 -0.11523223668336868 0.014748991467058659 -0.01541120745241642 -0.015771251171827316 0.4016726613044739 0.15352295339107513 -0.06267891079187393 -0.0997781753540039 -0.10950825363397598 0.03877021372318268 -0.010955223813652992 -0.03164774551987648 0.19439494609832764 0.12100166082382202 -0.027729567140340805 -0.06709589809179306 0.013654039241373539 -0.04082135111093521 0.02554076351225376 0.05689834803342819 0.030845439061522484 0.015767307952046394 -0.02273777313530445 -0.09016945958137512 0.009018839336931705 0.00022734828235115856 -0.019200609996914864 -0.010895729064941406 0.07306814193725586 -0.005290674977004528 0.017730893567204475 -0.044197484850883484 -0.009647139348089695 -0.014482896775007248 -0.004350272938609123 0.014842608943581581 -0.0829520970582962 -0.20223306119441986 0.033300597220659256 -0.028556684032082558 0.05662642791867256 -0.05258837714791298 -0.0969269722700119 -0.2539837956428528 0.09421062469482422 0.16092729568481445 0.15631717443466187 -0.009434079751372337 -0.0810067355632782 0.09568385779857635 0.12314064055681229 0.08460873365402222 -0.13791877031326294 -0.031784769147634506 -0.10468465834856033 -0.013555259443819523 0.019233135506510735 0.038793303072452545 0.01915956288576126 -0.06658437848091125 0.005197971593588591 0.03102407418191433 0.028879433870315552 0.02278570458292961 0.019054796546697617 -0.07859610766172409 0.030021557584404945 -0.024220429360866547 -0.015148712322115898 -0.013207823969423771 0.009454714134335518 0.04576294496655464 0.03416877239942551 -0.060224782675504684 -0.013535739853978157 -0.015118274837732315 0.018662815913558006 0.014055663719773293 0.022685665637254715 -0.10093158483505249 -0.009849722497165203 0.031550005078315735 0.03836226463317871 -0.0012549664825201035 0.02470802515745163 0.014439193531870842 0.08939959108829498 -0.06117900460958481 -0.011848031543195248 0.02176838368177414 0.029620680958032608 0.026332581415772438 -0.01750790700316429 0.08883712440729141 -0.019944053143262863 -0.03641924262046814 0.01036094967275858 -0.038227811455726624 -0.09736012667417526 0.046485111117362976 0.1596393883228302 -0.22772815823554993 -0.24979130923748016 -0.14719530940055847 -0.06565216928720474 -0.09212366491556168 -0.12175390869379044 0.15047845244407654 0.04146585240960121 0.02177782915532589 0.0034522349014878273 0.09880001097917557 -0.006960510276257992 -0.0006246364209800959 -0.03601287677884102 -0.0028200880624353886 -0.09602606296539307 -0.031889330595731735 -0.0009094764245674014 -0.018045831471681595 -0.013362591154873371 0.03719938173890114 0.0012188847176730633 -0.009401354007422924 0.017294330522418022 -0.03639672324061394 0.008164133876562119 0.029066797345876694 0.034829333424568176 -0.04277673736214638 0.007743590511381626 -0.006328102201223373 0.05646832287311554 -0.004344784654676914 0.0040529873222112656 0.00515591399744153 0.01762029156088829 -0.06945783644914627 -0.03725821152329445 -0.024776535108685493 -0.018632415682077408 0.006285781040787697 0.012524214573204517 -0.034439366310834885 -0.03385531157255173 0.01430361345410347 0.038607027381658554 -3.0390441679628566e-05 -0.024090467020869255 -0.0333775095641613 0.03132031485438347 -0.0071785058826208115 0.0004953609895892441 -0.029459966346621513 0.05392347276210785 -0.0317419208586216 0.06532932072877884 0.004009606316685677 -0.03150973841547966 -0.04089564085006714 -0.044707316905260086 0.032135576009750366 -0.04007400572299957 0.006745080929249525 -0.08661799132823944 -0.015471438877284527 0.02401031367480755 0.01700272411108017 -0.037583913654088974 -0.07287431508302689 0.12396319210529327 -0.2115035504102707 0.0035167483147233725 0.028474779799580574 -0.01682833954691887 0.011542246676981449 -0.03248194605112076 -0.011751614511013031 -0.09796349704265594 0.1462869942188263 0.0174028892070055 -0.016791336238384247 0.026494238525629044 -0.044367026537656784 0.0041510132141411304 -0.03639670088887215 -0.065589539706707 0.10744227468967438 0.014247948303818703 