0.0061258189380168915 -0.042151134461164474 0.03856692463159561 -0.04305306822061539 -0.05866152420639992 -0.038208797574043274 0.056078094989061356 0.16007162630558014 -0.055945415049791336 -0.08788145333528519 -0.015147564932703972 0.01706749014556408 -0.008105610497295856 -0.020994214341044426 -0.06945529580116272 0.09469319880008698 -0.015154585242271423 -0.04897521436214447 -0.007766911294311285 0.011052990332245827 0.014976251870393753 0.024959467351436615 -0.06474926322698593 0.019285159185528755 -0.0025619801599532366 -0.04633042961359024 0.046463944017887115 0.04578491300344467 0.01976878196001053 -0.03262545168399811 0.0029768103267997503 -0.05439227446913719 0.022209815680980682 0.0074027543887495995 -0.04075992479920387 -0.01215299405157566 0.10991200804710388 0.0025336211547255516 -0.032142505049705505 -0.013143491931259632 -0.025383884087204933 -0.0761353075504303 -0.04809809848666191 -0.0119050033390522 0.03451072797179222 -0.016254106536507607 -0.008988137356936932 0.017353082075715065 0.043638307601213455 0.09072256833314896 -0.012868509627878666 -0.010474052280187607 0.02477937936782837 0.03771113604307175 -0.08753980696201324 0.03234034404158592 0.22407688200473785 0.037149328738451004 -0.10182220488786697 -0.1439930945634842 -0.14343415200710297 -0.06040938198566437 -0.08759940415620804 0.0032332183327525854 -0.15618637204170227 0.05182864889502525 -0.006191654596477747 0.028284424915909767 -0.053742073476314545 -0.05500863865017891 -0.044635090976953506 -0.12207728624343872 0.07342144846916199 0.017973918467760086 -0.02907012403011322 0.01099669374525547 0.052380990236997604 0.042484574019908905 0.07349741458892822 -0.06039911508560181 -0.01626507192850113 -0.04589562490582466 0.0028305307496339083 0.03632324934005737 -0.013924932107329369 0.03279464691877365 0.002479400485754013 -0.06814109534025192 0.02110283449292183 0.009551026858389378 0.061941783875226974 0.019680988043546677 0.03879953548312187 0.009112086147069931 0.054327983409166336 -0.03513701260089874 -0.017003413289785385 0.012235813774168491 0.016626380383968353 0.03928598761558533 0.09433185309171677 0.018671004101634026 -0.024898532778024673 0.03853035718202591 0.024220814928412437 -0.027849415317177773 -0.015027003362774849 -0.024017389863729477 0.044710922986269 -0.026105863973498344 -0.03846263140439987 -0.04300003498792648 -0.08729458600282669 0.10208885371685028 -0.016924533993005753 0.041055768728256226 0.043075647205114365 0.006583329290151596 0.0805768221616745 0.1246887817978859 0.044841453433036804 -0.03566217049956322 -0.06990315765142441 0.021847378462553024 -0.06884322315454483 -0.04948202893137932 0.040189433842897415 -0.2160676121711731 0.09632701426744461 0.024792872369289398 -0.038461778312921524 -0.040767837315797806 -0.013012364506721497 0.014216982759535313 0.02865980565547943 0.08253378421068192 0.03375802934169769 -0.024856364354491234 0.04738808423280716 0.05239870026707649 0.014857803471386433 0.04089182987809181 -0.012269087135791779 0.012344861403107643 -0.02579796127974987 -0.03410819172859192 0.04063139855861664 0.02388669177889824 0.010315852239727974 -0.023948440328240395 0.008683137595653534 -0.026619285345077515 -0.01319460105150938 0.03549859672784805 0.029218344017863274 0.02578396163880825 -0.009955489076673985 -0.02493862807750702 -0.03282814845442772 0.014732933603227139 -0.0035255728289484978 0.017076242715120316 -0.007432440295815468 -0.05311739817261696 -0.05019853636622429 -0.12395468354225159 -0.08941606432199478 0.025073083117604256 0.00049331143964082 -0.03588872402906418 -0.013420742936432362 -0.03751865029335022 -0.11332648992538452 -0.12260627746582031 -0.16652671992778778 0.003795419819653034 -0.04161548614501953 0.01659843884408474 0.008930820971727371 0.009658639319241047 0.015450903214514256 -0.04536920413374901 -0.0647539272904396 -0.09517937153577805 -0.06918559223413467 0.006340104155242443 0.017687972635030746 0.023534564301371574 0.0022423563059419394 0.0068303802981972694 -0.061200521886348724 0.00755569152534008 -0.02810310572385788 0.05128771811723709 0.011485705152153969 -0.018264442682266235 -0.02265462651848793 0.027519354596734047 0.014582090079784393 -0.029837481677532196 -0.029538722708821297 -0.04962554946541786 0.04866643249988556 0.06139883026480675 -0.010825048200786114 0.05168307572603226 -0.026592498645186424 0.018462754786014557 -0.00791135337203741 -0.03198715299367905 0.022864902392029762 -0.016087563708424568 0.04198974370956421 -0.08973871171474457 -0.02485140599310398 -0.033238496631383896 0.05454953387379646 0.0452054962515831 0.06635469943284988 0.04250926896929741 -0.04429273679852486 0.06509135663509369 -0.010878235101699829 -0.03344792127609253 0.01724112778902054 -0.0034875827841460705 0.05468186363577843 -0.038728319108486176 0.05811307579278946 0.06769362092018127 -0.06313259899616241 0.02830803208053112 -0.01791987754404545 0.0019357061246410012 -0.053854916244745255 -0.023603564128279686 0.03405430540442467 0.03148428350687027 -0.08049249649047852 0.005405868403613567 -0.03269520029425621 -0.010165944695472717 0.022310880944132805 0.02429180033504963 0.0046643419191241264 0.041460663080215454 -0.08043801784515381 0.002876637037843466 -0.004299462307244539 -0.05695342272520065 -0.0466432198882103 0.010846104472875595 -0.0254976749420166 0.07060648500919342 -0.025759685784578323 -0.05748571455478668 0.11604190617799759 -0.01702009327709675 0.006037277169525623 -0.010481517761945724 -0.02973177656531334 0.00266270968131721 -0.020552655681967735 -0.10015766322612762 -0.015311416238546371 -0.09791893512010574 0.00046797803952358663 -0.02261289581656456 -0.051083873957395554 0.004440608434379101 0.036274299025535583 -0.02680121921002865 -0.030488012358546257 -0.03427000716328621 0.027001982554793358 0.01382962055504322 -0.018072115257382393 0.02106788195669651 0.030860252678394318 0.015464705415070057 0.010511664673686028 -0.07945714890956879 -0.059335481375455856 -0.04023316502571106 -0.0040542082861065865 0.04535038024187088 0.02593938075006008 0.08542710542678833 -0.024014625698328018 -0.043367352336645126 -0.06449040025472641 -0.06498546898365021 0.019714631140232086 -0.014072033576667309 -0.0090012326836586 0.09891918301582336 -0.08358222991228104 -0.10806278884410858 -0.03361549600958824 -0.014203117229044437 0.017046455293893814 0.015691610053181648 0.004747997969388962 -0.027240773662924767 -0.055059369653463364 0.07250958681106567 0.08138148486614227 0.0557367317378521 0.0462743416428566 -0.08013267815113068 0.00689728744328022 0.1119818314909935 -0.020827051252126694 0.10333631932735443 0.0698217898607254 0.0604388602077961 -0.020524540916085243 -0.01056166272610426 0.0015854761004447937 0.07382529973983765 -0.01946810632944107 -0.030717579647898674 0.0003854334354400635 0.01985291577875614 -0.08686308562755585 0.04936186969280243 0.01712493784725666 -0.03241688385605812 -0.043878402560949326 -0.0774630457162857 0.04924678057432175 -0.045282501727342606 -0.032149236649274826 -0.062402304261922836 0.10905207693576813 0.030567416921257973 -0.06989413499832153 0.0011732742423191667 0.08817432820796967 -0.01320008933544159 0.013942321762442589 0.03498886153101921 0.03381054848432541 0.017324170097708702 -0.03188944235444069 -0.08967728167772293 -0.0497516468167305 -0.0494641438126564 -0.003074326552450657 0.00705442251637578 -0.06566114723682404 -0.029832229018211365 -0.0008966680034063756 -0.00852390006184578 0.03234958276152611 -0.034007053822278976 0.027629081159830093 -0.001452404074370861 -0.029096847400069237 0.053153544664382935 0.016257334500551224 -0.09183049201965332 -0.022248685359954834 -0.12323545664548874 -0.006825580261647701 0.003524215891957283 -0.05412828549742699 0.06369507312774658 -0.08809744566679001 0.09300506860017776 -0.08357509970664978 0.006779331248253584 0.03604190796613693 0.05539075285196304 -0.0061429948545992374 -0.012660546228289604 0.015321108512580395 0.0627431720495224 0.06903793662786484 -0.021345343440771103 0.0365888811647892 -0.028568733483552933 -0.10436444729566574 0.08019453287124634 0.10923068970441818 0.07088242471218109 -0.023917973041534424 -0.02098209224641323 0.036889251321554184 -0.004472806584089994 0.10711298882961273 0.11918894946575165 0.07521859556436539 0.05435452610254288 -0.014683721587061882 -0.031337980180978775 0.024632873013615608 -0.006053098011761904 0.13780029118061066 0.16440992057323456 0.0040686349384486675 0.01895342767238617 -0.023142842575907707 -0.029346389696002007 -0.05206971988081932 0.06756308674812317 0.11400780081748962 0.06326822936534882 0.001960266148671508 -0.07021510601043701 -0.044269900768995285 0.04825451225042343 -0.008456875570118427 0.0036983571480959654 0.08001682162284851 0.04116133227944374 -0.05567900463938713 -0.07039600610733032 -0.07038044929504395 -0.028435923159122467 -0.0014711973490193486 0.028461698442697525 0.051950592547655106 0.03879668563604355 -0.0686367005109787 -0.05458143725991249 -0.04136241227388382 -0.014730796217918396 -0.006634625140577555 -0.02325451746582985 -0.040516868233680725 0.0807066261768341 0.0014298507012426853 -0.04936416447162628 0.015890736132860184 -0.0127621004357934 -0.0393008254468441 0.0059951115399599075 -0.012164566665887833 0.059199221432209015 0.00992764811962843 0.03350704908370972 0.01750257983803749 -0.020717235282063484 -0.018024159595370293 -9.771208169695456e-06 0.040992069989442825 -0.030847877264022827 0.03167448565363884 -0.003033708781003952 -0.054808586835861206 -0.052016451954841614 0.03965374454855919 -0.0012154389405623078 -0.016038911417126656 0.11417480558156967 0.004459477961063385 -0.06588253378868103 0.018725156784057617 -0.07653152942657471 -0.05444415286183357 0.012115160934627056 0.05667205527424812 0.02727654203772545 0.018269822001457214 0.025681015104055405 -0.05444011837244034 0.04546407237648964 -0.04501255229115486 -0.005787545349448919 -0.03928098827600479 0.07269758731126785 -0.0938795655965805 0.0038028552662581205 0.013585587963461876 0.08050139248371124 -0.027028992772102356 -0.04060043394565582 -0.010299489833414555 -0.03254683315753937 0.030052322894334793 -0.04291905090212822 -0.07882557809352875 0.03281556814908981 -0.01462146919220686 -0.022052345797419548 -0.05442023649811745 0.05218078941106796 -0.11312281340360641 -0.000739694049116224 0.053221944719552994 -0.07333195954561234 -0.027827726677060127 -0.02286207303404808 -0.03289521113038063 -0.018366249278187752 -0.007393961772322655 -0.04902321472764015 -0.0004033563600387424 -0.03677240386605263 0.012042260728776455 0.011534667573869228 -0.002450669417157769 -0.013105894438922405 -0.030389489606022835 0.030683670192956924 -0.042287882417440414 -0.06574855744838715 -0.0015416251262649894 -0.007248772773891687 0.035190511494874954 -0.05854770541191101 0.11548683047294617 0.10552569478750229 0.028823990374803543 -0.053307704627513885 -0.03900745138525963 0.06455713510513306 -0.03829022869467735 -0.11229713261127472 -0.13895204663276672 -0.0708245187997818 0.049878183752298355 0.008146303705871105 0.03836488351225853 0.048208560794591904 -0.006150886882096529 -0.029423225671052933 -0.06545329093933105 -0.12305796891450882 -0.04696287959814072 -0.03892606124281883 0.03793421760201454 0.0411604680120945 0.043498869985342026 -0.025278035551309586 -0.09396339952945709 -0.08707071840763092 -0.1092117428779602 0.022500257939100266 0.036603186279535294 0.04503617435693741 0.046817272901535034 0.018572460860013962 -0.037047091871500015 -0.03227345272898674 0.017332080751657486 0.056178681552410126 -0.0015879470156505704 0.008421088568866253 -0.009304344654083252 0.03762044757604599 -0.031664565205574036 -0.057879216969013214 0.01922113262116909 0.04242359846830368 0.026983417570590973 0.04375912994146347 0.07013115286827087 0.010990270413458347 -0.09408905357122421 -0.07783636450767517 -0.02093813568353653 -0.04701359197497368 0.025880252942442894 0.017280124127864838 -0.02621402032673359 0.0059110731817781925 -0.019700108096003532 -0.007393346633762121 -0.014940867200493813 -0.04193186014890671 -0.04694722965359688 0.058144502341747284 0.01664011739194393 0.025746533647179604 -0.06575702875852585 0.11970953643321991 -0.05120466649532318 -0.008728318847715855 -0.03850681707262993 0.016054661944508553 -0.01767783612012863 -0.08142171800136566 -0.0946013405919075 -0.0184306800365448 -0.022158782929182053 0.03444269672036171 0.0003051274688914418 0.031049802899360657 0.07812691479921341 0.008374611847102642 -0.034800682216882706 0.02626875974237919 -0.03157445043325424 -0.05919584259390831 0.042374905198812485 0.005515116732567549 0.05276203528046608 0.04619811847805977 -0.001068498706445098 -0.009975685738027096 -0.021249858662486076 0.02852112427353859 0.022995833307504654 0.051021963357925415 -0.0124411815777421 -0.0016193626215681434 -0.06043313071131706 -0.025990495458245277 -0.02522992342710495 0.00840043555945158 -0.04132717847824097 -0.03440235182642937 0.035744547843933105 -0.042183224111795425 -0.004356942139565945 0.05139606446027756 0.01632351614534855 0.035714052617549896 -0.013566745445132256 0.01775849051773548 0.014651959761977196 -0.019009580835700035 -0.04446536675095558 -0.02208409085869789 2.197987896579434e-06 -0.028442544862627983 -0.021086998283863068 0.05260589346289635 0.13052693009376526 0.025257710367441177 -0.13161224126815796 0.10888699442148209 -0.0698884129524231 0.08902733027935028 -0.11653214693069458 0.05349336937069893 -0.10940176248550415 -0.0003626273537520319 -0.02442864142358303 0.033635158091783524 0.04166199266910553 0.011060215532779694 0.014881020411849022 0.08381950110197067 0.043434660881757736 -0.057167477905750275 -0.07180541753768921 0.0704098716378212 0.008795257657766342 0.02071402035653591 0.05600899085402489 -0.06263948976993561 -0.06087536737322807 0.020891938358545303 -0.026263725012540817 -0.042760226875543594 -0.058111947029829025 0.010690565221011639 0.022540725767612457 -0.033013902604579926 -0.07230568677186966 0.03673035278916359 0.058806587010622025 0.04217332601547241 -0.03764847293496132 0.04375940188765526 0.01608682982623577 0.04801785573363304 0.02278577722609043 -0.04791764169931412 -0.04602430760860443 0.020502403378486633 -0.01704530231654644 -0.03587452694773674 0.05744364112615585 0.038641273975372314 0.028607694432139397 0.05274128168821335 -0.0274042971432209 -0.038534555584192276 -0.057845648378133774 -0.060788676142692566 0.013159515336155891 0.012571962550282478 0.02582690678536892 -0.05194137245416641 0.03129665181040764 -0.02028728276491165 -0.0628579631447792 -0.04041936993598938 -0.036157164722681046 0.032065168023109436 0.07768625020980835 -0.034228723496198654 0.0016655076760798693 0.01666579581797123 -0.03473745658993721 -0.06152044236660004 -0.060753561556339264 0.03389018028974533 -0.04566611722111702 0.017749877646565437 -0.056059300899505615 0.01718125492334366 0.03540351241827011 0.03755415976047516 -0.02598721906542778 0.03421564772725105 0.08278543502092361 0.03150099888443947 -0.05111906677484512 0.002939292462542653 0.03873969614505768 0.04562556371092796 0.031075365841388702 0.04787030071020126 0.0014367845142260194 0.057253289967775345 0.03246811404824257 -0.06028323620557785 -0.056116167455911636 -0.0565611757338047 -0.015667777508497238 -0.006083700340241194 0.03751319274306297 -0.010153490118682384 0.010651009157299995 0.04037334397435188 0.00403595669195056 0.014353201724588871 0.001588928746059537 0.03836416080594063 0.06127762794494629 0.037870779633522034 -0.06435348838567734 -0.04608389735221863 -0.01031600683927536 -0.025645148009061813 0.04404070973396301 -0.025003448128700256 0.02984967827796936 -0.05571885406970978 0.05048958212137222 -0.04493361711502075 0.025889884680509567 0.04147405922412872 -0.007371298968791962 0.016665000468492508 -0.06338422745466232 0.024959584698081017 0.06294342130422592 0.05590538680553436 -0.024629240855574608 0.05268969014286995 -0.06664162874221802 0.012066538445651531 0.03292747586965561 -0.08295556157827377 0.019688721746206284 0.02832064963877201 -0.01773473620414734 -0.032761503010988235 0.02835051156580448 -0.05616806074976921 -0.04400666803121567 0.01358877681195736 0.0898871198296547 0.011211269535124302 -0.05662992224097252 -0.041159603744745255 0.08643046766519547 -0.03682645037770271 0.04064749926328659 0.05741776525974274 0.04180556908249855 -0.0729304626584053 -0.0037818627897650003 -0.0815301313996315 -0.008202090859413147 -0.08054164052009583 -0.05718076974153519 0.04145103693008423 -0.006360389292240143 -0.010508231818675995 0.03704410791397095 -0.07472547888755798 -0.04793882742524147 -0.05500895902514458 -0.05982554331421852 0.02959127351641655 -0.054250989109277725 -0.06893894821405411 -0.07232192903757095 -0.028735654428601265 0.03684471920132637 -0.009398747235536575 -0.05169646441936493 0.004435699433088303 0.05770030617713928 -0.08500921726226807 -0.06545399874448776 -0.003458457998931408 -0.06028367206454277 -0.08345639705657959 0.004925645887851715 0.005935981869697571 0.020421400666236877 -0.09769381582736969 0.04303079843521118 0.010729264467954636 -0.017432302236557007 -0.07120811939239502 -0.046860553324222565 -0.004074151627719402 -0.050442568957805634 0.03155238926410675 -0.05171484500169754 -0.06425385922193527 0.03879379853606224 0.04880715534090996 0.044154390692710876 -0.033604539930820465 -0.017428889870643616 0.0023631006479263306 0.04636280983686447 -0.0048904940485954285 -0.06350016593933105 -0.024175988510251045 -0.00557825667783618 0.028224097564816475 0.09148132055997849 0.10674586147069931 -0.0314413420855999 -0.009735184721648693 0.021736884489655495 0.06031964346766472 0.05619310215115547 0.002044434892013669 0.14799709618091583 0.08684968203306198 -0.017873717471957207 -0.01056740153580904 -0.016719235107302666 0.042687732726335526 0.11434371024370193 0.06964375823736191 0.03072460927069187 0.031111180782318115 -0.03917102888226509 -0.041196007281541824 -0.0527031384408474 0.012652459554374218 0.008642387576401234 -0.007244978100061417 0.02275613695383072 0.030647356063127518 0.0037503254134207964 -0.003834361443296075 -0.00976951327174902 -0.03790440782904625 -0.02010699175298214 -0.0013637676602229476 -0.016593337059020996 -0.018997304141521454 -0.011235886253416538 -0.010784300044178963 -0.028356250375509262 -0.024117356166243553 0.005227923858910799 0.026703966781497 0.04631628468632698 0.07836874574422836 0.01738371141254902 0.026286331936717033 0.038276784121990204 -0.04774535819888115 0.026931632310152054 -0.030651476234197617 0.03638317435979843 0.03419796749949455 -0.0028303733561187983 0.03182566538453102 0.033977072685956955 0.021045435220003128 0.022791655734181404 0.019412897527217865 -0.023518240079283714 -0.02178875356912613 0.01801983267068863 -0.03532274067401886 -0.013592545874416828 -0.015634017065167427 -0.03942589834332466 -0.04454579949378967 -0.03295392915606499 -0.00998674239963293 -0.07441139966249466 0.030217478051781654 -0.05644525960087776 -0.07039135694503784 0.07033181935548782 -0.10514820367097855 -0.10936348140239716 0.05383916199207306 -0.03115258738398552 0.022516634315252304 0.05970655381679535 0.024654628708958626 0.07669910788536072 -0.09212884306907654 -0.05779622122645378 0.018241707235574722 0.013767233118414879 0.025731749832630157 0.001692236983217299 -0.0075948527082800865 -0.0017520103137940168 -0.00345375738106668 0.03483842685818672 -0.043983716517686844 0.01610563136637211 -0.07576829195022583 -0.022695504128932953 0.03556093946099281 -0.013289099559187889 0.0013883063802495599 0.0029997422825545073 -0.04754983261227608 0.004296658094972372 -0.021912047639489174 0.024323390796780586 -0.02030937932431698 0.0017274285200983286 0.035232868045568466 0.08581458777189255 -0.018895532935857773 0.04264357313513756 0.039990052580833435 0.03327396884560585 -0.004979636054486036 0.020984863862395287 -0.008120641112327576 0.16055911779403687 -0.0825357660651207 0.022741055116057396 -0.05627276375889778 -0.07038163393735886 0.002767224097624421 0.08714470267295837 0.03566926345229149 -0.17666389048099518 0.0863410010933876 0.036111023277044296 0.028936268761754036 0.043573327362537384 -0.022104380652308464 -0.09198608249425888 -0.0487414188683033 0.07779676467180252 -0.006130090914666653 -0.08339770883321762 -0.0911950170993805 -0.10197023302316666 -0.06668427586555481 -0.014373225159943104 0.08587519824504852 0.035717520862817764 0.013680745847523212 -0.02831375040113926 -0.02398436889052391 0.02285025455057621 0.03670060634613037 0.032616402953863144 -0.015559809282422066 0.0084876399487257 -0.07034231722354889 0.001608605613000691 0.04381407052278519 0.06400042772293091 0.03397496044635773 -0.06402424722909927 -0.09906776994466782 0.06337873637676239 -0.046822335571050644 0.008519746363162994 0.01035476103425026 0.04911273717880249 -0.00679343705996871 0.025209445506334305 -0.00958743691444397 0.08894944190979004 0.008951177820563316 -0.020134489983320236 0.02911149337887764 0.04738783836364746 -0.0043420204892754555 -0.015181802213191986 0.0004426454834174365 0.06638411432504654 -0.03543216362595558 -0.03416212275624275 0.03098127245903015 -0.01424481999129057 -0.02168799564242363 -0.007945721969008446 -0.07035417854785919 -0.01939280517399311 -0.12286324799060822 -0.007325834594666958 -0.03842351585626602 -0.018312793225049973 -0.036757323890924454 0.010468515567481518 -0.05581443011760712 -0.11137772351503372 -0.03174702450633049 0.04759075120091438 0.03698178008198738 0.042183492332696915 0.004083612933754921 0.06581644713878632 0.04043388366699219 -0.06537126004695892 0.05378933250904083 0.10283710062503815 0.10792762041091919 0.07974306493997574 0.031522080302238464 0.14343781769275665 0.14464594423770905 0.0006095416028983891 -0.010525444522500038 0.03682120516896248 -0.010860503651201725 -0.016044287011027336 -0.004524610470980406 0.10162050276994705 0.18452118337154388 0.02355632744729519 0.03199554979801178 0.0427679605782032 0.09079138189554214 0.04495290666818619 0.028844201937317848 0.03217550739645958 0.03761148452758789 0.01338343508541584 -0.016125693917274475 -0.042001381516456604 -0.0009378609829582274 0.03592468798160553 0.016496039927005768 0.017166946083307266 -0.04444444924592972 0.016718745231628418 -0.05291710048913956 -0.04560534283518791 -0.03549589961767197 -0.026320796459913254 0.0001549617591081187 -0.04805917292833328 0.02139764279127121 -0.02727671153843403 -0.12064912915229797 -0.011346806772053242 -0.07329634577035904 -0.031307000666856766 -0.07567774504423141 -0.10233251005411148 0.015205989591777325 -0.04618676379323006 -0.052278533577919006 -0.08634350448846817 -0.0214554313570261 -0.03835953399538994 -0.028277687728405 -0.04501117020845413 -0.08787302672863007 0.01102734636515379 -0.06130702793598175 -0.01676602102816105 -0.009502625092864037 -0.02795773185789585 -0.04736141115427017 -0.12957969307899475 -0.16088497638702393 -0.02289542928338051 0.1296364665031433 0.06440845876932144 0.1314147561788559 -0.05757919326424599 0.01886674575507641 -0.03875177726149559 0.10193219035863876 0.038433440029621124 0.006185958161950111 -0.0024950457736849785 -0.0818057507276535 -0.035042647272348404 0.007233119569718838 0.08333678543567657 0.10286035388708115 0.06123767048120499 0.04979462921619415 -0.005625145509839058 0.07357988506555557 0.06802885979413986 0.012593246065080166 -0.01001215074211359 -0.017394734546542168 0.04334985837340355 -0.08505220711231232 -0.057045359164476395 0.018635466694831848 -0.0009369177860207856 -0.035219915211200714 -0.004794156178832054 -0.11648138612508774 -0.03143889456987381 0.013874261640012264 0.01642419770359993 -0.035979073494672775 -0.014605381526052952 0.06301937997341156 -0.04640486463904381 0.12736444175243378 0.009199618361890316 -0.07580945640802383 -0.010100304149091244 -0.0012313369661569595 -0.030333492904901505 -0.021166428923606873 -0.05887908115983009 0.024811062961816788 -0.07699547708034515 -0.028972765430808067 -0.028748273849487305 -0.0051236823201179504 -0.009007965214550495 0.013814081437885761 -0.021980969235301018 0.027285492047667503 0.013185580261051655 -0.00807519257068634 -0.04157835245132446 -0.052299343049526215 0.02261618711054325 -0.04988871142268181 -0.04149618372321129 -0.07916610687971115 -0.006621985696256161 -0.06725116074085236 -0.07262180000543594 0.036808524280786514 -0.02072640135884285 0.037086110562086105 0.053020454943180084 0.04246535152196884 -0.008788086473941803 0.013908660039305687 0.060920845717191696 0.052098967134952545 0.018679754808545113 -0.0553661473095417 0.05076729506254196 0.04551208019256592 0.02838154509663582 -0.02948080189526081 0.09642775356769562 0.0035857807379215956 0.0067521268501877785 0.018818935379385948 0.04113347455859184 -0.021252701058983803 0.05756351351737976 0.05681691691279411 -0.06967860460281372 -0.03795409947633743 -0.0098026804625988 -0.010082144290208817 -0.01496634166687727 -0.02794501557946205 0.0520157590508461 -0.07278019189834595 -0.02103613317012787 -0.0671495646238327 -0.07158108800649643 0.02225373312830925 -0.04082554951310158 0.009762896224856377 0.02528371848165989 -0.01906862109899521 -0.05628778040409088 -0.07237330079078674 -0.022692982107400894 -0.06339351832866669 -0.035608354955911636 -0.037769023329019547 0.05472290515899658 -0.03449622541666031 0.0011461280519142747 -0.018475869670510292 -0.09789606183767319 -0.03152477741241455 -0.08758988976478577 -0.051117561757564545 -0.0062368763610720634 -0.049434952437877655 0.007992802187800407 -0.022218916565179825 -0.06687724590301514 -0.06838774681091309 -0.020142605528235435 -0.08626408874988556 -0.003527812659740448 -0.025920970365405083 0.06788396090269089 -0.013651499524712563 0.05625750496983528 -0.005626407451927662 -0.061030834913253784 0.0745580717921257 -0.05121954530477524 0.04334867745637894 0.06491751223802567 0.012031487189233303 0.05993673950433731 -0.03743678703904152 0.02469046600162983 -0.05007576197385788 -0.05508998781442642 -0.07066448777914047 -0.00866999663412571 -0.013518361374735832 -0.041117411106824875 -0.009991854429244995 0.060393501073122025 -0.04855196550488472 -0.06231451779603958 0.014170323498547077 -0.041423339396715164 -0.006803828291594982 0.020349150523543358 0.0032019997015595436 0.041285913437604904 0.026428159326314926 -0.022916186600923538 0.017264142632484436 -0.02071678265929222 0.005540696904063225 0.07208021730184555 -0.0014511931221932173 -0.049669764935970306 -0.029943643137812614 -0.07171157747507095 -0.019906416535377502 -0.0835370421409607 0.017267970368266106 0.0016358487773686647 0.03363775834441185 0.011562659405171871 0.04224942624568939 0.008321432396769524 0.03786815330386162 0.0015037747798487544 -0.023988336324691772 -0.04235178977251053 0.08157103508710861 0.03508608788251877 -0.006699706893414259 0.050767261534929276 -0.05878571420907974 -0.07130550593137741 -0.013044198974967003 0.042318928986787796 0.015311184339225292 -0.04029885679483414 -0.049863994121551514 -0.05076643452048302 0.015175907872617245 -0.036212559789419174 -0.08221171796321869 0.0823540911078453 -0.07146153599023819 0.08548109978437424 -0.03031923994421959 0.022943388670682907 0.06179206445813179 -0.0003011443477589637 0.10280945152044296 0.023532746359705925 -0.05419197678565979 -0.04261757805943489 0.020441390573978424 -0.008172004483640194 -0.005603172350674868 -0.017732545733451843 -0.007601018995046616 -0.004199951887130737 0.04434140771627426 -0.051146093755960464 -0.02085113897919655 0.026858283206820488 0.037653688341379166 -0.046296123415231705 0.03897041454911232 -0.019886599853634834 0.04592690244317055 0.0766768604516983 0.043940793722867966 -0.04779217392206192 0.009792538359761238 0.055540069937705994 -0.05225668475031853 0.005829830653965473 -0.05146073177456856 0.02169923298060894 -0.05741766467690468 0.07433972507715225 0.04651575908064842 0.016741152852773666 0.03990031033754349 0.005818295758217573 0.06921901553869247 0.015379507094621658 -0.07803244143724442 0.07631123811006546 0.05885668471455574 0.054275985807180405 -0.027832144871354103 -0.00644837599247694 0.02606346644461155 0.038554783910512924 -0.0014606979675590992 -0.10831864178180695 0.04359189793467522 -0.031475815922021866 -0.01379410456866026 0.024236666038632393 -0.005149193108081818 0.02698657661676407 -0.029512306675314903 0.08077175915241241 0.046119317412376404 -0.02908693626523018 -0.09396141767501831 -0.08668563514947891 -0.06799903512001038 0.05419566109776497 0.012252267450094223 -0.05642879381775856 -0.04704185202717781 -0.0015597324818372726 0.027900485321879387 0.03296421468257904 0.012090473435819149 -0.0012704497203230858 -0.0747414156794548 -0.027447257190942764 -0.04767843335866928 -0.029776619747281075 -0.024418702349066734 0.055084746330976486 -0.04618870094418526 -0.0561358779668808 -0.04259534552693367 0.06910158693790436 -0.029573924839496613 -0.0229170061647892 -0.0359824039041996 0.05552545189857483 0.07737407833337784 0.03887016326189041 -0.07598090171813965 0.07205547392368317 0.00706515135243535 0.03278388828039169 -0.062201015651226044 -0.022397667169570923 -0.006393983494490385 -0.0027009821496903896 -0.08948488533496857 0.027098841965198517 0.046805091202259064 0.04813826084136963 -0.019125670194625854 0.05072416737675667 -0.018241945654153824 0.013018839061260223 -0.014708229340612888 -0.032599497586488724 0.0018433675868436694 -0.0384802371263504 0.002148016821593046 -0.04473140463232994 -0.025975504890084267 0.02149236388504505 0.04283103719353676 0.032493025064468384 -0.07732459902763367 0.054141566157341 0.05946536362171173 0.04015762358903885 0.041911594569683075 -0.03381621465086937 -0.018224535509943962 0.005912999156862497 -0.007774558383971453 -0.012715328484773636 -0.01851685531437397 -0.023975122720003128 -0.028491023927927017 0.013811968266963959 0.014688365161418915 -0.008491190150380135 0.011978226713836193 -0.019822020083665848 0.006758702918887138 -0.015364504419267178 -0.038490552455186844 0.012448535300791264 -0.006067712791264057 -0.01597522757947445 0.0012096917489543557 -0.0008039944223128259 -0.0074949366971850395 -0.06587526202201843 -0.02136983722448349 -0.01053574588149786 -0.004736277740448713 -0.0017169425264000893 -0.06309852749109268 -0.05224869027733803 -0.12587270140647888 -0.0005764864617958665 -0.0440882071852684 0.004520376678556204 0.04671934247016907 0.012529699131846428 0.0396360382437706 -0.05107639357447624 -0.07152573019266129 -0.09543544799089432 -0.023799017071723938 0.004683901090174913 0.045513711869716644 0.007135951425880194 -0.0285236444324255 -0.04236198589205742 -0.0568128265440464 -0.07001886516809464 -0.02699471265077591 0.019684206694364548 0.06888261437416077 0.022345460951328278 0.010283403098583221 -0.04671056941151619 -0.04783201217651367 -0.05731499195098877 -0.023881977424025536 0.3377932012081146 0.3921576738357544 -0.03236974775791168 -0.03962279111146927 -0.012641099281609058 0.0006175132584758103 0.06660391390323639 0.041574690490961075 0.4107881486415863 0.3859466314315796 0.009976067580282688 -0.02735050953924656 -0.014337102882564068 -0.03932221978902817 -0.018058259040117264 -0.0026865052059292793 -0.015656396746635437 0.030522411689162254 -0.03458480164408684 0.02441149204969406 -0.0062927245162427425 0.012382223270833492 -0.028422722592949867 -0.023314809426665306 -0.004294173792004585 0.021331900730729103 -0.03051045909523964 0.006630059331655502 0.00812349934130907 0.0011131979990750551 -0.08470789343118668 -0.04013708606362343 -0.024385711178183556 0.01889871433377266 0.007581472396850586 -0.05338943004608154 -0.07613430172204971 -0.11453386396169662 0.0006362654967233539 -0.05501411110162735 0.021497825160622597 0.04159850254654884 -0.02431422285735607 0.013583310879766941 -0.028205445036292076 -0.0578281432390213 -0.08843299001455307 -0.03791998699307442 -0.004002360161393881 -0.03777030110359192 0.03394358977675438 -0.02441960945725441 -0.05466988682746887 -0.05092119798064232 -0.07605148106813431 -0.10405283421278 -0.05204825475811958 0.10390263795852661 -0.026592837646603584 0.0007532368181273341 -0.025007864460349083 -0.020650265738368034 -0.06319376081228256 -0.0757509171962738 0.06553399562835693 0.265038400888443 0.006862413138151169 -0.017704643309116364 0.02963404916226864 0.03449598699808121 0.039068322628736496 0.03668943792581558 0.2749715745449066 0.32284337282180786 -0.10513672977685928 -0.08952821791172028 -0.04352836683392525 0.023338329046964645 0.01749618537724018 0.024620231240987778 0.09438185393810272 -0.04405401274561882 -0.058474112302064896 -0.01943042501807213 -0.049285732209682465 -0.010676686652004719 0.030153321102261543 0.08518221974372864 0.2060857117176056 0.18598489463329315 -0.01577630825340748 -0.03228595480322838 -0.0019581601954996586 -0.05080104619264603 -0.012551600113511086 0.013893045485019684 0.11921366304159164 0.1684669703245163 0.0074195098131895065 0.005473010707646608 -0.01729142665863037 -0.058630723506212234 0.0303800031542778 0.02875647321343422 0.04911676421761513 0.15962548553943634 0.0914677232503891 0.07193490862846375 0.02509431168437004 -0.02348671294748783 -0.019338207319378853 -0.04699023813009262 -0.07333249598741531 0.0799325481057167 0.03693306818604469 0.12849003076553345 -0.01618058979511261 -0.037698373198509216 -0.09138021618127823 -0.04757949337363243 -0.07132314145565033 0.060140714049339294 0.06095748394727707 0.008646477945148945 0.020914405584335327 0.025384265929460526 0.05156392976641655 -0.02692105434834957 -0.028236009180545807 0.04315834492444992 -0.0021994260605424643 0.0076158856973052025 -4.524454561760649e-05 0.04968266561627388 0.03514927253127098 0.04446864128112793 -0.01689649187028408 -0.055866289883852005 -0.0030825946014374495 -0.1152646541595459 0.05164513364434242 -0.026650210842490196 0.036024779081344604 0.02719569019973278 0.006293084006756544 0.0636429414153099 -0.12327397614717484 0.06890225410461426 -0.029375161975622177 -0.04065568000078201 -0.08036620169878006 0.04754246026277542 0.14338375627994537 0.10767705738544464 0.011875349096953869 0.021105986088514328 -0.023545846343040466 -0.04559405520558357 -0.0676349624991417 -0.06423027068376541 -0.07985156029462814 0.12711887061595917 -0.03391096740961075 -0.02824259363114834 -0.037098292261362076 -0.11790785193443298 -0.06053697690367699 -0.05031927675008774 -0.13165020942687988 0.07749345898628235 0.09491699188947678 -0.012088492512702942 -0.08022905886173248 -0.05041738227009773 -0.0416099838912487 -0.1051434800028801 -0.0557691752910614 0.01729465276002884 0.02250795252621174 0.06521479785442352 -0.045919958502054214 -0.07897200435400009 -0.06954579055309296 0.025025831535458565 -0.07569178938865662 0.02481651119887829 0.15739566087722778 -0.0068483236245810986 0.06680415570735931 -0.0388639010488987 0.041080400347709656 -0.014873161911964417 -0.04776601865887642 0.057184845209121704 -0.04129394516348839 -0.043889980763196945 0.041320279240608215 0.07712799310684204 -0.0955723375082016 0.10900803655385971 -0.0017702915938571095 -0.017120501026511192 0.10462204366922379 0.05020231753587723 -0.03594641759991646 0.05081460624933243 -0.010985680855810642 -0.0021444617304950953 0.017145320773124695 0.12642276287078857 -0.021719912067055702 0.07953063398599625 0.042054418474435806 0.024489380419254303 -0.047043319791555405 -0.02319278009235859 0.0736401304602623 0.11254289746284485 -0.05932169035077095 -0.03436680883169174 -0.02333073318004608 0.054196637123823166 0.022632518783211708 -0.05206601694226265 -0.0613785982131958 0.016174843534827232 -0.0032421916257590055 0.0445159412920475 0.015516373328864574 0.05572892725467682 0.04095057398080826 -0.008815598674118519 0.018540972843766212 -0.037822771817445755 -0.013614817522466183 0.04211965575814247 -0.02311742678284645 -0.06461496651172638 0.027727942913770676 0.01873917132616043 0.043677352368831635 0.02823682874441147 0.03167884796857834 -0.05543319880962372 -0.08219320327043533 0.042483337223529816 0.04281242936849594 -0.06977490335702896 0.009228577837347984 -0.06935121864080429 0.042253755033016205 -0.05721541494131088 -0.037969231605529785 -0.06779307126998901 -0.04009128361940384 -0.060042303055524826 -8.552443659937126e-07 0.03624001145362854 0.062320444732904434 0.005429188255220652 -0.04760722443461418 0.02096053585410118 -0.015634389594197273 -0.05185261368751526 -0.02364332415163517 -0.006374243181198835 0.051860060542821884 0.011464751325547695 0.06426399201154709 0.06219784542918205 0.007971726357936859 -0.0515931099653244 -0.013031618669629097 -0.013450230471789837 -0.006508731748908758 -0.010169574990868568 0.022466890513896942 -0.0030351299792528152 0.048249904066324234 0.05458913370966911 0.043358851224184036 0.09301285445690155 -0.0016670660115778446 -0.0007750120712444186 -0.056735944002866745 0.04858655855059624 0.020868152379989624 0.05035767704248428 -0.06326350569725037 0.06304873526096344 -0.011477770283818245 0.01789398491382599 -0.028781862929463387 0.04622723534703255 0.008504838682711124 -0.023036815226078033 0.006462763529270887 0.04327836632728577 -0.0162852443754673 0.04342309758067131 -0.007616965100169182 0.038245949894189835 0.04218963533639908 -0.000757857458665967 -0.0416882149875164 -0.018614361062645912 0.05399269983172417 -0.02289869822561741 0.025734324008226395 0.01984952762722969 -0.010540791787207127 -0.020578766241669655 0.008126317523419857 0.025688299909234047 -0.009483780711889267 -0.06631365418434143 -0.014564864337444305 -0.03966053947806358 -0.08325090259313583 -0.07814192771911621 0.06462796032428741 -0.08731762319803238 0.00013030439731664956 0.010297995060682297 -0.025716880336403847 -0.017403867095708847 0.0034820991568267345 -0.011430175043642521 -0.08237671107053757 0.025182878598570824 0.0950121134519577 -0.019668500870466232 -0.04517654329538345 0.0009731631726026535 0.019245654344558716 -0.017168816179037094 0.007649444974958897 -0.059504952281713486 0.05679158493876457 0.0246775820851326 -0.020137442275881767 -0.05750016123056412 -0.05022420734167099 0.014137228019535542 -0.007837249897420406 -0.026700852438807487 0.029511094093322754 -0.015979720279574394 -0.06000345200300217 -0.07772408425807953 -0.004678952042013407 0.014242114499211311 0.043440308421850204 0.0630808100104332 -0.0024713838938623667 -0.0410415381193161 -0.06283754855394363 0.02770906873047352 0.030537154525518417 0.024072788655757904 0.04731341078877449 0.02329149655997753 -0.03227796033024788 -0.07134149223566055 -0.048894017934799194 0.025187630206346512 -0.00457747234031558 0.05084303021430969 -0.025543639436364174 -0.07244639843702316 -0.013574931770563126 -0.009899788536131382 0.02680259197950363 0.03079254738986492 0.07816632837057114 0.018668226897716522 -0.10812017321586609 -0.08358576893806458 0.005990910809487104 -0.08316634595394135 0.04191240295767784 0.024841144680976868 0.02085675299167633 0.032028283923864365 -0.04576690495014191 -0.050740815699100494 -0.07744313776493073 0.046420563012361526 0.08626440167427063 0.022629333660006523 0.0192096009850502 0.021873123943805695 0.1196075901389122 0.038888636976480484 0.061766378581523895 -0.04181385412812233 -0.0058675492182374 0.06100524589419365 -0.0768621489405632 -0.04758144170045853 0.0822308361530304 -0.05697298049926758 -0.06807795912027359 0.0012464813189581037 -0.01911122538149357 -0.057931553572416306 -0.016561556607484818 -0.03389769420027733 0.09402871131896973 -0.019921699538826942 -0.005393785424530506 -0.02659282274544239 -0.016420207917690277 -0.04791948199272156 0.0033692787401378155 -0.06439735740423203 0.020734701305627823 0.07599509507417679 -0.09247785061597824 -0.018865376710891724 -0.030573206022381783 0.05734477937221527 0.045576855540275574 -0.003264953615143895 -0.058615345507860184 0.04517269879579544 0.07354602217674255 -0.0662737488746643 -0.020558364689350128 0.03082730993628502 -0.0376470573246479 0.06342395395040512 0.043941255658864975 -0.03162489831447601 -0.0249495729804039 -0.02725140005350113 0.04929402098059654 -0.00921957939863205 0.012153117917478085 0.03744517266750336 0.03153546527028084 -0.13694265484809875 0.07350609451532364 -0.015199501067399979 -0.0046165320090949535 -0.0333058200776577 -0.037923168390989304 0.04003124311566353 0.030937908217310905 -0.10663791000843048 -0.11136721074581146 0.08833939582109451 0.04767065867781639 0.02116464264690876 0.060022082179784775 -0.07688340544700623 -0.06475304812192917 -0.0842093899846077 -0.004728293977677822 0.06697984784841537 -0.0261240154504776 0.06691508740186691 -0.010804234072566032 0.011941943317651749 -0.02550327405333519 -0.08188100159168243 -0.062031339854002 -0.0015831142663955688 0.0474730059504509 0.00056549342116341 -0.0670633390545845 0.028872070834040642 0.0197429358959198 0.036005649715662 0.09034983813762665 0.08465491980314255 0.004342226777225733 -0.0400882363319397 0.08118589222431183 0.040348365902900696 -0.026871075853705406 0.007334527093917131 0.028326861560344696 0.04202372953295708 -0.07410166412591934 -0.0945134088397026 -0.043646618723869324 -0.05613318458199501 -0.01808839663863182 -0.09682244062423706 -0.06479610502719879 -0.04068336263298988 0.005714402534067631 -0.10181950777769089 -0.09210135042667389 -0.02988867647945881 0.025636965408921242 -0.0007275487296283245 0.060858990997076035 -0.02792128548026085 -0.022617077454924583 0.026060981675982475 -0.017390327528119087 0.004664245992898941 0.03979478403925896 0.015933210030198097 -0.0103254159912467 -0.05025714635848999 0.0293428897857666 0.055561453104019165 -0.06012170761823654 -0.028718139976263046 0.054193686693906784 -0.0491877943277359 -0.04021424055099487 -0.04864555969834328 -0.04765111580491066 0.035321950912475586 -0.009686002507805824 -0.025956381112337112 0.11248127371072769 -0.0780765488743782 -0.05697367712855339 -0.002128447638824582 -0.041424062103033066 0.03931708261370659 0.08368098735809326 0.008531713858246803 -0.025995854288339615 -0.05857894569635391 0.024646172299981117 0.05510585755109787 0.07245118170976639 0.06678332388401031 0.046861790120601654 -0.05689828097820282 0.011515259742736816 -0.00217270920984447 0.020615993067622185 0.037562981247901917 0.07117694616317749 0.06624419242143631 -0.031773488968610764 0.059495676308870316 0.06771521270275116 -0.002133625093847513 0.061519723385572433 0.06944284588098526 -0.02864191308617592 0.0172901414334774 0.030363265424966812 0.010999562218785286 -0.04363546893000603 -0.04451599717140198 0.04921647161245346 -0.0026470189914107323 0.028574801981449127 -0.07633893936872482 -0.09708335250616074 -0.030635306611657143 0.012382249347865582 -0.058130353689193726 0.04857998341321945 -0.043215230107307434 -0.06121758371591568 0.053131263703107834 0.05707952380180359 -0.01575496979057789 -0.03288751095533371 -0.08332601189613342 0.02862454205751419 -0.041444238275289536 -0.05365992709994316 0.05834358558058739 0.04164234548807144 0.04455069079995155 0.011357443407177925 -0.09089069813489914 -0.10303438454866409 -0.015346525236964226 -0.019131677225232124 0.018536074087023735 0.05631735175848007 0.03580540418624878 0.06044308841228485 -0.05157526209950447 0.02514403872191906 0.05274459719657898 0.03424793854355812 0.06299159675836563 0.0685114935040474 0.10088212043046951 -0.047822874039411545 -0.09194359928369522 -0.03608662262558937 -0.043356213718652725 0.04552160203456879 -0.016128933057188988 -0.007325457409024239 -0.030908111482858658 -0.05449102073907852 -0.09721451252698898 0.07785166054964066 0.03982324153184891 0.04230031371116638 -0.02948661334812641 -0.022611474618315697 -0.056369587779045105 -0.06145251914858818 0.06939266622066498 -0.024663681164383888 0.010581408627331257 0.04424823075532913 -0.015764515846967697 -0.03395809978246689 -0.09814386069774628 -0.03565773367881775 -0.008692142553627491 0.03162691369652748 -0.04495956376194954 0.012853585183620453 -0.0032650409266352654 -0.044355493038892746 -0.09092885255813599 0.0005952530773356557 0.057172682136297226 0.05607640743255615 0.0056065586395561695 0.018072208389639854 -0.026351340115070343 -0.04501335695385933 -0.019418034702539444 -0.015424839220941067 0.051580652594566345 0.02741541899740696 -0.07003393024206161 0.004765711259096861 -0.017244873568415642 -0.05730476975440979 -0.05228842422366142 -0.08855099976062775 -0.09093087911605835 -0.01723904348909855 0.015001598745584488 0.04557033255696297 -0.001797048724256456 0.012885638512670994 -0.005022488534450531 -0.05890936776995659 -0.02637850120663643 -0.0436575710773468 0.006376625504344702 -0.014841149561107159 0.10017475485801697 -0.03415729105472565 0.017044100910425186 -0.020269319415092468 0.001630405313335359 -0.05492295324802399 0.018774619325995445 0.023604009300470352 -0.004993753507733345 0.014636602252721786 0.02326998859643936 -0.07162264734506607 -0.0472329780459404 -0.04521079733967781 0.0755029022693634 0.013481223955750465 -0.0032863961532711983 0.011903155595064163 0.019508393481373787 -0.03134290501475334 -0.019267356023192406 -0.0387740358710289 0.05653712898492813 0.03208712860941887 -0.013887040317058563 0.059487223625183105 0.02853751927614212 0.013502107933163643 -0.08837942779064178 0.0063385795801877975 -0.013728303834795952 0.018097305670380592 0.01870388723909855 0.043360672891139984 -0.04846879094839096 -0.0022824376355856657 0.03862707316875458 0.05697518587112427 0.028059031814336777 -0.04835567995905876 0.0140144107863307 -0.0358380563557148 -0.025530481711030006 -0.03226462006568909 -0.0486009307205677 0.007008155807852745 -0.03811601549386978 -0.013225987553596497 -0.0056193554773926735 0.0342312790453434 -0.0456203930079937 -0.07753607630729675 0.04232801869511604 -0.024296334013342857 0.014005642384290695 -0.03210849687457085 -0.0831790640950203 0.046159908175468445 -0.048354268074035645 0.02670859545469284 -0.04179631918668747 0.06537193059921265 0.09409968554973602 -0.0024247963447123766 -0.10184547305107117 0.1113676130771637 -0.08505947142839432 -0.07887494564056396 -0.1056227758526802 0.10841226577758789 0.06177326291799545 -0.06033944711089134 -0.015054506249725819 0.007136959582567215 -0.029834521934390068 -0.1266585737466812 -0.05808502435684204 -0.043729037046432495 -0.07495109736919403 -0.038091856986284256 -0.049154989421367645 0.020227478817105293 0.045902419835329056 0.006102545186877251 -0.050420716404914856 -0.01874174177646637 0.06147480756044388 -0.029273463413119316 -0.016854029148817062 0.04620710015296936 0.0140869515016675 -0.028746867552399635 0.028621388599276543 0.04878269135951996 -0.019616195932030678 0.002524517709389329 0.009700534865260124 0.030344374477863312 -0.07075952738523483 -0.034340985119342804 -0.04853348433971405 0.02124146744608879 -0.1162111908197403 -0.003227431094273925 -0.01804201491177082 -0.02779836766421795 -0.06920219957828522 -0.047740668058395386 0.044404663145542145 0.07244660705327988 0.068697489798069 0.02218194119632244 -0.02961343713104725 -0.048248108476400375 -0.04552699252963066 0.07036081701517105 0.1342746615409851 0.01455743983387947 -0.09636185318231583 -0.016757186502218246 -0.0340285487473011 0.01199598889797926 0.05937682464718819 0.06820692121982574 -0.01215248741209507 0.2454695850610733 0.19270668923854828 -0.04080688953399658 -0.0032726190984249115 -0.02434738725423813 -0.13655278086662292 -0.12653794884681702 -0.05900103598833084 0.2087354212999344 0.13218152523040771 -0.009555862285196781 -0.03220555558800697 -0.055749811232089996 -0.1039825901389122 -0.0891638696193695 -0.06680536270141602 0.00045372851309366524 0.010730894282460213 0.018176017329096794 -0.04311886802315712 0.008064797148108482 -0.03168223425745964 -0.032200369983911514 -0.02097146026790142 0.02685260958969593 0.03777197748422623 -0.0005167962517589331 -0.023315461352467537 0.0377453938126564 -0.0001756858837325126 -0.08907551318407059 -0.016360489651560783 0.024241460487246513 0.032750945538282394 0.02476305142045021 -4.69159240310546e-05 0.04306313022971153 -0.0663270503282547 -0.017640482634305954 -0.03509265184402466 0.048126090317964554 -0.003579749958589673 0.036422114819288254 0.050710417330265045 -0.003666270524263382 -0.03531784564256668 0.051969002932310104 0.03329712897539139 0.11858706176280975 0.031254902482032776 -0.031142735853791237 -0.02218058332800865 -0.013268050737679005 0.008622399531304836 0.10913147032260895 0.14653632044792175 0.016193443909287453 0.034894075244665146 -0.041359953582286835 0.0068207234144210815 0.015478069894015789 0.02419915609061718 0.10714603215456009 0.08979084342718124 0.01575111597776413 0.006539275869727135 0.031714506447315216 0.0558854304254055 0.07215122133493423 -0.00838235393166542 0.011176078580319881 -0.00022101146169006824 -0.02717667631804943 -0.019928164780139923 0.022807618603110313 0.020717907696962357 0.017739832401275635 0.009014223702251911 -0.08237698674201965 -0.04531433433294296 0.02251770719885826 0.06753073632717133 -0.002073906594887376 -0.00014226979692466557 -0.042752400040626526 0.019325140863656998 -0.016733065247535706 0.01384786143898964 -0.05422345548868179 -0.070766881108284 -0.06101551279425621 0.02181965298950672 0.03612600266933441 0.011383133009076118 0.014549458399415016 0.017459608614444733 -0.07773064076900482 -0.09832540899515152 -0.030349001288414 -0.04574745148420334 -0.049438443034887314 0.041202299296855927 0.012350662611424923 0.012203781865537167 -0.07007782906293869 -0.10114233940839767 -0.02140667848289013 -1.2482421880122274e-05 0.010444050654768944 -0.0035422637593001127 0.029475999996066093 -0.04957514628767967 -0.08428522199392319 -0.0715145394206047 -0.04375611990690231 0.007699640467762947 -0.005562223959714174 -0.021611757576465607 -0.0797085240483284 -0.05285680666565895 -0.03474500775337219 -0.017469920217990875 0.08457242697477341 0.09333553910255432 0.07508498430252075 0.003271194640547037 0.05886681377887726 -0.06580668687820435 0.05520828440785408 -0.07596078515052795 0.021102268248796463 0.022087672725319862 0.048233114182949066 0.06955696642398834 0.03238691762089729 -0.046684712171554565 -0.041382476687431335 0.056630536913871765 -0.004145621322095394 -0.05041829124093056 0.010134140029549599 -0.05184192582964897 -0.005099143832921982 0.013981109485030174 0.024719752371311188 0.03631669655442238 -0.023640494793653488 0.02337215654551983 -0.01826341636478901 0.004773756023496389 -0.005344468634575605 -0.024440959095954895 -0.08867429941892624 0.008952798321843147 -0.053621724247932434 0.04814190790057182 0.058332204818725586 -0.01166539452970028 0.05661764740943909 -0.09614119678735733 -0.025151943787932396 0.06465508788824081 -0.006608183495700359 -0.024034496396780014 -0.024493398144841194 0.004632311873137951 0.024356482550501823 0.08093669265508652 0.042429134249687195 0.051239870488643646 0.05468123406171799 0.007772971875965595 0.024228017777204514 -0.008438884280622005 0.059020329266786575 -0.011755702085793018 -0.13641181588172913 -0.07641291618347168 -0.017369184643030167 0.00857581663876772 -0.037622153759002686 -0.07077283412218094 0.10523857921361923 -0.06145888939499855 0.10436005145311356 -0.0343996025621891 0.0362531803548336 -0.09076925367116928 0.10224004089832306 0.04652602970600128 0.08681116998195648 -0.03838416188955307 0.07220079749822617 -0.02823728695511818 0.09464271366596222 -0.05309782922267914 0.002207563491538167 0.08243022859096527 -0.010612208396196365 0.04598461836576462 -0.009634347632527351 0.017949208617210388 0.0060848151333630085 -0.02275024726986885 0.05476456135511398 -0.03818649798631668 0.004999903962016106 -0.05963098257780075 -0.048691391944885254 0.004888876341283321 0.024617541581392288 -0.01116940751671791 -0.04213631898164749 0.03681393712759018 0.02019193023443222 -0.016896311193704605 0.05704396218061447 0.006840636022388935 -0.07073826342821121 0.009738495573401451 0.023380741477012634 -0.04846721887588501 0.0014226454077288508 0.01859850063920021 -0.01154997106641531 0.07507923990488052 -0.04977571591734886 0.04402077943086624 -0.04691417142748833 -0.028089966624975204 0.014036987908184528 -0.057467732578516006 0.06232352554798126 -0.06586167961359024 0.015072310343384743 -0.05620812252163887 -0.009068707004189491 0.03898358345031738 0.005110980477184057 0.07562413811683655 0.0787392184138298 -0.051647525280714035 -0.006553175393491983 -0.02324429526925087 -0.017973685637116432 -0.05681439861655235 -0.04179926961660385 -0.028979197144508362 0.019933192059397697 0.06667446345090866 -0.04703215882182121 0.03677498176693916 0.01619812473654747 -0.03823144733905792 0.08159863203763962 -0.04856967180967331 -0.046090833842754364 0.013207275420427322 -0.04716232046484947 -0.06748773157596588 -0.014411053620278835 -0.03449149429798126 -0.007100315764546394 0.02523675747215748 0.07335065305233002 -0.047206103801727295 -0.006621670909225941 -0.06987517327070236 -0.02678862027823925 -0.018911145627498627 -0.01604500412940979 -0.04599063843488693 0.028006695210933685 0.04067295044660568 -0.054773397743701935 -0.027003923431038857 0.04719535633921623 -0.05167751759290695 -0.05272700637578964 -0.05844343081116676 -0.036546219140291214 0.06649792939424515 0.058464255183935165 0.044505342841148376 -0.05982896685600281 -0.04570026695728302 0.03694383427500725 0.05127192661166191 -0.07609851658344269 -0.022025030106306076 -0.02141364850103855 0.023995613679289818 -0.058027759194374084 -0.030785342678427696 0.030669376254081726 -0.016981050372123718 -0.003909700084477663 -0.0488835945725441 -0.058138664811849594 -0.06336899101734161 -0.003784219967201352 0.005678111687302589 0.020383859053254128 -0.030019327998161316 -0.0766056478023529 -0.03999830037355423 0.014461355283856392 0.0032456524204462767 -0.043945055454969406 0.011404485441744328 -0.058263834565877914 -0.061156585812568665 -0.05584773048758507 0.004589110612869263 0.05994374305009842 0.04769904166460037 0.061775073409080505 0.04333553835749626 -0.020847028121352196 0.009387307800352573 -0.048990242183208466 -0.008823871612548828 -0.03889789432287216 0.00036099753924645483 0.017802292481064796 0.005961645394563675 0.0792500376701355 0.10404171794652939 -0.014819716103374958 0.007268818560987711 -0.011541380546987057 -0.0679645836353302 -0.01639491878449917 -0.03393872454762459 -0.007349440827965736 -0.009934782981872559 0.04237177595496178 0.03178858757019043 0.012543524615466595 0.005139301996678114 -0.012260861694812775 -0.08289840072393417 0.0045025534927845 -0.04042048752307892 0.05842344090342522 0.08067210018634796 0.045752041041851044 0.038498956710100174 -0.03802857547998428 -0.019663356244564056 0.006084227003157139 -0.01692885346710682 0.02994690090417862 0.04364548623561859 0.06461046636104584 0.0003343431162647903 -0.01446643564850092 -0.015279150567948818 -0.019930314272642136 -0.016258658841252327 0.012193058617413044 0.022907791659235954 0.10053025186061859 0.10945307463407516 0.012790524400770664 -0.009784839116036892 0.0014106588205322623 -0.06303227692842484 0.026393748819828033 -0.015020567923784256 0.06498214602470398 0.01834174618124962 -0.03252515196800232 -0.06056032329797745 0.02127150446176529 -0.02736746147274971 0.054030392318964005 -0.07368507981300354 -0.08810155093669891 -0.07720872014760971 -0.0941431075334549 -0.13817745447158813 -0.12689340114593506 0.05376255139708519 -0.008948716334998608 -0.06259368360042572 -0.029797060415148735 0.05011679604649544 -0.06124599277973175 0.043765630573034286 0.12234751135110855 -0.017590532079339027 0.0185305867344141 0.0349547453224659 -0.04043348878622055 -0.028422443196177483 0.03778484836220741 -0.0935208648443222 -0.1102651059627533 0.03484801575541496 0.07377013564109802 0.012062312103807926 0.0336688794195652 -0.009560619480907917 -0.04335426911711693 -0.024036606773734093 0.030887767672538757 0.014940191060304642 -0.026562703773379326 0.04242221266031265 -0.008218301460146904 -0.003224517684429884 0.01043187826871872 -0.05268237367272377 0.05190853774547577 -0.1017269641160965 0.07657384127378464 0.0024785446003079414 0.002447869861498475 -0.04757294803857803 -0.036152251064777374 -0.00677651260048151 0.051935285329818726 0.06081769987940788 0.03590301051735878 0.0765741616487503 0.057593122124671936 0.04300056770443916 0.06190875172615051 -0.0668850839138031 0.029254838824272156 -0.0299525186419487 -0.06981208175420761 0.02231123484671116 0.03475593030452728 0.06789106875658035 0.10188514739274979 -0.025784244760870934 0.0690893903374672 -0.14010539650917053 0.014396054670214653 -0.00812669936567545 -0.03723475709557533 -0.03744024783372879 -0.07409074157476425 -0.061919111758470535 -0.11045335978269577 0.08956190943717957 0.00020336691522970796 -0.03674943000078201 0.055161524564027786 0.009777335450053215 -0.07057242840528488 0.04675230383872986 0.040198925882577896 -0.060476526618003845 -0.0694548562169075 -0.046182699501514435 -0.045169856399297714 -0.018641937524080276 0.03805265948176384 -0.00800512544810772 -0.0371786504983902 -0.012165525928139687 -0.041106127202510834 0.026708640158176422 0.03431165963411331 0.03855833038687706 0.012933489866554737 0.04607602581381798 -0.05212699994444847 0.04411705210804939 -0.0695199966430664 0.03266787528991699 0.03768445923924446 -0.026777366176247597 0.0016392316902056336 0.049911484122276306 -0.044318199157714844 -0.03397781029343605 -0.07461266964673996 -0.063028983771801 0.016145043075084686 -0.03390396758913994 0.02634602040052414 -0.0265291016548872 0.003730376251041889 -0.009887228719890118 -0.011724745854735374 -0.044876839965581894 0.038792684674263 0.05339788645505905 -0.019471097737550735 0.04163474962115288 -0.04318107292056084 0.056522026658058167 -0.08196838945150375 0.01940782181918621 0.021705377846956253 0.058398228138685226 -0.03303370624780655 0.03984393551945686 0.017137309536337852 0.05776296183466911 -0.07363606989383698 -0.022014811635017395 0.0009803763823583722 -0.008380086161196232 0.06337380409240723 0.030550114810466766 0.059698380529880524 -0.052178576588630676 -0.03989078104496002 0.02729332633316517 0.03919345885515213 -0.03558414801955223 0.0357690192759037 -0.09776251018047333 -0.03644285723567009 -0.007046502083539963 -0.004765255842357874 0.02579355798661709 -0.013868028298020363 -0.02951408177614212 0.08164544403553009 0.036759838461875916 -0.06266018003225327 0.049592480063438416 -0.08255750685930252 0.0971965491771698 -0.06489279121160507 -0.04389443248510361 0.00871072243899107 0.024391092360019684 0.05352115258574486 -0.05940910428762436 0.0047687990590929985 -0.03557932376861572 -0.005448748357594013 0.022807277739048004 -0.01846722699701786 -0.06377843767404556 0.05126269906759262 -0.006617187988013029 0.00936110969632864 0.027118990197777748 0.05848679319024086 0.008847341872751713 -0.06968298554420471 0.046396154910326004 -0.06261637061834335 0.003988645970821381 -0.07369432598352432 0.0033929229248315096 -0.0006315201171673834 -0.030068784952163696 -0.056538086384534836 -0.04511318355798721 0.022686069831252098 -0.019978636875748634 -0.01681533083319664 0.053542669862508774 -0.023643434047698975 0.04397478699684143 -0.04927915334701538 0.061448998749256134 0.02085859701037407 -0.0024221669882535934 -0.09637711942195892 0.06854454427957535 0.04072481766343117 0.08561785519123077 -0.07389605790376663 -0.07042735069990158 -0.017623143270611763 0.04427908733487129 -0.021473409608006477 -0.009723936207592487 -0.05655208230018616 -0.04798050597310066 0.01276753656566143 0.029596861451864243 -0.059382807463407516 0.03126654401421547 -0.01168359350413084 0.0011418446665629745 -0.02888939529657364 -0.010124700143933296 0.004978090524673462 0.04280012100934982 -0.020827487111091614 -0.0817234143614769 -0.03269711509346962 0.017983796074986458 0.02881149761378765 0.05173021927475929 -0.008339873515069485 -0.0440547838807106 -0.06891079246997833 -0.06661371141672134 0.08184049278497696 0.009089558385312557 -0.05384230241179466 0.007246613036841154 0.018684837967157364 0.022618655115365982 0.005347357597202063 0.028209103271365166 0.040606677532196045 0.0036603915505111217 0.010419674217700958 0.020711584016680717 0.006041943095624447 0.009690394625067711 -0.0011614845134317875 -0.012961472384631634 -0.004735623486340046 -0.028252478688955307 0.03144501894712448 -0.028048409149050713 0.02955448627471924 0.019540268927812576 0.06571441143751144 0.06321921944618225 0.07122089713811874 -0.058068592101335526 0.05643666163086891 -0.07261320948600769 0.023640036582946777 0.0495503768324852 0.06148776412010193 0.034315820783376694 -0.010624629445374012 0.028576025739312172 0.029815737158060074 0.03431244194507599 -0.017749585211277008 0.05577513575553894 0.04907336086034775 -0.0006758152157999575 -0.004237609449774027 0.04573701694607735 -0.03918254375457764 0.016130950301885605 -0.056009601801633835 -0.017832938581705093 0.028783680871129036 -0.032232798635959625 -0.05521880090236664 0.0042420350946486 -0.0351669117808342 0.04256298393011093 -0.04049987345933914 0.06852439790964127 -0.019537542015314102 -0.07903379201889038 0.024668220430612564 -0.03119734302163124 -0.04221131652593613 -0.07130922377109528 0.05785571411252022 -0.06028361618518829 0.057868361473083496 0.04012974724173546 0.05033749341964722 -0.040924154222011566 -0.004965994041413069 -0.039686426520347595 -0.0025706987362354994 0.03883365914225578 -0.07300513982772827 -0.0664474293589592 -0.003607126884162426 -0.03116084821522236 -0.05055062472820282 -0.03638385981321335 0.014421903528273106 -0.06567902863025665 -0.004336242564022541 0.04800480976700783 0.01147532183676958 -0.02811628021299839 0.06052196025848389 -0.02281133644282818 0.018467579036951065 0.0595165453851223 0.007148971781134605 -0.026545420289039612 -0.024705717340111732 -0.017717111855745316 0.04840923845767975 0.00962144136428833 -0.023621555417776108 -0.0688597783446312 0.0664718896150589 0.07437670230865479 -0.052026037126779556 0.009952458553016186 -0.06184949725866318 0.06128646060824394 -0.005235888995230198 0.011208310723304749 0.04366844892501831 -0.016903717070817947 -0.06538557261228561 0.05557800084352493 -0.012235133908689022 -0.07384180277585983 0.015222685411572456 -0.06015375629067421 0.022460708394646645 0.005937749985605478 -0.010118948295712471 0.00449761189520359 0.01077241264283657 -0.03976505622267723 4.313671888667159e-05 -0.04156120494008064 0.04657813906669617 -0.06491385400295258 -0.02464473247528076 -0.05158120021224022 -0.015841089189052582 0.029767367988824844 0.0003349164326209575 -0.03470621630549431 -0.05509849637746811 -0.0657348483800888 0.05689295381307602 -0.027436600998044014 0.006886546034365892 -0.011551400646567345 -0.010714201256632805 0.050997789949178696 -0.040301062166690826 -0.016041582450270653 -0.06564278155565262 0.032695602625608444 -0.07165118306875229 -0.016862433403730392 -0.052552588284015656 -0.013451612554490566 0.06175060197710991 0.072252556681633 0.0264651607722044 0.005014487542212009 0.006940156687051058 0.056733496487140656 0.05651376023888588 0.07140717655420303 -0.02034679614007473 0.049599140882492065 -0.0364246591925621 0.0005201207241043448 -0.0398562066257 0.009813216514885426 0.02950953133404255 -0.022554630413651466 0.04976819083094597 0.030183881521224976 -0.00501345656812191 -0.0004038881161250174 -0.0272199809551239 0.08755239099264145 0.02887411043047905 0.0287188608199358 0.06700844317674637 -0.10042776167392731 -0.059222474694252014 -0.03224815055727959 0.05330898240208626 -0.07290942221879959 -0.017308121547102928 -0.04482997953891754 -0.012745345942676067 0.027620192617177963 -0.01878374256193638 -0.05394930765032768 -0.04186900705099106 -0.04872417449951172 0.013565272092819214 -0.03050527721643448 -0.029613496735692024 -0.10187920928001404 0.002750868909060955 0.038593895733356476 -0.010547542944550514 0.03921223804354668 -0.01259609218686819 -0.05426308885216713 -0.02022070437669754 -0.06663548946380615 -0.07580550760030746 0.013688968494534492 0.04049663618206978 -0.03781361132860184 0.06794384866952896 0.061351023614406586 0.01022998709231615 0.009995401836931705 -0.07481459528207779 0.018151018768548965 -0.04438094422221184 0.071966253221035 0.058341529220342636 -0.013007701374590397 0.022010954096913338 0.003166414564475417 0.03391552343964577 -0.01759742759168148 0.014808714389801025 0.08595415949821472 0.041965968906879425 0.024601897224783897 0.05118940398097038 -0.025342656299471855 -0.08548416942358017 0.02019979991018772 -0.02425793930888176 0.07078137993812561 0.07345544546842575 0.07663900405168533 -0.02805422432720661 0.03680707886815071 -0.0885620042681694 -0.00496201915666461 0.06103242561221123 0.012524406425654888 -0.011114955879747868 0.05458587408065796 0.05158708989620209 -0.014562114141881466 -0.004471406806260347 -0.020524121820926666 -0.028808796778321266 0.013410043902695179 -0.01358614768832922 -0.0059738121926784515 0.013368646614253521 0.03242585435509682 0.07617927342653275 0.013101262040436268 -0.0015080214943736792 -0.04695267975330353 0.06418861448764801 0.04503638297319412 0.04268025606870651 0.00919415708631277 0.04672146588563919 0.10233284533023834 0.02347790263593197 -0.017807837575674057 0.0719677060842514 0.038228247314691544 0.03590787947177887 -0.05759729444980621 0.06532124429941177 0.02753264643251896 0.016099823638796806 -0.01133511122316122 -0.008248193189501762 -0.018427712842822075 0.00438318494707346 0.05563095957040787 0.04437138885259628 -0.060797225683927536 -0.046537935733795166 -0.04925822094082832 -0.04735429212450981 0.00037063431227579713 0.07107934355735779 0.06365596503019333 -0.007472693454474211 -0.1450924575328827 -0.09237384796142578 -0.03321915492415428 0.004445744212716818 0.017513444647192955 0.038021307438611984 -0.04704286530613899 -0.12313476204872131 -0.13328877091407776 -0.09776803106069565 0.0004252702638041228 0.010615098290145397 0.02706550993025303 0.13197661936283112 0.061776746064424515 -0.09323487430810928 -0.13012519478797913 -0.07076786458492279 -0.0005581203149631619 -0.0015922773163765669 -0.0012869457714259624 0.10735542327165604 0.10884224623441696 -0.06875957548618317 -0.040183622390031815 0.03663944825530052 -0.07454667240381241 0.06328591704368591 -0.0251941941678524 0.017413947731256485 -0.05895211175084114 0.0871896743774414 0.06161396577954292 0.012123809196054935 -0.014245047233998775 0.00462832348421216 0.015168804675340652 0.020781397819519043 0.006296312902122736 0.05297764390707016 -0.03826615959405899 -0.044969625771045685 -0.053266532719135284 -0.004815476015210152 -0.01660117693245411 0.04330095648765564 0.05098643898963928 0.027978256344795227 -0.06533901393413544 0.003835683921352029 0.024414757266640663 -0.00558127136901021 -0.05047868937253952 -0.04480510205030441 -0.05554354190826416 0.05479688569903374 -0.021531375125050545 0.009862571954727173 -0.0135553739964962 0.00031842978205531836 -0.027131907641887665 0.013021059334278107 0.029754554852843285 -0.07236871868371964 -0.007757890969514847 0.030967343598604202 0.020047549158334732 0.029137711971998215 -0.06971516460180283 0.0025162617675960064 0.04360082373023033 -0.03195983171463013 -0.10127923637628555 -0.046499788761138916 0.04224090650677681 0.02364630065858364 -0.022790461778640747 0.11620581895112991 -0.05415135994553566 -0.10276085138320923 -0.06782055646181107 0.0864546149969101 -0.04531731829047203 0.02170911245048046 0.008551448583602905 -0.026835711672902107 0.05611817538738251 0.001986952032893896 -0.06742813438177109 0.01726316101849079 -0.001320317154750228 0.02840372361242771 0.028931010514497757 -0.025525493547320366 -0.015626713633537292 -0.17002061009407043 -0.09393125772476196 -0.022008001804351807 0.015377864241600037 -0.03523201122879982 0.03959083929657936 -0.03184947371482849 -0.11481790244579315 -0.006251682993024588 -0.08287395536899567 0.016790078952908516 0.0016363159520551562 0.052845027297735214 0.08327645808458328 0.008674340322613716 -0.09730423241853714 0.04169332981109619 -0.06782577186822891 -0.0011468088487163186 0.05257919803261757 0.01928701251745224 0.02759469486773014 0.0002513257204554975 -0.03543032705783844 0.03123811073601246 -0.05472108721733093 -0.01626521162688732 0.016170719638466835 -0.04672390595078468 -0.033158037811517715 -0.022611698135733604 -0.08190024644136429 0.0077417511492967606 -0.01905708946287632 -0.02824474684894085 0.0022617923095822334 -0.01852462999522686 -0.04585905373096466 -0.053523365408182144 -0.0861397534608841 -0.027088599279522896 0.06221511587500572 0.03720278665423393 -0.018274318426847458 0.014561894349753857 -0.029816143214702606 0.035577449947595596 -0.02747070975601673 0.10757473111152649 0.035895101726055145 -0.06073868274688721 0.01216405164450407 -0.0037579815834760666 -0.019941899925470352 0.03252989798784256 0.1460622102022171 -0.011048545129597187 -0.0038706990890204906 -0.055410683155059814 -0.017661692574620247 -0.009370424784719944 0.007212474010884762 0.09502080827951431 -0.1943422108888626 -0.1399589627981186 -0.043863099068403244 -0.014356276020407677 0.05179580673575401 -0.046775802969932556 0.042544517666101456 0.022668324410915375 0.04257020354270935 0.016557756811380386 0.0812927857041359 0.001194699201732874 -0.015308286994695663 -0.00017914299678523093 0.03402114287018776 0.06241503357887268 -0.05456245318055153 -0.03544618561863899 -0.041838739067316055 0.07145597040653229 0.05110223591327667 0.03235726058483124 -0.019108878448605537 0.01733274944126606 0.08569111675024033 0.06837660819292068 -0.04863061383366585 0.04717770591378212 0.08155328035354614 0.05006743222475052 0.08277161419391632 0.04303397610783577 -0.12499203532934189 0.018262621015310287 -0.0028259370010346174 -0.01059731375426054 -0.029181621968746185 0.016394032165408134 -0.06888160109519958 -0.019212257117033005 -0.005540911108255386 -0.004549940582364798 -0.013900896534323692 -0.019403742626309395 0.035969581454992294 0.058676961809396744 -0.011444156989455223 0.09110742062330246 -0.14348839223384857 0.036630842834711075 0.03354346379637718 -0.02392727881669998 0.08810529857873917 -0.09071755409240723 0.03132214397192001 -0.05198874697089195 0.06804106384515762 -0.005824131891131401 0.009046378545463085 0.049455564469099045 0.05100634694099426 0.05917603150010109 -0.03693432733416557 0.0592326857149601 0.10238569229841232 -0.04694284126162529 -0.005821995437145233 -0.0027619190514087677 -0.005126671399921179 -0.03931311145424843 -0.05830812826752663 0.04078575596213341 0.04868820682168007 0.022869441658258438 0.015870803967118263 -0.03293164446949959 0.020400961861014366 -0.03828758746385574 0.002392619615420699 -0.06858180463314056 -0.0316493883728981 -0.04584184288978577 0.028231799602508545 0.015365793369710445 -0.03784998878836632 -0.04396888613700867 -0.04176224768161774 -0.01854316145181656 -0.013304468244314194 -0.03600897639989853 0.008565972559154034 0.007871863432228565 -0.03129464387893677 0.010149397887289524 0.02985134720802307 0.008878317661583424 -0.016330653801560402 -0.047544773668050766 0.052964307367801666 0.06003744527697563 0.030038781464099884 0.05929576978087425 -0.006366657093167305 -0.026404619216918945 -0.03162996843457222 -0.0029484564438462257 0.009569501504302025 0.026520585641264915 0.03408211097121239 0.028933759778738022 0.02783231995999813 -0.02980075404047966 0.04581613838672638 0.10433561354875565 0.060242410749197006 -0.05650431662797928 0.01747158356010914 -0.03140202909708023 -0.05168909206986427 0.019698502495884895 0.041399627923965454 -0.09500923752784729 0.06622740626335144 -0.016710519790649414 0.017152922227978706 0.011275631375610828 0.018938496708869934 -0.08412464708089828 0.00841489341109991 0.10829891264438629 -0.09057880192995071 0.06576603651046753 -0.025245344266295433 -0.03930070251226425 0.05851899832487106 0.007496161386370659 0.05905915051698685 -0.039870865643024445 -0.02684694528579712 -0.029905907809734344 0.034183748066425323 -0.015454456210136414 -0.014083917252719402 -0.0487842783331871 0.024498960003256798 0.045217715203762054 0.06344075500965118 -0.02194109559059143 -0.035704586654901505 0.040501683950424194 -0.025324946269392967 0.04186331480741501 -0.009630477987229824 -0.07136561721563339 0.0014743123902007937 -0.0571124367415905 -0.030785081908106804 -0.032391130924224854 -0.011334327049553394 -0.038772933185100555 0.029077384620904922 -0.020041484385728836 0.0788625106215477 0.034836333245038986 0.010344643145799637 0.038045987486839294 0.038548704236745834 -0.0011318880133330822 0.0062941331416368484 -0.07385466247797012 -0.0012702997773885727 -0.0020039791706949472 0.012079937383532524 0.031428493559360504 -0.010309575125575066 0.06625979393720627 -0.06830472499132156 0.05623261258006096 -0.08180731534957886 0.02039550058543682 -0.03277650848031044 0.05294443294405937 -0.027259163558483124 0.1042664423584938 -0.09062961488962173 0.2011830359697342 0.14039380848407745 -0.009206383489072323 -0.017601147294044495 -0.04537251219153404 -0.006333629135042429 -0.04325340688228607 0.006704638712108135 0.1517098993062973 0.044777002185583115 -0.0021650753915309906 -0.01373464148491621 -0.010630178265273571 -0.056419141590595245 -0.0073239863850176334 -0.009573682211339474 0.04357676953077316 -0.038616422563791275 -0.07826796919107437 0.024881694465875626 -0.05164814367890358 -0.10346396267414093 -0.021881893277168274 0.04296630993485451 0.02167041227221489 -0.03239915519952774 0.005291271489113569 -0.058020222932100296 -0.005652959458529949 0.01623973622918129 0.012790072709321976 -0.06319218873977661 0.10899805277585983 -0.03546601161360741 -0.050460293889045715 -0.020604653283953667 -0.04310326650738716 -0.07338850945234299 0.03042718395590782 0.0023012268356978893 0.028993060812354088 0.03645308315753937 -0.02950231358408928 -0.00992357637733221 -0.029030578210949898 -0.015464424155652523 0.02873883582651615 -0.04627503827214241 -0.028249327093362808 -0.033602409064769745 -0.04219133034348488 0.004515616223216057 -0.055643077939748764 -0.030560143291950226 -0.010319432243704796 -0.046596359461545944 0.04277016595005989 0.10652606189250946 -0.05445746332406998 -0.02106163091957569 -0.008986527100205421 0.03483012318611145 -0.07371882349252701 -0.030406037345528603 0.2566377818584442 0.2743718922138214 0.005536691751331091 -0.02637668140232563 -0.02984975092113018 -0.010141958482563496 -0.06246708333492279 -0.06790781021118164 0.3223221004009247 0.21831820905208588 0.025089727714657784 -0.013601581566035748 -0.039998140186071396 -0.09159769117832184 -0.014399424195289612 -0.025211477652192116 0.08951112627983093 0.03198711574077606 -0.03264593705534935 0.017242081463336945 -0.04957370460033417 -0.06937990337610245 0.022262170910835266 0.009930280968546867 0.097621388733387 0.006706663407385349 0.003878297982737422 -0.09224086999893188 -0.00834075640887022 0.0026467577554285526 0.015657268464565277 0.0044606891460716724 0.08724694699048996 0.0057363915257155895 -0.06660012900829315 0.0014939132379367948 -0.03885849937796593 -0.04779132828116417 0.05722452700138092 -0.009923879988491535 0.05302654206752777 -0.027223452925682068 -0.04931158944964409 0.0012150306720286608 -0.023079054430127144 -0.04345743730664253 -0.02196153812110424 -0.003300971118733287 -0.01979370228946209 0.017078479751944542 0.004242876078933477 0.014042884111404419 -0.05246179550886154 -0.04159650206565857 -0.025925079360604286 -0.05756158009171486 -0.017186978831887245 0.08214347064495087 0.011294640600681305 -0.004562457092106342 -0.027799734845757484 0.013938973657786846 -0.05223594605922699 -0.0533381849527359 0.06312096118927002 -0.0723266452550888 -0.026175422593951225 -0.015106542967259884 -0.0101815490052104 -0.027189331129193306 0.06045350804924965 -0.07367952167987823 -0.14553938806056976 0.026904597878456116 0.007989393547177315 0.042158450931310654 -0.035918205976486206 0.0028933221474289894 0.011320100165903568 -0.02711530216038227 -0.10891325771808624 0.0001497368939453736 0.021512217819690704 0.017615649849176407 0.018391679972410202 0.04226751625537872 0.004723616410046816 0.01990782655775547 -0.08183516561985016 0.07413401454687119 0.017615390941500664 -0.0014327523531392217 0.03451501578092575 0.06418371200561523 -0.02008848637342453 0.07181603461503983 -0.051935434341430664 -0.0097422506660223 -0.01737908646464348 -0.012249385938048363 0.0413789227604866 0.01138115581125021 -0.018318479880690575 -0.0769800916314125 -0.06571103632450104 -0.10761293768882751 0.03467990830540657 0.05076499283313751 0.02228899672627449 0.029078779742121696 0.03970089554786682 -0.012096910737454891 0.15020056068897247 -0.008231209591031075 -0.05073324590921402 -0.01589541882276535 0.06068424507975578 0.01756187155842781 0.03133152797818184 -0.08088044077157974 -0.17600445449352264 0.009842351078987122 -0.025327615439891815 0.011321020312607288 0.02235412783920765 -0.021435260772705078 0.08194136619567871 -0.13004165887832642 0.10297655314207077 -0.013696970418095589 -0.06589389592409134 -0.020689180120825768 -0.022461026906967163 0.0022691308986395597 -0.035544414073228836 0.03929360583424568 -0.06451782584190369 0.041712887585163116 -0.014408329501748085 0.025737743824720383 -0.029485633596777916 0.033645063638687134 -0.06197337806224823 -0.042900919914245605 -0.11377377063035965 -0.041462089866399765 0.06753626465797424 0.001994118094444275 -0.0005751030403189361 0.048314452171325684 0.021525118499994278 0.027001531794667244 -0.11559773236513138 -0.06951018422842026 -0.008384446613490582 -0.009691920131444931 0.056543827056884766 0.03206595778465271 -0.001634996267966926 -0.015372497960925102 -0.14598843455314636 -0.05450122058391571 -0.010830354876816273 -0.034403953701257706 0.05101902782917023 0.01618047244846821 -0.00578097952529788 -0.00588286342099309 -0.05700216814875603 0.006154555827379227 -0.04835162311792374 0.07505731284618378 0.057860467582941055 0.05705182999372482 -0.06040158122777939 0.027814926579594612 -0.03070020116865635 -0.0058925561606884 -0.05732426792383194 -0.006062616128474474 0.07806325703859329 0.05855485796928406 -0.051859330385923386 -0.061343684792518616 0.06821911782026291 0.0460040420293808 -0.006910123396664858 0.00011717559391399845 0.040194351226091385 -0.00329238036647439 0.009844457730650902 -0.027148203924298286 -0.08150017261505127 -0.021439597010612488 -0.0391802079975605 -0.015527649782598019 0.00855520460754633 -0.07887787371873856 0.016140980646014214 -0.007878485135734081 0.01580141671001911 -0.012116782367229462 0.037100788205862045 -0.008892442099750042 0.06428524106740952 -0.017737137153744698 0.06281200051307678 0.0700308233499527 0.0415373221039772 -0.027121765539050102 -0.04681868106126785 -0.02260144241154194 0.03439794480800629 0.004917174112051725 0.006777876988053322 -0.0074255382642149925 -0.059168003499507904 -0.07037723064422607 0.05870553478598595 -0.012201540172100067 -0.06661659479141235 0.007618061266839504 0.01514644268900156 -0.044422030448913574 -0.009923813864588737 0.014649930410087109 -0.01042360719293356 0.013431752100586891 -0.005591733381152153 0.028158726170659065 -0.011548858135938644 -0.002177820075303316 -0.016999809071421623 0.06887988746166229 0.014089779928326607 -0.0020533555652946234 0.005035941023379564 -0.02244826965034008 0.058002274483442307 -0.021623173728585243 0.054681725800037384 -0.05417082831263542 -0.023225130513310432 0.04047417640686035 0.02504185028374195 0.024357866495847702 0.022442379966378212 0.018759652972221375 -0.05051162466406822 0.02525390312075615 -0.051589593291282654 0.01048777624964714 -0.014520065858960152 -0.027439331635832787 0.05816817656159401 -0.019426727667450905 -0.04574911296367645 -0.022710617631673813 0.03442357853055 0.008604039438068867 -0.08003748208284378 -0.0704943984746933 0.03507938235998154 0.07133393734693527 -0.0058739506639540195 -0.006141060497611761 0.002342849038541317 0.015385257080197334 -0.045473046600818634 0.0005367022822611034 -0.04213882237672806 0.0026234243996441364 0.09009673446416855 -0.03713423013687134 -0.041136518120765686 -0.016691284254193306 0.010549443773925304 0.02705257385969162 0.007244480308145285 -0.06470698118209839 -0.017186984419822693 -0.05335497856140137 -0.0064800092950463295 0.02004389837384224 0.006104419939219952 0.02782047912478447 -0.007584738079458475 -0.02756531722843647 0.059530552476644516 -0.007758865132927895 0.05578262358903885 0.05569764971733093 0.025968872010707855 0.06044592335820198 0.001677728141658008 -0.049554482102394104 0.054996196180582047 0.016896648332476616 0.03628626465797424 -0.03794701024889946 0.07155957072973251 0.03315381705760956 0.0749342069029808 0.016005640849471092 -0.05262686312198639 -0.06613973528146744 -0.04124470427632332 -0.012329486198723316 -0.042663849890232086 0.032300181686878204 -0.0008459588862024248 0.0024955873377621174 -0.06210857629776001 -0.07540431618690491 0.0045043788850307465 -0.018516166135668755 0.008677133359014988 -0.027712754905223846 -0.013897036202251911 0.04674381762742996 -0.10282476246356964 -0.10456445813179016 0.04460815340280533 0.05191999673843384 0.04410678148269653 -0.0467129684984684 -0.026918858289718628 0.07509918510913849 -0.05243341252207756 -0.08207301050424576 -0.027410035952925682 -0.021163903176784515 0.07265754044055939 -0.04325870797038078 -0.010603101924061775 -0.06421363353729248 0.026541467756032944 -0.03432131186127663 -0.02901766635477543 -0.0463513508439064 -0.06133630871772766 -0.022105863317847252 0.04156377539038658 -0.0634893849492073 0.012059953995049 0.011918346397578716 0.04651462659239769 0.06685593724250793 0.02536936104297638 -0.011790433898568153 -0.05380486696958542 -0.09968770295381546 -0.013509583659470081 0.03140826150774956 0.026093482971191406 0.023984059691429138 0.04428901895880699 0.04900000989437103 -0.021728472784161568 -0.11500784009695053 -0.02966764010488987 -0.027260011062026024 0.012766650877892971 0.08455317467451096 0.03166759014129639 0.024411367252469063 -0.001424696296453476 -0.10143691301345825 0.0549272783100605 -0.027549507096409798 0.05697207152843475 0.040518470108509064 0.02974044345319271 -0.011006212793290615 0.025834204629063606 -0.19525519013404846 0.06016932427883148 0.09855931252241135 0.013573765754699707 0.058944158256053925 0.03611290082335472 0.04717794060707092 -0.060053955763578415 -0.09375478327274323 -0.1338200569152832 -0.010602666065096855 0.11316769570112228 0.03592468798160553 -0.021798351779580116 -0.053856514394283295 -0.1281091272830963 -0.025776803493499756 0.11519116908311844 -0.040837131440639496 0.007149395998567343 -0.04702673479914665 0.05195041745901108 0.07083867490291595 0.030650407075881958 0.04222520440816879 -0.06527084857225418 -0.0200913455337286 -0.003916149493306875 -0.05554691702127457 -0.08067964017391205 -0.043151263147592545 -0.012326301075518131 0.012277274392545223 0.05361846089363098 0.02593090385198593 -0.027298519387841225 0.030812999233603477 0.020259294658899307 -0.005388020072132349 0.02132575586438179 -0.08368075639009476 -0.0542457178235054 0.031621310859918594 0.013097140938043594 0.008909537456929684 0.002057648031041026 0.10532788932323456 0.0715031623840332 -0.12233728170394897 0.03407866507768631 0.01342176366597414 0.007119799964129925 0.03535926342010498 0.007801556959748268 -0.05720848590135574 0.09757634997367859 -0.07084318995475769 -0.08552643656730652 0.024743305519223213 0.023764677345752716 0.028691988438367844 -0.017179494723677635 -0.02937386743724346 0.15688194334506989 -0.22354881465435028 -0.052159007638692856 0.12143529951572418 0.011767524294555187 0.034699469804763794 -0.036043405532836914 0.01762247085571289 -0.03427300229668617 -0.01078865211457014 0.06688123941421509 0.021295543760061264 0.05583877116441727 0.050405796617269516 -0.0410282127559185 0.07505546510219574 0.050197504460811615 0.09421499073505402 0.022919701412320137 0.026779843494296074 0.042483191937208176 -0.008286329917609692 -0.04361603781580925 -0.042595379054546356 -0.008501902222633362 0.020099110901355743 0.08263939619064331 -0.00011206656199647114 -0.010587163269519806 0.013041765429079533 -0.04654189571738243 0.03979581594467163 0.03923353552818298 -0.041027676314115524 0.03602726012468338 0.006849911995232105 -0.02553139626979828 0.013862877152860165 -0.044231489300727844 0.0017248861258849502 -0.06656678020954132 0.05910896882414818 -0.022398147732019424 0.04139918088912964 -0.08802225440740585 -0.037352047860622406 -0.03269084542989731 -0.05545929819345474 0.049658194184303284 0.03365911915898323 0.04370841756463051 0.017488105222582817 0.010158045217394829 -0.001545727252960205 0.061144039034843445 -0.03790079057216644 0.03290056809782982 0.05907377973198891 -0.02019096352159977 0.009697035886347294 -0.06132045388221741 -0.038788896054029465 -0.022210702300071716 -0.06124303862452507 0.08653118461370468 -0.009413307532668114 0.012539753690361977 0.014018095098435879 0.03757566586136818 -0.025774886831641197 -0.014287302270531654 0.04616717994213104 0.038933511823415756 0.029849063605070114 4.7287736379075795e-05 -0.011945038102567196 0.03028068132698536 0.019992481917142868 -0.005799115169793367 0.028368942439556122 0.0819723978638649 0.10711922496557236 0.009310591965913773 0.017272787168622017 -0.006278954911977053 0.045048099011182785 -0.08675747364759445 -0.07212962955236435 -0.05036741495132446 0.07095715403556824 0.03540029004216194 -0.023888392373919487 -0.021160434931516647 0.0458812452852726 -0.031647130846977234 -0.07972973585128784 -0.06526407599449158 0.05724446848034859 -0.04593854770064354 0.04251652956008911 0.010729280300438404 0.00012347304436843842 0.03662485629320145 0.030226051807403564 -0.008967511355876923 -0.021334832534193993 0.05077344924211502 -0.02530743181705475 -0.08622179180383682 -0.010312977246940136 0.022014733403921127 -0.05229705572128296 0.055333565920591354 -0.02668795920908451 -0.02200801484286785 0.023875953629612923 -0.08484530448913574 -0.020046861842274666 0.007598833180963993 -0.005456740502268076 0.04500199481844902 -0.027910225093364716 0.019951947033405304 0.030156543478369713 -0.06305639445781708 -0.023696890100836754 0.007232144009321928 -0.054808359593153 0.04101133719086647 0.0815664678812027 0.07470367103815079 -0.03193480893969536 -0.010221324861049652 0.04622657969594002 0.025864670053124428 0.0031261295080184937 0.011312397196888924 0.06543435156345367 0.0467861145734787 -0.06498734652996063 -0.0559748075902462 0.0012786701554432511 -0.03201065585017204 -0.0010310335783287883 -0.11865357309579849 0.10608921945095062 -0.06412329524755478 0.009334586560726166 -0.03412531688809395 0.07702324539422989 0.05739031359553337 -0.030993923544883728 -0.04962075129151344 -0.12631118297576904 0.053576357662677765 0.018449794501066208 -0.015414264984428883 0.05157294124364853 0.03881404548883438 0.02327766641974449 0.018652809783816338 -0.022536734119057655 0.09538863599300385 -0.015223757363855839 -0.030088534578680992 0.042381495237350464 -0.0036420568358153105 0.028432952240109444 0.04654337093234062 0.1062149778008461 -0.0742812529206276 -0.019812583923339844 0.026456380262970924 -0.0021613147109746933 -0.03140721470117569 -0.003105171723291278 0.07819696515798569 -0.12338259816169739 0.013247971422970295 0.03261999413371086 -0.009476890787482262 0.022204497829079628 0.026433758437633514 0.07667608559131622 0.013916388154029846 0.01863735169172287 -0.046756427735090256 0.02363402210175991 0.01183981355279684 0.048213545233011246 0.0006802644929848611 0.02347712591290474 -0.05024151876568794 -0.03404855728149414 -0.03382023796439171 0.00689215213060379 0.06268022209405899 0.015030928887426853 0.05197371914982796 -0.038972802460193634 -0.02677549049258232 -0.012594062834978104 -0.0052691553719341755 -0.028833024203777313 -0.07581909000873566 -0.053011830896139145 -0.09086567908525467 -0.12787024676799774 -0.08273430168628693 0.1187213882803917 -9.408121695742011e-05 -0.028619524091482162 -0.0747145414352417 -0.086307592689991 -0.14787325263023376 -0.08785741031169891 -0.01648196578025818 -0.047509972006082535 0.02191348560154438 0.024408185854554176 -0.059931520372629166 -0.048932887613773346 -0.11874692887067795 -0.025978505611419678 -0.041894879192113876 -0.07343810796737671 0.08994171768426895 -0.016209280118346214 -0.050981272011995316 0.014654087834060192 -0.04803644120693207 -0.008650865405797958 0.01078171655535698 -0.02368396520614624 0.02258489839732647 0.0473456010222435 0.021136542782187462 -0.03814144805073738 -0.056652218103408813 0.003162083914503455 0.057589080184698105 0.002214886713773012 0.024953287094831467 0.0211627259850502 0.02369987592101097 0.037987951189279556 0.0033456452656537294 0.05741709843277931 0.031994618475437164 -0.05042746663093567 0.046243615448474884 0.006848048884421587 0.08207030594348907 0.10739937424659729 0.0017336682649329305 0.036353252828121185 -0.040289707481861115 -0.023379750549793243 0.0031295546796172857 0.037131667137145996 -0.023631718009710312 -0.008368086069822311 0.022737979888916016 -0.03806057199835777 0.025820735841989517 0.0029786957893520594 -0.03489810973405838 -0.02473648637533188 -0.0644981637597084 -0.07548709213733673 0.0719643160700798 -0.07287368923425674 0.06560824066400528 -0.0700889527797699 -0.0693189799785614 0.01860976777970791 0.03601690009236336 -0.04077919200062752 0.057002391666173935 0.0038848784752190113 0.02738620899617672 -0.04435921087861061 -0.05938534066081047 0.013675294816493988 0.05382044240832329 -0.00858402531594038 0.05653993785381317 0.04160778596997261 -0.04216764122247696 0.00427718460559845 -0.005259792320430279 0.025793498381972313 -0.02087789960205555 -0.0006405201274901628 0.07176309078931808 0.05045143887400627 -0.060064896941185 -0.024761280044913292 -0.08009859919548035 -0.032725851982831955 -0.04993269965052605 -0.05880028381943703 0.02370927669107914 0.014313600026071072 -0.042661622166633606 0.06747806817293167 0.06667289137840271 0.07132426649332047 -0.045610472559928894 0.013603202067315578 -0.0235743410885334 -0.027147764340043068 0.06783661246299744 -0.04869438335299492 -0.07324780523777008 0.027736980468034744 -0.019689323380589485 -0.036404404789209366 0.04736527428030968 0.038123853504657745 0.021352438256144524 0.0028386847116053104 0.05445199832320213 0.03477614000439644 -0.01720704883337021 0.03602386265993118 0.016592686995863914 -0.06944459676742554 0.0642537996172905 -0.032208025455474854 -0.06964702904224396 0.02760516107082367 0.06498362869024277 -0.07486028969287872 -0.020085351541638374 -0.04715738445520401 -0.009313059039413929 0.06652416288852692 0.03899158537387848 0.027799056842923164 -0.0111591387540102 0.019277440384030342 0.04471981152892113 -0.010489238426089287 0.05595080927014351 0.045546263456344604 0.03913296014070511 -0.07131052762269974 -0.03436145558953285 -0.06112740933895111 -0.004501225892454386 -0.035325389355421066 -0.014158911071717739 0.03816600888967514 -0.025346625596284866 -0.023368630558252335 0.026951752603054047 0.02251683920621872 -0.059941064566373825 0.006471400149166584 0.047726042568683624 0.07047037035226822 -0.06348223984241486 -0.03312178701162338 0.023314647376537323 0.04763896018266678 -0.04221206158399582 -0.030993424355983734 -0.039792947471141815 -0.012646873481571674 -0.06832315772771835 0.013455639593303204 -0.0021987706422805786 0.01670156605541706 0.04823349416255951 0.04598979651927948 -0.006121770478785038 0.02813906967639923 0.043321508914232254 0.038468267768621445 0.0152463773265481 -0.03852619603276253 -0.04240429028868675 -0.011941618286073208 -0.013139331713318825 -0.0037591580767184496 -0.058284465223550797 0.019756212830543518 0.06504877656698227 -0.01893363706767559 -0.017059510573744774 0.056732043623924255 -0.07293850183486938 -0.04434597119688988 0.04416823759675026 0.0358867309987545 0.12370848655700684 -0.03085518069565296 0.039566755294799805 0.020990170538425446 0.033453311771154404 0.15377390384674072 -0.0978553518652916 0.0649334043264389 0.005269067361950874 -0.016216183081269264 -0.018781131133437157 -0.06449674069881439 0.05207352340221405 -0.2267923653125763 0.09440632164478302 -0.004127711523324251 -0.015317828394472599 -0.04867396876215935 -0.07357538491487503 -0.033883146941661835 0.021714823320508003 0.10098470747470856 -0.02793438360095024 -0.0031707282178103924 -0.04122793674468994 -0.019871002063155174 -0.09662995487451553 -0.009026669897139072 -0.04671213775873184 0.01543388981372118 -0.0069810859858989716 -0.05517414212226868 -0.06494114547967911 -0.0942152887582779 -0.10773157328367233 -0.07205583155155182 -0.0063940975815057755 -0.07340823113918304 -0.008206342346966267 0.03381135314702988 -0.014633936807513237 -0.05605262517929077 -0.05099869146943092 -0.06684722006320953 -0.04727136716246605 0.05396624282002449 -0.08990386128425598 0.07451053708791733 -0.00810319185256958 -0.01628025248646736 -0.06809564679861069 -0.039961520582437515 0.049644794315099716 0.11383697390556335 0.04665277153253555 -0.05828719586133957 0.11389002203941345 -0.08121635019779205 0.06069866195321083 0.14535950124263763 -0.036610811948776245 0.05261806771159172 -0.08501158654689789 -0.026497051119804382 0.028547175228595734 0.08101959526538849 0.062233347445726395 0.01485362183302641 0.026174213737249374 -0.06021296977996826 -0.05671617388725281 0.0287051722407341 0.027969922870397568 -0.006574168335646391 0.021580977365374565 0.026038501411676407 0.033904097974300385 -0.10648205876350403 -0.011907000094652176 -0.005831001792103052 0.005796165205538273 0.029401829466223717 -0.0600881353020668 -0.029211632907390594 -0.08044131100177765 -0.0347050242125988 0.03568496182560921 0.010060756467282772 -0.0149624552577734 0.007331147789955139 -0.02723482809960842 -0.014913078397512436 -0.03551715239882469 0.026333248242735863 0.03912465646862984 0.012196474708616734 -0.024153774604201317 -0.0609690323472023 -0.11110445111989975 -0.0045149242505431175 0.07351988554000854 0.06263694167137146 -0.03944016247987747 -0.006562831811606884 0.019219424575567245 0.026286108419299126 -0.017142057418823242 -0.06554065644741058 0.05161815136671066 -0.017898324877023697 -0.05560975521802902 0.027884559705853462 0.009216772392392159 0.05831185728311539 0.02458401955664158 0.021918177604675293 0.12805701792240143 0.12064509838819504 -0.09448894113302231 0.0239160917699337 0.04874853417277336 0.061211541295051575 0.10154551267623901 0.041502226144075394 0.10633799433708191 0.028462449088692665 -0.06615084409713745 -0.009341544471681118 -0.04460757598280907 -0.016278322786092758 0.05005216971039772 -0.01757904700934887 -0.07780899852514267 -0.042259734123945236 -0.004931585863232613 -0.04842953383922577 -0.07861115783452988 -0.021577682346105576 0.027990302070975304 -0.02296619676053524 0.015603412874042988 0.0011229675728827715 0.004368721041828394 -0.05573531240224838 -0.03157687932252884 -0.01092969998717308 -0.0023921022657305002 0.01600705273449421 0.06012586131691933 0.018270742148160934 -0.04285582900047302 -0.01597103476524353 0.025907499715685844 -0.010108964517712593 0.0030877660028636456 0.010038073174655437 0.05718421936035156 0.01504858024418354 -0.07610906660556793 -0.0771348625421524 -0.029717780649662018 -0.056751079857349396 0.024160025641322136 -0.028938382863998413 0.026321306824684143 0.0293197613209486 -0.02273140475153923 -0.06540388613939285 -0.02371261641383171 -0.05461660400032997 -0.09235900640487671 -0.04712110757827759 0.051623664796352386 -0.0037464029155671597 0.004399008583277464 -0.025837959721684456 -0.06906726211309433 0.010678223334252834 -0.09430022537708282 -0.008976229466497898 -0.07967442274093628 0.01503050047904253 0.07786525040864944 -0.07222441583871841 0.0002806478296406567 0.020773299038410187 0.0012075644917786121 -0.0048035867512226105 -0.026366833597421646 -0.03677644208073616 -0.003815189702436328 0.04820563644170761 -0.023216240108013153 -0.02950241230428219 -0.027961382642388344 -0.003096654312685132 0.0560220405459404 -0.03198087960481644 -0.006692375987768173 0.041750870645046234 -0.041329458355903625 -0.034676775336265564 -0.0017832880839705467 -0.03414423391222954 -0.00833683181554079 0.05034714564681053 -0.006785679142922163 0.04402262344956398 0.07790376991033554 0.014166278764605522 -0.013092681765556335 0.05573177710175514 -0.02181561291217804 0.0037734576035290956 0.002938330639153719 0.0072363438084721565 0.010378370061516762 -0.011007949709892273 -0.0002440615789964795 -0.020470457151532173 0.0436011366546154 -0.04685140401124954 -0.06370532512664795 -0.02703092060983181 -0.02925073355436325 0.014947335235774517 0.06262471526861191 -0.025522883981466293 0.06988390535116196 0.08285289257764816 0.010095282457768917 -0.04256897792220116 0.04501143470406532 -0.023916585370898247 0.032002825289964676 -0.05633606016635895 -0.03975926712155342 -0.0704306811094284 -0.05210632458329201 0.017030587419867516 0.0667247623205185 -0.01080344244837761 -0.058203838765621185 0.032729677855968475 0.025661863386631012 0.07101466506719589 -0.0516318753361702 0.016096364706754684 0.010629365220665932 0.038716938346624374 -0.01566222682595253 -0.022450653836131096 0.03309420123696327 -0.0661989077925682 0.05909763649106026 -0.0512959286570549 0.034111201763153076 0.02121763862669468 -0.03978932648897171 -0.019554272294044495 0.0038309309165924788 0.033827874809503555 0.04153992980718613 -0.00897031556814909 0.0016026882221922278 -0.0727764442563057 -0.02275768481194973 0.036576930433511734 0.06066422164440155 -0.019719533622264862 -0.06747405230998993 0.04187355935573578 -0.05966780334711075 -0.03662844002246857 -0.06155266612768173 -0.06929291784763336 -0.003034573048353195 0.03840120509266853 -0.02573447860777378 0.004838942550122738 -0.007680526468902826 -0.022059474140405655 -0.019655611366033554 -0.0397939458489418 0.03394114971160889 0.07465552538633347 0.012737171724438667 -0.04851822182536125 -0.0027723147068172693 -0.05043351277709007 0.01428227312862873 -0.061344847083091736 0.07377354800701141 -0.016895635053515434 -0.03717424347996712 -0.012421604245901108 0.02482861466705799 -0.02490735426545143 -0.05535510927438736 0.03597419708967209 -0.0646016001701355 -0.06011347100138664 -0.055582597851753235 0.011701904237270355 -0.04717433080077171 0.04113170877099037 0.040120985358953476 -0.0443783663213253 -0.03650680556893349 -0.0569491907954216 -0.006048658862709999 -0.008318680338561535 0.02417885512113571 -0.007772038225084543 0.0702044740319252 0.0438089445233345 -0.06664805114269257 0.015521517023444176 0.0668950080871582 -0.04947097972035408 0.01916951686143875 0.044904693961143494 0.03459472209215164 -0.04536572843790054 -0.05159042403101921 0.007820984348654747 -0.07392992079257965 -0.0077904341742396355 0.06561768800020218 -0.028961114585399628 0.03038599155843258 -0.0151780741289258 -0.06670647859573364 -0.008204019628465176 -0.03689667582511902 -0.03212415426969528 0.057742759585380554 -0.011298640631139278 0.03405627980828285 -0.018432674929499626 0.04156367853283882 0.03579048439860344 0.014834601432085037 -0.0021810003090649843 -0.05335679277777672 0.0659920871257782 -0.04599841311573982 0.02558189444243908 -0.03987981379032135 -0.024611951783299446 -0.05040808767080307 -0.05486292392015457 -0.041569676250219345 -0.062352631241083145 -0.025739964097738266 -0.010141449980437756 0.0392434187233448 0.05913184955716133 0.03516867384314537 -0.0698947086930275 -0.07294975221157074 -0.04544955864548683 -0.005365174729377031 0.00850355438888073 0.006205477751791477 -0.03731699660420418 0.028221869841217995 -0.02075842395424843 -0.041081734001636505 -0.03748820349574089 0.014709163457155228 0.024036651477217674 0.07234016060829163 -0.022866981104016304 0.07271835952997208 -0.036726970225572586 -0.05833101272583008 -0.0636032223701477 -0.058748893439769745 -0.023278137668967247 -0.003213112708181143 0.004218672402203083 0.0164678655564785 -0.03717811033129692 -0.06007392331957817 -0.06601179391145706 -0.06268797814846039 0.05574104189872742 -0.01049561332911253 0.047794390469789505 -0.07581546902656555 0.07365934550762177 -0.020480593666434288 -0.010230694897472858 0.0618332140147686 0.03291027992963791 -0.02561553567647934 0.04027067869901657 -0.028034767135977745 0.0017631636001169682 -0.06529375165700912 0.006216940935701132 -0.004204255994409323 0.0058412691578269005 0.058160483837127686 0.00162357313092798 -0.08742456138134003 0.0341031439602375 -0.0061436668038368225 0.04733411967754364 0.02561183273792267 -0.016690311953425407 6.091950126574375e-06 0.026455087587237358 -0.03187379240989685 -0.039186444133520126 0.012283872812986374 