-0.014866882003843784 -0.2276478260755539 -0.06992834061384201 -0.6411177515983582 -0.06603476405143738 -0.3018310070037842 0.3140239715576172 -0.5656172633171082 -0.18526604771614075 0.20272348821163177 0.2820857763290405 -0.24430787563323975 0.7690451741218567 0.38641494512557983 0.6331172585487366 -0.13925108313560486 0.6358581185340881 0.09889072924852371 0.34402385354042053 0.09847816079854965 -0.061985649168491364 0.03925400599837303 0.06827453523874283 -0.055787455290555954 0.19264498353004456 -0.28194743394851685 -0.3276093304157257 -0.14386406540870667 0.1720120906829834 0.06529228389263153 0.5942257642745972 0.19622379541397095 0.15072761476039886 -0.14624488353729248 -0.11313395947217941 -0.2782405912876129 0.024466438218951225 0.13234856724739075 0.32297149300575256 0.1907915472984314 -0.29177650809288025 -0.1993517130613327 -0.07326814532279968 0.006729590240865946 -0.2211529165506363 -0.4537098705768585 0.10006902366876602 -0.33206668496131897 -0.045478880405426025 -0.33642470836639404 0.5149410963058472 0.12439893931150436 -0.0696195736527443 -0.13671603798866272 -0.318543016910553 -0.5493850708007812 -0.43063098192214966 -0.2503059208393097 -0.16523298621177673 0.0434751957654953 0.037079595029354095 -0.08203763514757156 -0.4846876263618469 0.1660245954990387 -0.1942756026983261 -0.6894761919975281 0.1066940501332283 -0.4095500111579895 -0.16599877178668976 -0.4631083607673645 -0.16359803080558777 -0.5576793551445007 -0.47170206904411316 -0.33582308888435364 0.2219398468732834 0.07780598849058151 -0.11449173837900162 -0.14277870953083038 0.14046286046504974 -0.3600386083126068 -0.16843056678771973 -0.3306940197944641 0.016265498474240303 -0.08304542303085327 -0.2681349813938141 -0.08360645174980164 -0.11077727377414703 -0.11720826476812363 0.1270105093717575 -0.06739319115877151 0.22362911701202393 0.17749238014221191 0.02197381481528282 -0.04892195388674736 0.06771846860647202 -0.26183971762657166 1.1096084117889404 -0.20359206199645996 0.6804267764091492 -0.09907907247543335 -0.15937034785747528 -0.07173427939414978 0.026883751153945923 -0.17552727460861206 0.027451593428850174 -0.25167781114578247 0.022827472537755966 -0.18153458833694458 0.08284267038106918 0.042846038937568665 -0.24988597631454468 -0.46022772789001465 2.065544366836548 -0.2643873393535614 1.210700273513794 -0.47472310066223145 -0.13490940630435944 0.052322980016469955 -0.3433570861816406 -0.6020052433013916 -0.09381179511547089 -0.10595280677080154 0.5488534569740295 -0.03456427529454231 0.5924786329269409 -0.04260110482573509 -0.7560304999351501 -0.3606218993663788 -0.15336845815181732 0.276862233877182 -0.06640234589576721 -0.01288675144314766 0.06277888268232346 -0.09327220916748047 -0.1956886202096939 -0.13919790089130402 -0.11036673188209534 -0.13305792212486267 -0.11788231879472733 0.09329310804605484 0.005592966917902231 0.09597478061914444 -0.06937925517559052 -0.18525610864162445 -0.21733467280864716 0.15198974311351776 -0.1431320607662201 -0.3877837359905243 0.09773420542478561 0.03863358870148659 0.11761823296546936 0.032403867691755295 0.06269475817680359 -0.22196422517299652 0.08212341368198395 0.23556943237781525 0.054137811064720154 -0.22304539382457733 -0.36877140402793884 -0.5962818264961243 0.3127458691596985 0.11379911750555038 0.3875579237937927 -0.3224290609359741 0.28035324811935425 -0.5677789449691772 -0.013757823035120964 -0.10391171276569366 0.05234977602958679 -0.12416578084230423 -0.1766854077577591 -0.0637219175696373 -0.2341989427804947 -0.027234036475419998 -0.1440916359424591 -0.14541910588741302 0.03698011115193367 -0.12572309374809265 -0.28106436133384705 -0.056353479623794556 0.006054817233234644 -0.027894973754882812 -0.32544711232185364 -0.10149355977773666 0.01909530535340309 0.018101217225193977 -0.19602496922016144 -0.1896996647119522 -0.150563046336174 -0.3222179114818573 0.228465273976326 -0.03903405740857124 -0.28766027092933655 0.4399096369743347 0.45281869173049927 0.05171225592494011 -0.05963333696126938 -0.08417002856731415 0.10737527906894684 0.024068918079137802 -0.10438979417085648 -0.1714051365852356 0.03709709644317627 -0.09863979369401932 -0.15023456513881683 -0.08150725066661835 0.3660648465156555 -0.29176801443099976 -0.14709872007369995 0.058736708015203476 0.18615105748176575 0.3960850238800049 -0.36679285764694214 -0.05027856305241585 0.011579765938222408 -0.019233284518122673 0.07058659195899963 0.002914072945713997 -0.0901690125465393 -0.3800533711910248 -0.09779846668243408 -0.16789187490940094 0.152097687125206 0.0044238329865038395 -0.15825046598911285 0.8616226315498352 0.35039034485816956 1.3808339834213257 -0.06764747202396393 0.22585976123809814 -0.11237211525440216 0.03610379993915558 -0.15319539606571198 -0.2987154722213745 0.027590883895754814 -0.18317028880119324 0.18741080164909363 -0.3397170901298523 -0.4208528995513916 -0.1946721076965332 0.27089357376098633 -0.7998558878898621 -1.0071237087249756 0.25808945298194885 0.5756120681762695 0.056585557758808136 0.42072799801826477 0.038560014218091965 0.36237451434135437 -0.07474870979785919 -0.3988760709762573 -0.2309061884880066 0.0034006868954747915 0.16146719455718994 -0.32732850313186646 0.22928309440612793 -0.41606658697128296 0.2245846390724182 -1.1152700185775757 0.09587354958057404 0.4456987977027893 0.08128700405359268 -0.11880522966384888 0.16562387347221375 0.036266028881073 0.24337948858737946 -0.13420136272907257 0.28951022028923035 0.05364874005317688 -0.28444525599479675 -0.22788403928279877 -1.1114118099212646 -0.45878836512565613 0.2386857122182846 0.295217901468277 -0.01891477219760418 0.5164896249771118 -0.7803882956504822 0.3191641569137573 0.14454977214336395 0.49259600043296814 -0.12177955359220505 0.030837224796414375 0.18679270148277283 0.18378019332885742 0.22187523543834686 -0.4504338204860687 -0.1986938863992691 0.015568497590720654 -0.45737361907958984 0.18510614335536957 0.31153783202171326 0.04077254980802536 0.016259832307696342 0.18482135236263275 0.3268665671348572 -0.021266628056764603 0.17039336264133453 -0.1485467255115509 0.0027395798824727535 -0.7287836074829102 -0.061952054500579834 0.1574014127254486 0.2661861777305603 -0.13984331488609314 0.19584868848323822 0.23261840641498566 0.07060705870389938 0.4527897238731384 0.2789697051048279 0.4386269450187683 0.3078416585922241 -0.0010331709636375308 0.0005172478849999607 0.05202755704522133 -0.12688791751861572 -0.3960478603839874 -0.32894060015678406 0.09039409458637238 0.28125855326652527 -0.12352759391069412 0.16966280341148376 -0.8698476552963257 0.4217551350593567 -0.30634135007858276 0.2810390889644623 -0.34073126316070557 -0.45778948068618774 0.06966603547334671 -0.05852406471967697 0.4196995198726654 -0.35599106550216675 0.21429762244224548 0.3118031620979309 0.002225612523034215 -0.19722895324230194 0.05253484472632408 0.0644688829779625 0.47668758034706116 0.08852735906839371 -0.08388963341712952 -0.2957127094268799 -0.4933514893054962 -0.6063317060470581 -0.1275574415922165 -0.5618792176246643 -0.07016254961490631 0.05567203089594841 -0.13061608374118805 -0.03337043896317482 -0.12394139915704727 -0.19521960616111755 -0.07104792445898056 -0.16840115189552307 -0.020631877705454826 -0.6159959435462952 -0.17191660404205322 -0.1727919578552246 -0.4559495747089386 -0.14249442517757416 -0.0284517090767622 0.21015101671218872 -0.10486183315515518 0.03857051953673363 0.05145382508635521 0.3077971339225769 -0.07864190638065338 -0.28516948223114014 0.0484633669257164 -0.49819791316986084 -0.28006231784820557 0.054543498903512955 0.15832452476024628 -0.4457058310508728 -0.22477419674396515 -0.1149229183793068 0.13551147282123566 0.128524050116539 0.02729879319667816 -0.12858834862709045 -0.23100237548351288 0.09342820197343826 0.01900053396821022 -0.2949492931365967 -0.40475407242774963 -0.027586234733462334 0.09147597849369049 -0.344957560300827 -0.29114383459091187 0.28318968415260315 -0.2244381457567215 -0.226761132478714 0.1185038834810257 -0.4036407470703125 -0.23563449084758759 -0.16309650242328644 -0.22749179601669312 0.2938428819179535 0.047620922327041626 0.18529441952705383 0.3285006582736969 0.03350848704576492 -0.31390491127967834 -0.12835907936096191 -0.320517897605896 0.1316525936126709 0.4527515470981598 -0.08320613950490952 0.017251890152692795 -0.049457889050245285 -0.15558695793151855 0.11947441846132278 0.3442997634410858 -0.034452613443136215 -0.12375862896442413 0.11269229650497437 0.35382917523384094 -0.21026121079921722 -0.4957999885082245 -0.11800061911344528 0.2387230545282364 0.15105071663856506 0.17732417583465576 -0.13762250542640686 -0.15771131217479706 -0.08341144770383835 -0.35360997915267944 0.12309562414884567 -0.0012794906506314874 0.04009159281849861 0.1329827457666397 -0.3871333599090576 -0.17434273660182953 0.22420471906661987 0.36279651522636414 -0.004578703083097935 -0.43622955679893494 -0.0967676043510437 0.04799996688961983 -0.3193710446357727 -0.4066943824291229 -0.09872693568468094 -0.11519373953342438 -0.14561110734939575 -0.09903586655855179 0.1353023499250412 0.20530638098716736 -0.03137420490384102 -0.019814906641840935 -0.1591225564479828 -0.07437314093112946 -0.18552735447883606 0.29905930161476135 -0.0322980135679245 0.16259394586086273 0.3198029100894928 0.1513122171163559 -0.18410108983516693 -0.12847502529621124 -0.06648901104927063 -0.2672351598739624 0.04242639243602753 -0.04765186086297035 -0.036065924912691116 -0.1769820600748062 -0.1450067162513733 -0.20296156406402588 -0.046476636081933975 -0.51479172706604 0.053692299872636795 0.09259889274835587 -0.02131003327667713 -0.16047392785549164 0.1909196525812149 0.1370093673467636 0.14388982951641083 0.08574461936950684 -0.17325372993946075 -0.1818101853132248 0.11002949625253677 0.04168790206313133 0.225802481174469 -0.3864273428916931 -0.2618529796600342 0.2719731032848358 0.7166703343391418 0.1829836368560791 -0.30884361267089844 0.2718542814254761 -0.14329826831817627 0.14308996498584747 -0.37308117747306824 0.02987021394073963 0.0965973511338234 -0.2636830806732178 -1.3034535646438599 -0.3288151025772095 -0.10214796662330627 1.6158722639083862 0.8448204398155212 0.34268808364868164 0.1108698770403862 -1.3187192678451538 0.29904991388320923 0.9985973238945007 -0.08408533781766891 0.15878954529762268 -0.21864786744117737 0.21804559230804443 0.5557077527046204 -1.2334558963775635 -0.5596128702163696 2.5807011127471924 -1.6161258220672607 -2.1062066555023193 -0.06251668184995651 0.09434355050325394 0.09620721638202667 0.11881381273269653 -0.02147243730723858 0.24026291072368622 -0.11917448043823242 -0.36137655377388 -0.19687104225158691 0.3633732497692108 -0.16894187033176422 0.20765578746795654 -0.4636520445346832 -0.23919379711151123 -0.3531768023967743 0.133599653840065 -0.6006631851196289 -0.021943530067801476 0.25097334384918213 0.456094354391098 0.5460909008979797 0.5878359079360962 0.1080300360918045 0.12964922189712524 -0.043769471347332 0.09836902469396591 0.05791984871029854 0.05313481390476227 -0.011231868527829647 -0.11129094660282135 -0.43048107624053955 -0.4910225570201874 0.061071332544088364 -0.08087766915559769 -0.17173708975315094 0.1615620106458664 0.00853502843528986 0.04223870486021042 -0.09535657614469528 0.0837382897734642 0.11500301957130432 0.04281036555767059 -0.1969408243894577 -0.5211725831031799 -0.043500036001205444 0.20396913588047028 -0.3982108533382416 -0.17396403849124908 -0.40714961290359497 0.17288126051425934 -0.04792429506778717 0.10766223073005676 -0.07364178448915482 0.29527077078819275 0.1841001808643341 -0.28015002608299255 -0.12088284641504288 -0.23347216844558716 -0.20863474905490875 -0.18643547594547272 -0.35294589400291443 -0.055558666586875916 -0.015336637385189533 -0.5497523546218872 0.13581764698028564 -0.4713456630706787 0.5748670697212219 -0.11787228286266327 -0.005417602136731148 -0.010852877050638199 0.18182159960269928 -0.4819253385066986 0.0696401447057724 -0.2177358865737915 -0.08493192493915558 -0.03038620948791504 -0.3200758695602417 -0.12312474846839905 -0.08962078392505646 -0.2658442258834839 0.07246794551610947 -0.0174893569201231 -0.16206517815589905 0.07719406485557556 -0.5236141085624695 -0.2957814335823059 0.3769266903400421 0.09676610678434372 0.33918437361717224 0.1822475641965866 0.3012824058532715 0.2150934338569641 -0.12612766027450562 0.09282756596803665 -0.273737370967865 -0.007634204812347889 0.23697730898857117 -0.30559226870536804 -0.3840354382991791 0.08180858939886093 -0.18417708575725555 0.3679078221321106 0.22507132589817047 0.06290536373853683 0.1429913491010666 0.5358913540840149 0.20008690655231476 0.30358123779296875 0.22519667446613312 0.34937813878059387 -0.15729069709777832 0.14425227046012878 0.14997248351573944 -0.4569418728351593 -0.1804291158914566 0.10457713901996613 -0.1903221756219864 -0.015721149742603302 -0.43346741795539856 0.23672421276569366 -0.42171016335487366 -0.04349035769701004 -0.4675348401069641 0.014416723512113094 -0.2875156104564667 0.23720520734786987 -0.4443398416042328 -0.38685405254364014 -0.18057720363140106 -0.15687383711338043 -0.7093991637229919 -0.8067319989204407 -0.8646951913833618 -0.694908618927002 0.8359641432762146 -0.4446994364261627 -0.023293137550354004 0.2617381811141968 0.40336960554122925 0.217645063996315 0.016339894384145737 0.39503225684165955 0.6421428322792053 -0.01153109036386013 -0.3615971803665161 -0.055527254939079285 1.5437161922454834 0.3236234486103058 0.6614019870758057 -0.21374833583831787 0.38125866651535034 -0.060379430651664734 -0.06048350781202316 0.11038484424352646 -0.08274289220571518 0.004972395952790976 0.18532687425613403 0.1773347407579422 0.43542852997779846 -0.04801229014992714 -0.4212416112422943 -0.5326923727989197 -1.2139842510223389 0.3541833162307739 -0.11544939130544662 0.3622870147228241 -0.14742563664913177 -0.09482575953006744 -0.1135244369506836 -0.2500697076320648 -0.10024651139974594 -0.018347542732954025 -0.2175326645374298 -0.1367044746875763 0.02567935921251774 -0.1372687667608261 0.4926220178604126 -0.5007600784301758 0.8833074569702148 -0.17898420989513397 0.08913526684045792 0.016676941886544228 -0.25078657269477844 -0.2964470684528351 -0.5025133490562439 0.03904292732477188 -0.1703222095966339 -0.16488659381866455 0.05346296355128288 0.055194757878780365 -0.13161121308803558 0.0014137764228507876 -0.7086488604545593 0.24156415462493896 -0.348427951335907 -0.0397883802652359 0.20397484302520752 0.2793991267681122 -0.10775240510702133 -0.16248758137226105 -0.2546440362930298 -0.15565916895866394 -0.06791430711746216 -0.23837704956531525 0.13476942479610443 0.029102720320224762 -0.023878002539277077 -0.3139236271381378 1.301918387413025 -0.1982119381427765 0.5625408887863159 0.035295017063617706 0.0630219355225563 -0.31454595923423767 0.10643427819013596 0.13147571682929993 -0.009252425283193588 -3.0293753297883086e-05 0.26356902718544006 0.3126024305820465 -0.4656189978122711 -0.0939708799123764 -0.02902616187930107 0.10625256597995758 -1.4714164733886719 0.13062363862991333 -0.8443225622177124 -0.17981810867786407 0.2929634153842926 -0.10502365231513977 -0.24817326664924622 -0.11871878802776337 0.18367886543273926 -0.16816186904907227 0.18817302584648132 0.083735890686512 -0.072746641933918 0.0322941429913044 -0.10106239467859268 -0.2515870928764343 1.5107795000076294 -0.40187785029411316 0.14606834948062897 0.050249796360731125 0.1282588690519333 0.32698139548301697 -0.193237766623497 -0.1709054857492447 0.1916581690311432 -0.39452773332595825 -0.006330335512757301 -0.011550848372280598 -0.6553351879119873 -0.13319410383701324 0.7555734515190125 0.6226904988288879 -1.0379668474197388 -0.08208614587783813 -0.03086094558238983 -0.6430251002311707 0.4519566595554352 -0.31005239486694336 -0.5104279518127441 0.374218612909317 -0.5535049438476562 -0.16422724723815918 -0.2571660578250885 0.1854831874370575 -0.3039625883102417 0.32868829369544983 0.06078069284558296 0.1453695148229599 0.18416288495063782 -1.1262627840042114 1.4244701862335205 -0.34059938788414 -0.5414845943450928 -0.36336085200309753 -0.7629587054252625 -0.1948801875114441 0.18105703592300415 -0.2354554682970047 0.09319042414426804 -0.06678657978773117 -0.06344262510538101 0.16183020174503326 -0.011521706357598305 0.5880458354949951 -0.4120439887046814 0.39888837933540344 0.03976600617170334 0.4514538049697876 -0.39690935611724854 -0.37935876846313477 -0.3223285675048828 0.3218136429786682 -0.18664328753948212 0.6053526401519775 0.22368521988391876 0.6018437743186951 0.3794234097003937 0.5749993324279785 -0.009349299594759941 0.03817674145102501 0.12292040139436722 -0.059069715440273285 -0.04409461095929146 -0.1868571788072586 -0.07147832214832306 -0.15946148335933685 -0.20296835899353027 0.0453140065073967 -0.05090179294347763 -0.05864205211400986 -0.0020171403884887695 -0.26679739356040955 0.12043555825948715 -0.22217512130737305 0.03850168362259865 -0.16312772035598755 -0.005040414165705442 -0.23838259279727936 -0.31044620275497437 0.039136551320552826 -0.33995509147644043 -0.14641527831554413 -0.10238507390022278 0.006350814364850521 -0.22703328728675842 0.21060092747211456 -0.2501934766769409 0.17188981175422668 -0.18493443727493286 0.5837158560752869 0.2708882689476013 -0.2060449868440628 0.04696367308497429 0.2594139575958252 -0.3516903817653656 0.5005334615707397 -0.4181921184062958 -0.24860352277755737 -0.136844202876091 0.3080455958843231 -0.35914984345436096 -0.13895189762115479 -0.12713727355003357 -0.09165266901254654 -0.13520649075508118 0.2002534717321396 0.29006147384643555 0.3951196074485779 0.37066102027893066 -0.4376676380634308 -0.7015038132667542 -0.4281022250652313 -0.25001370906829834 0.6473281979560852 -0.17001383006572723 -0.04338314011693001 0.021424029022455215 0.07582460343837738 0.2954957187175751 -0.08407540619373322 -0.05063946545124054 0.39873141050338745 0.13910764455795288 0.2369232177734375 -0.48429742455482483 0.09762019664049149 -0.2702336311340332 -0.9136626720428467 0.5200132131576538 0.17395417392253876 -0.7201733589172363 0.135311558842659 -0.7457297444343567 -0.16807347536087036 -0.9005285501480103 -0.036045338958501816 -0.021213961765170097 -0.17677804827690125 -0.005755881313234568 -0.4057449698448181 0.04493933171033859 -0.9367700815200806 0.9609634876251221 -0.33347830176353455 -0.18442845344543457 0.1684531271457672 0.20507875084877014 -0.1598694920539856 -0.21278752386569977 -0.07263200730085373 -0.2165975570678711 -0.28537529706954956 0.36171454191207886 0.14826615154743195 0.07912818342447281 -0.4134851098060608 0.11699743568897247 -0.12345760315656662 -0.17882192134857178 -0.34021154046058655 -0.37640145421028137 -0.45273515582084656 -0.08055572211742401 0.046046216040849686 0.07816188037395477 -0.030676966533064842 -0.05934241786599159 -0.08815023303031921 -0.22917044162750244 -0.15792544186115265 -0.6604947447776794 -0.3906644880771637 -0.3293205499649048 -0.36001351475715637 -0.37528035044670105 -0.4551827311515808 -0.7041323781013489 -0.31748145818710327 0.11134189367294312 -0.22047486901283264 -0.06666164845228195 -0.4239720404148102 -0.12891025841236115 -0.05196845903992653 -0.47668832540512085 -0.2070475071668625 -0.3684123158454895 -0.04500744491815567 -0.33199191093444824 0.3326304256916046 -0.6938733458518982 0.6028935313224792 -0.08136902004480362 -0.05981411412358284 -0.2917543053627014 0.0010102067608386278 -0.3016364276409149 -0.022875992581248283 -0.04248365759849548 0.08880233019590378 -0.09845712035894394 0.20032286643981934 0.09140074998140335 -0.09038612246513367 -0.3187371492385864 0.0165424682199955 -0.5716768503189087 -0.17653392255306244 0.2550496757030487 0.0335819236934185 0.059392012655735016 -0.127777561545372 -0.34271636605262756 -0.3839034140110016 -0.1949021965265274 0.1054147407412529 -0.026396039873361588 -0.022443382069468498 0.08806987851858139 0.015377586707472801 -0.05022506043314934 0.25385987758636475 -0.26043081283569336 0.8635041117668152 0.05381273105740547 -0.1334429234266281 0.00658246036618948 -0.085386261343956 -0.1663012057542801 -0.002497549634426832 0.07849125564098358 0.06981178373098373 0.18995775282382965 0.10275983065366745 0.4243062734603882 0.0627555400133133 0.30751845240592957 -0.0478246845304966 0.18869151175022125 -0.4185868501663208 0.04738583415746689 0.20208348333835602 -0.1863667368888855 -0.2538849115371704 -0.09043251723051071 -0.05103965103626251 -0.1850862354040146 0.23037965595722198 0.04462774097919464 0.15118247270584106 0.017071422189474106 0.2379564642906189 -0.16810829937458038 0.2553129494190216 -0.15487952530384064 0.8143359422683716 0.3872130215167999 -0.3439246714115143 0.24042576551437378 0.2134421318769455 0.1963101178407669 -0.28258541226387024 -0.0716681256890297 0.22439657151699066 0.1469283401966095 -0.05750271677970886 0.09007474035024643 0.03709318861365318 -0.2117871791124344 0.08328535407781601 0.588090181350708 -0.21610777080059052 -0.02617775835096836 -0.5754410028457642 -0.6425321698188782 -0.8100116848945618 -0.8288459777832031 -1.2181777954101562 0.2823912501335144 -0.7817007303237915 0.034142278134822845 -0.5348911881446838 0.8659855723381042 0.06242677941918373 -0.12259402126073837 0.3491181433200836 0.645731508731842 1.0403661727905273 -0.5603474974632263 -0.1504402756690979 0.41838324069976807 -0.2070942521095276 -0.1944700926542282 -0.5283707976341248 -0.13143005967140198 0.1309191882610321 0.030135443434119225 -0.2122679203748703 -0.10160297155380249 0.2421916127204895 0.3583698570728302 -0.02332254685461521 0.5372637510299683 0.17376790940761566 0.12054377049207687 -0.10585935413837433 -0.60134357213974 -0.4370102286338806 0.008461261168122292 -0.4827237129211426 -0.14494866132736206 -0.4670468270778656 -0.11904112249612808 -0.13257868587970734 -0.014464817009866238 0.06968819350004196 0.1510189324617386 0.13614504039287567 0.0837319940328598 0.07792797684669495 -0.33734625577926636 -0.025306159630417824 -0.06554143875837326 -0.4103239178657532 -0.3681803345680237 -0.20386819541454315 -0.18893863260746002 -0.055530279874801636 0.07118558138608932 -0.006730964407324791 0.05499641224741936 0.08851917088031769 0.1025022566318512 -0.07616779208183289 -0.07986952364444733 -0.14157186448574066 -0.047536347061395645 -0.32093119621276855 -0.02165936678647995 -0.26501938700675964 0.02763262949883938 -0.2613169252872467 0.10449087619781494 -0.05910082906484604 0.053287066519260406 0.0323362797498703 0.0031460539903491735 0.13004252314567566 -0.2916836738586426 -0.011119621805846691 0.19407348334789276 -0.2365625500679016 0.1163521558046341 -0.16071566939353943 0.030309272930026054 -0.052857886999845505 0.06682019680738449 -0.4600306749343872 -0.16841237246990204 -0.29787519574165344 -0.35890328884124756 0.0460224486887455 0.026355799287557602 0.246826171875 0.11031729727983475 0.2508896291255951 -0.04338088631629944 -0.38205498456954956 -0.4191422164440155 -0.24023035168647766 0.07308316975831985 -0.3494788408279419 -0.1737309992313385 -0.10605088621377945 -0.24959751963615417 -0.2121158391237259 -0.19579677283763885 -0.029330074787139893 -0.16029955446720123 0.020651578903198242 0.11341492831707001 0.2878941297531128 0.3397131860256195 -0.17281076312065125 -0.11464477330446243 -0.10557661950588226 0.22690846025943756 -0.030802428722381592 0.4098709225654602 -0.16304655373096466 -0.049215469509363174 0.26826852560043335 -0.092904232442379 0.26386040449142456 0.15136085450649261 0.16177691519260406 0.32542815804481506 0.3812918961048126 -0.05806709825992584 0.0925539955496788 0.09466420859098434 0.08079944550991058 0.6083927154541016 -0.0059354910627007484 -0.07261168956756592 -0.01703857257962227 -0.1036507859826088 0.13354016840457916 0.140152707695961 -0.14745886623859406 0.08460689336061478 0.23795649409294128 0.005122119095176458 0.03598887845873833 0.17828454077243805 -0.13906419277191162 0.11646737903356552 -0.04434741660952568 0.19030313193798065 -0.4519498646259308 0.6667025089263916 0.015623590908944607 -0.24689176678657532 -0.38974931836128235 -0.07570421695709229 -0.01940452866256237 -0.01475474052131176 0.1346069574356079 -0.19677117466926575 -0.2795262932777405 -0.46019792556762695 0.054729681462049484 0.07722460478544235 0.0017798211192712188 -0.4269895553588867 0.17821480333805084 -0.5278971195220947 -0.47695064544677734 0.13133901357650757 -0.27460992336273193 -0.17073331773281097 0.20608149468898773 0.05456964671611786 0.25616684556007385 0.27188435196876526 -0.5459150075912476 0.23057439923286438 0.007885117083787918 -0.4443236291408539 -0.08668185025453568 -0.3203081488609314 -0.22114330530166626 -0.015547307208180428 0.046865519136190414 0.0853235274553299 -0.09956387430429459 0.16481314599514008 -0.08645276725292206 0.13750961422920227 -0.09236645698547363 -0.2853132486343384 -0.04591983184218407 0.19558848440647125 -0.10898807644844055 -0.18610143661499023 -0.09500638395547867 -0.10812808573246002 0.423212468624115 -0.007741655223071575 0.1121957078576088 -0.1904638707637787 -0.09882524609565735 0.27721747756004333 -0.15636512637138367 0.03105512075126171 -0.12422642856836319 0.009307055734097958 0.17545855045318604 0.08950618654489517 0.08039247244596481 -0.08782289922237396 -0.37161481380462646 0.12994228303432465 -0.16606539487838745 0.12240007519721985 -0.2037990540266037 -0.044837724417448044 -0.48560288548469543 0.25352412462234497 0.2851218283176422 -0.16914249956607819 -0.005024610087275505 -0.12261959910392761 -0.4695375859737396 -0.15858690440654755 -0.6022002100944519 -0.14660830795764923 0.09721390902996063 0.2958027720451355 0.2915908396244049 0.0022997595369815826 -0.25627830624580383 -0.13744276762008667 0.28041568398475647 -0.33408382534980774 -0.21993565559387207 0.14597059786319733 -0.1697389930486679 -0.13044823706150055 -0.3297001123428345 0.12584035098552704 0.08792269229888916 -0.21335497498512268 -0.08361893147230148 0.5118265748023987 -0.3289221227169037 0.5438709855079651 0.1949003040790558 0.18996839225292206 -0.4884200394153595 -0.1726379245519638 0.22693833708763123 -0.30547472834587097 -0.009020733647048473 -0.1829860806465149 -0.1578887403011322 0.34635692834854126 -0.0947597324848175 -0.1501179039478302 0.03028813563287258 -0.3615560531616211 0.4806461036205292 -0.16022564470767975 0.1527397185564041 0.1877775937318802 -0.1790892779827118 -0.25330227613449097 0.023904159665107727 0.028170939534902573 0.22829604148864746 0.27553340792655945 -0.2013566493988037 -0.049225784838199615 0.29440784454345703 0.08346500992774963 0.7121437191963196 -0.00492008775472641 0.3341943621635437 0.22692936658859253 -0.3753594756126404 -0.7709828019142151 -0.21224138140678406 -0.12275076657533646 -0.1166386753320694 0.15107417106628418 -0.06871385872364044 -0.12712305784225464 -0.23441849648952484 -0.018397627398371696 0.003449274692684412 -0.23758769035339355 0.2699626684188843 0.0012100654421374202 -0.23543883860111237 -0.18155352771282196 -0.33524182438850403 -0.021005779504776 -0.5589824914932251 0.07904300838708878 -0.18566182255744934 0.08852434158325195 -0.20699939131736755 -0.036441318690776825 -0.5700963139533997 0.01343771442770958 -0.24244439601898193 0.17120984196662903 -0.279776930809021 -0.17769818007946014 0.253324031829834 0.2438148558139801 -0.22798433899879456 -0.08134312182664871 -0.3082661032676697 0.02430441603064537 -0.5955354571342468 0.7701236605644226 -0.55705726146698 0.5787317156791687 -0.390606552362442 -0.19716520607471466 -0.14450930058956146 -0.12839218974113464 0.09663461893796921 0.18135756254196167 0.11385838687419891 0.19154782593250275 -0.25304993987083435 0.004320850595831871 -0.0948789045214653 0.01764357089996338 -0.5137453079223633 0.6296966075897217 -0.633393406867981 0.6535158753395081 -0.39921167492866516 -0.0822225958108902 -0.3396525979042053 0.08320149034261703 0.07699119299650192 0.1487894505262375 -0.35295844078063965 -0.07312559336423874 -0.24757179617881775 0.15219734609127045 -0.4197148084640503 0.20061235129833221 -0.21537481248378754 -0.16429007053375244 -0.16883674263954163 0.03886664658784866 -0.2836029529571533 0.01549847237765789 -0.22825458645820618 0.04822849854826927 -0.4372001886367798 -0.21681499481201172 0.2962093651294708 0.0694013312458992 -0.22695012390613556 -0.764458417892456 -0.15893703699111938 0.11156545579433441 0.01968560554087162 0.12311499565839767 -0.07626243680715561 0.07365892082452774 -0.18111403286457062 0.029260115697979927 -0.19112534821033478 -0.5181494951248169 0.11530549079179764 -0.029674150049686432 0.4173218011856079 -0.20118966698646545 0.3009068965911865 0.024300137534737587 0.12661002576351166 -0.2148112952709198 0.03298579156398773 0.22171862423419952 -0.05837194249033928 -0.1377943456172943 -0.1449754536151886 -0.2029941976070404 0.028230033814907074 0.2616279423236847 0.042877357453107834 -0.5142327547073364 0.5912811756134033 -0.12884706258773804 -0.4919683039188385 0.28586244583129883 -0.32439205050468445 0.13893137872219086 -0.10918687283992767 -0.02149907499551773 -0.1401992291212082 -0.32928207516670227 -0.16430805623531342 0.28445059061050415 -0.12131793797016144 0.0028897321317344904 0.01399215217679739 0.049332451075315475 -0.5832146406173706 0.3541145324707031 0.12345489859580994 0.06664906442165375 -0.19726021587848663 0.30798155069351196 0.0344492606818676 -0.06336414813995361 -0.17431442439556122 0.6549527645111084 0.335875540971756 -0.08007372170686722 -0.5736759305000305 0.27974602580070496 -0.2489098608493805 0.36355721950531006 0.559219241142273 -0.4340740442276001 -0.2825102210044861 0.23654434084892273 -0.16825370490550995 -0.21870477497577667 -0.03902921453118324 0.1513485312461853 0.18236862123012543 -0.04691653698682785 -0.0853135883808136 -0.0017748703248798847 0.05013279244303703 0.2269134521484375 -0.2544861137866974 -0.07235606014728546 0.03232216835021973 0.39212071895599365 -0.36998313665390015 0.22664785385131836 -0.14061091840267181 0.0378214567899704 -0.007818725891411304 -0.11124950647354126 -0.20387010276317596 -0.23648926615715027 -0.20222002267837524 -0.34808823466300964 -0.03270551189780235 0.5768600702285767 0.06932304799556732 -0.21947690844535828 0.003619515337049961 0.0735599547624588 -0.07849759608507156 0.32466787099838257 0.1746300309896469 -0.02483254298567772 0.05466465279459953 0.005450379103422165 -0.2917289435863495 -0.1342301219701767 -0.24761702120304108 0.21344390511512756 0.1984999030828476 0.31774619221687317 0.048400282859802246 -0.244546577334404 -0.04790324717760086 -0.14296609163284302 -0.3926909565925598 0.3958512842655182 0.16114020347595215 0.023647408932447433 0.12482599914073944 -0.31573984026908875 -0.3714769780635834 0.03418588265776634 0.17807967960834503 -0.5454593300819397 0.15961460769176483 0.4975659251213074 0.07213832437992096 0.3559418320655823 -0.38092246651649475 0.5541585683822632 -0.501494824886322 -0.052180685102939606 -0.5134688019752502 0.15022355318069458 -0.32006528973579407 0.2207103967666626 0.1447547823190689 0.45757731795310974 -0.13296718895435333 0.2900978922843933 -0.11144659668207169 -0.2294706255197525 0.19721505045890808 -0.1457732915878296 -0.10081864148378372 -0.9499414563179016 0.03561113402247429 -0.05312511697411537 -0.16211934387683868 -0.01794912852346897 -0.13763898611068726 -0.23072457313537598 0.37973329424858093 -0.10180015116930008 0.1861758530139923 -0.09546017646789551 -0.7283315062522888 -0.5949000120162964 -0.286291241645813 -0.1361306607723236 0.5960433483123779 -0.32411494851112366 0.38635799288749695 -0.7979984879493713 0.21315662562847137 0.6572031378746033 0.298814594745636 -0.186501145362854 -0.17592579126358032 0.7959911227226257 -0.46015241742134094 0.13796880841255188 -1.3072474002838135 -0.18352749943733215 -0.5361336469650269 -0.004978700075298548 -0.6419246196746826 -0.8793582916259766 0.42169269919395447 0.10908018052577972 -0.19823811948299408 0.5328635573387146 0.08148974925279617 0.11801430583000183 0.22042147815227509 0.177847221493721 -0.06650158762931824 0.19082845747470856 -0.443068265914917 0.02452569454908371 -0.8402296900749207 -0.5565645098686218 -0.8560924530029297 -0.3425811529159546 0.40579143166542053 -0.2635350227355957 0.03037194348871708 0.3364975154399872 -0.07611839473247528 -0.17514976859092712 0.2005719095468521 0.1016734167933464 0.06177809089422226 -0.0027219783514738083 -0.7710486054420471 -0.11902754008769989 -0.2411232888698578 0.18410080671310425 -0.33730459213256836 -0.22205740213394165 0.14344549179077148 -0.025839796289801598 -0.08097248524427414 0.27891895174980164 0.027165094390511513 0.31194937229156494 -0.1045892983675003 0.021085141226649284 -0.06446472555398941 0.017381148412823677 -0.2222595065832138 -0.11355859786272049 0.10608932375907898 -0.01663755066692829 0.22439175844192505 -0.005108196754008532 -0.09665459394454956 0.0890856608748436 -0.044332120567560196 0.09747213870286942 0.1870097666978836 -0.17680583894252777 -0.04882995784282684 0.09011544287204742 -0.20737650990486145 0.21613843739032745 -0.15431174635887146 -0.053588658571243286 0.22606460750102997 0.024220086634159088 -0.09505391865968704 0.21609339118003845 0.013070971705019474 -0.3828575313091278 -0.028490358963608742 -0.21875062584877014 0.13906045258045197 0.013041592203080654 -0.16369840502738953 -0.17727473378181458 -0.16898232698440552 -0.006660884711891413 -0.2964162230491638 -0.5659430623054504 -0.18683108687400818 -0.024290865287184715 0.001419986947439611 -0.35839903354644775 -0.23766204714775085 -0.29024744033813477 0.08812619745731354 0.1748301386833191 0.5129241943359375 0.09664490073919296 -0.1859835833311081 0.00637532863765955 -0.015109573490917683 0.28926581144332886 0.06700434535741806 -0.23926930129528046 -0.4057428538799286 -0.14503219723701477 0.07315532118082047 -0.0012717971112579107 0.5376417636871338 -0.13651396334171295 0.43772265315055847 0.3725161552429199 0.2580532729625702 -0.048949889838695526 0.019678806886076927 -0.1361866146326065 0.26246464252471924 0.1318415254354477 -1.087997317314148 -0.516272246837616 -0.4725438356399536 -0.06882434338331223 -0.055876582860946655 -0.6377146244049072 0.17247146368026733 0.11254552006721497 0.34220537543296814 -0.39006274938583374 0.07532509416341782 -0.28260624408721924 -0.01360148936510086 -0.3610365390777588 -0.3453391492366791 0.4541882872581482 0.1942995935678482 0.107139453291893 0.9340959787368774 -0.3972613215446472 1.4317103624343872 0.3112126588821411 1.2091118097305298 0.04111470654606819 0.4952516257762909 0.017441915348172188 0.10466314852237701 -0.08112412691116333 -0.21592450141906738 0.3414139151573181 0.05153900384902954 -0.5195907950401306 0.07718852162361145 0.032010018825531006 -0.25588351488113403 0.3044903576374054 0.5844747424125671 0.17151720821857452 0.1373339593410492 -0.0293510053306818 0.2519535422325134 -0.27710676193237305 0.01112322136759758 0.04774320498108864 0.11893300712108612 0.11662276089191437 0.07474078983068466 0.016173729673027992 -0.3269798159599304 0.13473910093307495 -0.3302364945411682 -0.19713398814201355 -0.11537367850542068 -0.19613443315029144 -0.39859071373939514 -0.2044731080532074 -0.26015064120292664 -0.24212859570980072 -0.09067270904779434 -0.22166290879249573 -0.23459258675575256 -0.13828563690185547 0.06226598843932152 -0.03950735926628113 -0.23879098892211914 0.18515251576900482 -0.20497114956378937 -0.11673537641763687 -0.6833527088165283 -0.42757585644721985 0.10949421674013138 0.03569287061691284 -0.20286360383033752 -0.1277521252632141 -0.06816330552101135 -0.08210200816392899 -0.1910448521375656 0.016298050060868263 -0.11872683465480804 0.03291040658950806 -0.12680384516716003 0.2629868686199188 0.042761627584695816 0.37699252367019653 -0.24313418567180634 -0.11108897626399994 -0.3950466513633728 -0.22422264516353607 -0.04946558177471161 0.1898009479045868 0.31991511583328247 -0.1339811235666275 0.29514995217323303 -0.1895303726196289 -0.31621110439300537 -0.24003611505031586 -0.21451474726200104 -0.4149855971336365 -0.17219598591327667 -0.4998578131198883 -0.6576384902000427 0.510297954082489 -0.20072275400161743 0.43075403571128845 0.3195863962173462 0.28720030188560486 -0.6726309657096863 0.18476438522338867 0.2747754752635956 0.07912623137235641 -0.01239954773336649 0.03550805523991585 -0.2066158503293991 -0.021926436573266983 -0.2395814061164856 -0.11521342396736145 -0.37985971570014954 -0.2579295039176941 -0.04107324779033661 -0.8059588670730591 -0.5548269152641296 -0.04059334844350815 -0.29115596413612366 0.039105575531721115 -0.07318896800279617 -0.25336623191833496 0.28763753175735474 0.15298481285572052 0.03604041412472725 -0.16032150387763977 -0.07309814542531967 -0.3490120470523834 -0.11268860846757889 -0.2765970528125763 0.09868334978818893 -0.1730291247367859 0.30920708179473877 0.027286471799016 0.14721190929412842 0.11595857888460159 -0.0636797547340393 -0.10569308698177338 0.12095945328474045 -0.21691182255744934 0.0001273886882700026 0.23531851172447205 -0.10119939595460892 0.06454610824584961 -0.16273361444473267 -0.007123108487576246 -0.20281335711479187 -0.24899117648601532 -0.03207426518201828 -0.09546494483947754 0.34436139464378357 0.35354235768318176 0.022154808044433594 -0.02428433857858181 0.15368935465812683 0.15577957034111023 -0.24542094767093658 -0.07982982695102692 0.38927507400512695 0.21862973272800446 -0.0811559185385704 -0.39009594917297363 -0.06491706520318985 0.03718181699514389 -0.35772091150283813 0.2296782284975052 -0.029808346182107925 0.5414361357688904 -0.02042929269373417 -0.0893959254026413 -0.016228461638092995 -0.13870467245578766 0.25282391905784607 -0.34980127215385437 0.09918160736560822 0.12917473912239075 -0.07549840956926346 -0.1376383900642395 0.05172814056277275 -0.04845995455980301 -0.3492686450481415 -0.4929980933666229 -0.019863981753587723 0.03240657597780228 0.40337035059928894 -0.11439304053783417 -0.13635146617889404 -0.21505232155323029 -0.08724747598171234 -0.14365218579769135 0.09263433516025543 -0.14045187830924988 -0.024119969457387924 -0.08425545692443848 0.11560363322496414 0.3431190550327301 -0.0016805600607767701 0.39653480052948 0.10771993547677994 0.2890540659427643 -0.0689760372042656 0.00046059067244641483 -0.207591250538826 0.08786476403474808 -0.11381108313798904 -0.06055304780602455 -0.2077724039554596 -0.22328326106071472 0.1514700949192047 0.2117709070444107 0.3760085105895996 -0.4771316647529602 -0.3631865382194519 0.027234584093093872 -0.0026783798821270466 0.02042931504547596 -0.5776510238647461 -0.3457803726196289 -0.4026189148426056 -0.052337344735860825 0.1359538584947586 0.13253097236156464 -0.2941782772541046 0.005346219055354595 -0.04485810920596123 -0.2481425255537033 0.25237157940864563 -0.17854127287864685 -0.36979401111602783 -0.0021628092508763075 -0.27789628505706787 -0.3382554054260254 -0.3483947217464447 -0.5659798383712769 -0.22119036316871643 0.20383624732494354 -0.6568943858146667 0.25150659680366516 -0.3255279064178467 0.4149091839790344 -0.6411808729171753 0.7127973437309265 0.8563874363899231 -0.24051333963871002 -0.11252649128437042 -0.6527543067932129 -0.1834501475095749 0.03240515664219856 0.003278169548138976 0.018436146900057793 -0.20734862983226776 0.08874122053384781 -0.04292435571551323 -0.07490632683038712 -0.3560082018375397 0.3267362713813782 -0.3619041442871094 -0.28614047169685364 -0.0861404687166214 -0.30330970883369446 0.11005005240440369 1.2450042963027954 0.5622969269752502 -0.22294576466083527 -1.0037215948104858 -0.6267301440238953 0.8838382363319397 -0.30546149611473083 -0.7525292038917542 -0.4609243869781494 0.32437995076179504 -0.16285042464733124 -0.2439519613981247 -0.2776603698730469 0.6731340885162354 0.2859556972980499 -0.691278338432312 0.027465704828500748 -0.25374114513397217 0.7852188944816589 0.11755277216434479 0.16700409352779388 0.12040548026561737 0.014400587417185307 0.052977219223976135 -0.0017623226158320904 0.09992710500955582 0.09644326567649841 0.14274102449417114 -0.600380539894104 0.7615435719490051 -0.8296178579330444 -0.09237290918827057 -0.7841060757637024 0.08319684118032455 -0.028692856431007385 -0.11731341481208801 -0.6229988932609558 -0.16174711287021637 -0.14976581931114197 0.027269409969449043 -0.144926980137825 -0.2286248505115509 -0.22968284785747528 0.1438646763563156 -0.1279795616865158 -0.6510970592498779 -1.0042145252227783 -0.028470434248447418 -0.419967383146286 -0.4113802909851074 -0.3370891511440277 0.25701913237571716 -0.03225873038172722 0.1189848929643631 -0.11558938771486282 0.20813584327697754 0.17896483838558197 0.00787319429218769 0.09796947240829468 0.3258034586906433 -0.1403973400592804 -0.06486066430807114 -0.3253560960292816 -0.6290164589881897 0.10290181636810303 0.4114404618740082 -0.04364469274878502 -0.04165499284863472 -0.1107356920838356 0.0844128206372261 0.10088959336280823 0.02829573303461075 0.2213922142982483 -0.0906585082411766 0.12842589616775513 0.2121441662311554 0.012057228945195675 -0.08023017644882202 -0.1376623958349228 -0.31901851296424866 -0.03624406084418297 -0.2578858733177185 -0.07916125655174255 0.2532121241092682 0.2780188322067261 0.19672264158725739 -0.11186154931783676 0.07143843919038773 0.023780791088938713 0.05543295666575432 -0.0026818569749593735 0.0841122716665268 0.10305530577898026 0.206813246011734 -0.04197842627763748 0.3411330282688141 -0.5185546278953552 0.3612564504146576 -0.7459266781806946 0.041319604963064194 -0.09259454905986786 0.11718964576721191 -0.12123391777276993 0.03977852687239647 -0.012087386101484299 0.2423061728477478 -0.016203928738832474 -0.05682529881596565 -1.176350712776184 0.42590826749801636 -0.5544447898864746 -0.04892721399664879 0.9072359800338745 -0.6447464823722839 -0.029639044776558876 0.09756499528884888 -0.2081204354763031 -0.22909243404865265 -0.2245733141899109 -0.2635191082954407 -0.060655444860458374 -0.3102729320526123 0.17618711292743683 -0.16275925934314728 -0.5211626887321472 0.4609278738498688 0.10982014238834381 -1.671497106552124 0.1685599982738495 0.6097561120986938 -0.5138704776763916 -0.19210690259933472 0.6303654909133911 -0.1544092744588852 -0.09346640110015869 -0.19168417155742645 0.530214250087738 0.14760172367095947 -0.2700646221637726 0.17408020794391632 0.07831213623285294 0.09992291033267975 -0.01871376484632492 -0.20888283848762512 0.02972954697906971 0.444378525018692 0.3356196880340576 0.05813203006982803 0.04644615203142166 -0.07284863293170929 -0.21606142818927765 0.18347521126270294 -0.17522281408309937 -0.27931633591651917 -0.1383579820394516 -0.13597042858600616 0.061341963708400726 -0.3494507670402527 -0.08640312403440475 -0.7138121128082275 0.24629832804203033 0.26606133580207825 -0.16751450300216675 0.1121581569314003 -0.28697189688682556 -0.32026752829551697 -0.5955651998519897 -0.24374574422836304 -0.16929930448532104 -0.28858134150505066 -0.17095857858657837 -0.11053325235843658 -0.23502592742443085 -0.6380200386047363 -0.3676769733428955 -0.3519023358821869 0.5765635371208191 -0.3198164105415344 -0.23619620501995087 -0.17850899696350098 0.22614581882953644 -0.1391441971063614 -0.14313651621341705 0.3092990219593048 -0.3033394515514374 -0.011897317133843899 0.034261222928762436 -0.10993604362010956 0.3088828921318054 -0.19956189393997192 0.29278603196144104 -0.11014163494110107 -0.11729273200035095 -0.20363612473011017 0.35222622752189636 -0.5371655225753784 -0.3234792947769165 -0.23738527297973633 -0.15553921461105347 -0.14501038193702698 0.18103130161762238 0.3592146933078766 -0.31588253378868103 -0.062474846839904785 0.0634593591094017 0.07762022316455841 -0.013446172699332237 0.4020855128765106 0.1499214619398117 -0.3338318467140198 -0.14646537601947784 -0.8614497184753418 -0.21817852556705475 -0.38684624433517456 -0.1105409786105156 -0.3209664821624756 0.21409842371940613 0.1835857480764389 0.13969086110591888 0.3990379869937897 -0.2850865125656128 0.3664532005786896 0.32901644706726074 0.15767480432987213 0.2163604497909546 -0.18873777985572815 0.4710855484008789 -0.7023036479949951 -0.5407111048698425 -0.23589365184307098 -0.27166393399238586 -0.012076354585587978 0.17131417989730835 0.15138380229473114 0.16342346370220184 0.22437140345573425 0.35331985354423523 0.16141600906848907 0.3950686752796173 0.10489355027675629 -0.21883302927017212 0.0062173050828278065 -0.34949132800102234 -0.4297979176044464 0.14072701334953308 0.13728269934654236 0.5924860835075378 0.07297102361917496 -0.4885300099849701 0.2510448098182678 0.6808990836143494 0.017041396349668503 0.09105747193098068 -0.01917266845703125 -0.3289410471916199 0.24823082983493805 0.3045491576194763 -0.019236018881201744 0.7920641303062439 1.050980567932129 -0.01533478032797575 0.5234983563423157 0.37516340613365173 0.2625825107097626 -0.03853807598352432 0.512231171131134 0.13821443915367126 0.3723616302013397 0.5441999435424805 -0.15187840163707733 -0.33367857336997986 0.4866615831851959 0.8267444372177124 0.8372963666915894 -0.3445190489292145 0.3879142999649048 0.20837293565273285 0.2387881875038147 0.13609039783477783 -0.3219960331916809 0.17405015230178833 0.25896573066711426 0.20368142426013947 0.14798471331596375 0.04550313204526901 -0.2826550602912903 0.017361780628561974 0.24889439344406128 -0.2886955440044403 0.5903172492980957 0.4559706151485443 -0.015564784407615662 0.2950347363948822 -0.22239425778388977 0.12670594453811646 -0.09925004094839096 -0.28524887561798096 -0.21173836290836334 -0.14086933434009552 -0.28456011414527893 0.0027519704308360815 -0.1504765748977661 0.07399440556764603 -0.37417417764663696 0.34617212414741516 -0.0004972810274921358 0.012545151636004448 0.4708496630191803 0.22102874517440796 0.18057675659656525 -0.06419005244970322 -0.32644933462142944 -0.8723039627075195 -0.8155503869056702 -0.9000058770179749 -0.9368535280227661 -0.14996324479579926 -0.05046801641583443 0.15365149080753326 0.24002431333065033 0.028961747884750366 0.23264308273792267 0.20184147357940674 0.5579110383987427 0.13262926042079926 0.24110178649425507 -0.07102909684181213 -0.32860928773880005 -0.9051058292388916 -0.8697807788848877 -1.001305341720581 -0.8374133706092834 -0.11753997951745987 -0.11060173064470291 0.09171607345342636 0.19451799988746643 0.15605191886425018 0.5868985652923584 0.22355298697948456 -0.2693500816822052 0.08186181634664536 -0.0908520519733429 0.059937916696071625 -0.21926866471767426 -0.11353276669979095 -0.033427320420742035 -0.10808610171079636 -0.14941424131393433 0.28646302223205566 -0.05331867188215256 0.42038464546203613 -0.13794052600860596 0.3479844033718109 -0.017471162602305412 -0.17763809859752655 0.46714815497398376 -0.19820669293403625 0.3769431710243225 0.09535881876945496 -0.08608917146921158 0.11757272481918335 0.27497851848602295 0.06608901917934418 0.22361025214195251 0.2962348163127899 0.030483683571219444 -0.22892291843891144 0.11732791364192963 -0.33393487334251404 0.2515983581542969 0.6733574867248535 0.5462961196899414 -0.3471759855747223 0.3269725441932678 0.23639115691184998 -0.09727554768323898 0.0277329720556736 0.2782323956489563 0.027876904234290123 0.23533502221107483 0.18645641207695007 0.06401357054710388 -0.014292060397565365 0.40352165699005127 1.0223063230514526 0.6385439038276672 -0.2222043126821518 0.19411614537239075 -0.48649361729621887 -0.10205161571502686 0.11193317919969559 0.03110973909497261 0.07775351405143738 -0.3463902473449707 0.18498674035072327 -0.3615216910839081 -0.28296947479248047 0.3763071596622467 -0.07230555266141891 -0.25284841656684875 0.05189799144864082 0.29680579900741577 -0.14384888112545013 0.17442509531974792 0.6798949837684631 -0.19465291500091553 -0.13228780031204224 0.5055696964263916 -0.1881331205368042 0.22994892299175262 -0.12525822222232819 0.22932718694210052 -0.25153687596321106 -0.1261112242937088 -0.17984510958194733 0.5328084826469421 0.1279178112745285 0.426516592502594 0.24033209681510925 -0.1705704629421234 0.3005259335041046 0.12413323670625687 0.04524850472807884 -0.31662335991859436 0.01916661113500595 -0.08386188000440598 -0.0005831198650412261 -0.18901120126247406 -0.12471774220466614 -0.030608320608735085 -0.16738343238830566 -0.2495255321264267 -0.3883388042449951 -0.15633898973464966 0.09539645165205002 -0.31810691952705383 0.21302111446857452 0.14018338918685913 0.1413949579000473 -0.10948117077350616 -0.2889484167098999 0.05258793383836746 -0.45053744316101074 -0.2583402991294861 -0.11256935447454453 -0.18445460498332977 -0.10111618041992188 0.17824888229370117 -0.40456143021583557 0.028789322823286057 -0.16865777969360352 -0.028215909376740456 0.4475570321083069 0.09920206665992737 0.2026005983352661 -0.19719846546649933 -0.429899662733078 -0.03984800726175308 -0.4424707293510437 -0.06848576664924622 -0.3925469219684601 0.09675949811935425 0.185174822807312 0.3758992552757263 -0.3110852837562561 -0.5415614247322083 -0.1274653673171997 -0.23945997655391693 0.16277150809764862 0.16429583728313446 -0.20125414431095123 -0.22629345953464508 0.03278114274144173 0.12405388057231903 -0.24036788940429688 0.22227266430854797 -0.39710932970046997 -0.08866874128580093 0.055765487253665924 0.20590879023075104 -0.5741998553276062 -0.31808802485466003 -0.24163399636745453 -0.4547681510448456 0.4380991756916046 -0.8099615573883057 -0.19502849876880646 0.10080529749393463 -0.15881100296974182 0.10125621408224106 0.3852294385433197 -0.08551054447889328 0.1438881903886795 -0.24317926168441772 0.012891721911728382 -0.2542931139469147 -0.07393353432416916 0.07960418611764908 -0.03215741738677025 -0.12847788631916046 0.14404936134815216 -0.3606207072734833 0.20760731399059296 -0.33356714248657227 0.19605961441993713 -0.26277512311935425 0.48579198122024536 -0.08541165292263031 0.4364592730998993 -0.1280829906463623 0.30604055523872375 -0.04049079120159149 0.5685164332389832 -0.1510532945394516 -0.14788751304149628 -0.2079414278268814 0.4401342272758484 0.15203459560871124 -0.2134011685848236 -0.08371786028146744 -0.1243719756603241 0.46658632159233093 -0.06072390452027321 0.08633709698915482 -0.2690475285053253 -0.3270750641822815 0.6177465319633484 0.3694100081920624 0.085047148168087 0.04531874880194664 1.2134792804718018 -0.15014758706092834 -0.8659104108810425 -0.41975781321525574 0.15023909509181976 -0.41399893164634705 -0.3421255946159363 -0.20270901918411255 -0.015102850273251534 -0.19204366207122803 -0.05361897870898247 -0.06429518759250641 -0.15695254504680634 0.11216765642166138 0.2882298231124878 -0.28186947107315063 0.03537258878350258 0.2376692295074463 -0.7011290192604065 -0.026851573958992958 0.07002263516187668 -0.14860911667346954 -0.06869623064994812 -0.05619760975241661 0.21870054304599762 0.2626727521419525 0.35342320799827576 -0.09963083267211914 0.2546366751194 0.22329314053058624 -0.3240337371826172 0.177041694521904 -0.08687882125377655 0.19955386221408844 0.19634512066841125 -0.6007819771766663 0.14162065088748932 -0.33339110016822815 -0.3554290533065796 -0.6344828605651855 0.14279699325561523 -0.014787818305194378 0.17177025973796844 -0.20863701403141022 0.30311810970306396 -0.15053173899650574 0.0701925978064537 -0.1623440682888031 -0.24512885510921478 -0.5390371084213257 0.09927231073379517 0.6413173079490662 0.10688315331935883 -0.3083605170249939 -0.26357659697532654 -0.05006030201911926 -0.0685134157538414 0.09574523568153381 -0.05592435970902443 0.23487161099910736 -0.021085871383547783 0.1111190915107727 0.07981020957231522 -0.5203602313995361 0.27872493863105774 0.22785687446594238 0.4452304542064667 -0.4890212118625641 0.04849572852253914 0.0024585905484855175 0.5215020179748535 0.046049535274505615 -0.4191665053367615 -0.42318594455718994 -0.4256710112094879 -0.6159833073616028 -0.1768912374973297 -0.2877753973007202 -0.017332350835204124 0.10028763860464096 -0.10696281492710114 0.28530776500701904 -0.2177755981683731 0.58559250831604 -0.6441220045089722 -0.4496118426322937 0.39003631472587585 -0.20947793126106262 0.15365885198116302 -0.2135993242263794 0.03536086156964302 -0.13906049728393555 0.3023104965686798 -0.3712291419506073 -0.22372053563594818 -0.42231062054634094 -0.03686624765396118 -0.3219277262687683 0.5872542858123779 -0.5343068838119507 -0.20767979323863983 0.3350222110748291 0.3076923191547394 -0.3367747664451599 -0.2761484384536743 0.46153417229652405 -0.43947288393974304 -0.4564517140388489 -0.025502672418951988 -0.41943544149398804 -0.09319572895765305 -0.4637192487716675 0.07685267925262451 -0.17913196980953217 -0.4164785146713257 0.40927910804748535 0.6158178448677063 0.4235343933105469 -0.1649024933576584 0.004894644487649202 -0.6071001291275024 -0.4901922643184662 0.8688766360282898 -0.8987131714820862 -1.3310823440551758 0.28272441029548645 0.8371099233627319 -0.06796436011791229 -0.8891584873199463 0.7920811772346497 -0.10359323024749756 0.6178070306777954 -0.21788716316223145 0.17368488013744354 -0.09592636674642563 -0.05196267366409302 0.2530571222305298 0.07141336798667908 0.0690760463476181 -0.235215961933136 0.3827185034751892 0.11413851380348206 0.2109362781047821 0.15216971933841705 0.3389159142971039 0.29664039611816406 0.47993549704551697 0.414142370223999 0.03186396509408951 0.06382156908512115 0.24510754644870758 -0.2766055166721344 -0.4725410044193268 -0.11510226875543594 -0.20899194478988647 0.10103169083595276 0.17449136078357697 -0.08353438228368759 -0.07025760412216187 0.33161255717277527 -0.22353337705135345 -0.5703754425048828 -0.09490913152694702 -0.13037237524986267 0.6408504843711853 -0.4220588207244873 -0.025323016569018364 -0.1503305733203888 -0.30992570519447327 -0.22408783435821533 0.014736339449882507 -0.11104733496904373 -0.07112185657024384 0.07079768180847168 0.08755021542310715 0.1441095918416977 0.23446473479270935 0.1495354026556015 -0.2851681411266327 -0.6882263422012329 -0.9902466535568237 -0.5629563331604004 -0.2409416288137436 -0.08058956265449524 0.1853032112121582 -0.21573194861412048 -0.08603054285049438 -0.08828075975179672 -0.1178416907787323 0.1948484480381012 0.015190577134490013 -0.35609734058380127 0.06266961246728897 0.11179917305707932 0.18949785828590393 -0.41223055124282837 0.4891769289970398 -0.34396472573280334 -0.25867959856987 -0.39096134901046753 -0.24731606245040894 -0.26533201336860657 -0.30371254682540894 0.07406424731016159 -0.0329008623957634 0.4155139923095703 0.6909866333007812 0.006413829978555441 -0.023260077461600304 -0.42667800188064575 -0.5139846205711365 -0.30758896470069885 -0.7852489352226257 -0.06515829265117645 0.4134615659713745 0.5458231568336487 -0.07047329097986221 0.3901865780353546 0.3652093708515167 0.2930929362773895 0.3052021861076355 0.02419622801244259 -0.004712968599051237 -0.7538281679153442 -0.2345212996006012 -0.691321849822998 0.7949828505516052 0.6939245462417603 -0.07760923355817795 -0.14561566710472107 -0.08264327794313431 -0.45816469192504883 -0.06215763837099075 0.09191229194402695 -0.36622604727745056 0.0860457792878151 -0.0376942902803421 -0.21398614346981049 0.029280655086040497 -0.6713991165161133 -0.1780649572610855 -0.4622986614704132 -0.3021741211414337 0.17164964973926544 1.5241485834121704 1.724164366722107 2.836897850036621 2.3698644638061523 2.060596466064453 1.224957823753357 1.3589543104171753 0.9118295907974243 0.249755859375 0.6305840015411377 -0.13303208351135254 0.29662835597991943 -0.28989169001579285 0.30570903420448303 -0.3146628141403198 -0.28257012367248535 1.123302698135376 0.9644162058830261 2.0167458057403564 1.2456263303756714 1.182507872581482 -0.5958688259124756 0.613923966884613 0.15282253921031952 0.4604348838329315 0.6798380017280579 0.07138232886791229 0.2562961280345917 -0.12353905290365219 -0.023702677339315414 0.031996775418519974 -0.014501036144793034 -0.027833886444568634 0.4014037549495697 0.31071996688842773 0.5856925249099731 -0.18427427113056183 -0.9160818457603455 -0.4957217872142792 -0.7650600671768188 -0.26745402812957764 -0.41080841422080994 -0.2223944216966629 -0.09013660252094269 -0.16273640096187592 0.009464358910918236 0.10944031178951263 0.276994526386261 -0.02707595005631447 -0.054018646478652954 -0.08775321394205093 0.22118964791297913 -0.6208499670028687 -0.6482532620429993 -0.9117572903633118 -1.0714685916900635 -1.2096182107925415 -0.9075847864151001 -0.14607661962509155 -0.21804384887218475 0.04683707654476166 -0.1510857790708542 0.07276304066181183 0.1507171243429184 0.3283691108226776 0.1841651052236557 -0.38729599118232727 -0.10847174376249313 -0.6599422097206116 -0.40648460388183594 -1.0565588474273682 -1.0671262741088867 -0.891725480556488 -0.9741089344024658 -0.306980699300766 -0.24769414961338043 0.005193870980292559 -0.04115474596619606 0.023664114996790886 -0.06697719544172287 -0.10962533205747604 -0.10006487369537354 0.0858413428068161 0.08179774880409241 -0.4261818826198578 -0.3832930326461792 -0.2573671042919159 -0.29472795128822327 -0.38602498173713684 -0.3944094181060791 -0.251707524061203 -0.19833782315254211 0.0031493832357227802 0.17463308572769165 -0.2641267478466034 0.04044308885931969 0.41534507274627686 0.06128716468811035 -0.23380640149116516 -0.296296626329422 -0.277448445558548 -0.03829493373632431 -0.29091548919677734 -0.06916686147451401 -0.16594578325748444 -0.04312047362327576 -0.32559239864349365 -0.3137514591217041 0.06621422618627548 -0.0660584568977356 0.06137548014521599 -0.16611823439598083 0.1427178531885147 -0.061851177364587784 0.0023118541575968266 0.36224138736724854 -0.2027069330215454 -0.1876605749130249 0.17569735646247864 0.20119890570640564 0.06630495190620422 -0.32458385825157166 -0.07244591414928436 0.045873865485191345 0.3128202259540558 0.03892242908477783 -0.12104842066764832 -0.07171589881181717 0.09412305057048798 -1.5115232467651367 0.7556662559509277 1.5761369466781616 0.03509356826543808 -0.6025367379188538 0.17198728024959564 0.13082973659038544 0.08118546009063721 -0.01846812292933464 -0.054908983409404755 0.2072213739156723 -0.8089467883110046 -1.0627166032791138 -0.4280245304107666 0.39561572670936584 1.515869140625 1.4131410121917725 -0.21284246444702148 -0.5385231375694275 -0.9683299660682678 0.023796172812581062 -0.12645788490772247 0.26803192496299744 0.07322331517934799 0.0241793654859066 0.0025960158091038465 -0.09502984583377838 0.06392042338848114 -0.25658726692199707 0.49087047576904297 -0.48972541093826294 -0.0880669355392456 -0.9376004338264465 -0.11614136397838593 -0.11415500193834305 -0.04199793562293053 0.012106746435165405 0.16178719699382782 -0.11817757785320282 -0.09384529292583466 0.19363585114479065 -0.015384870581328869 -0.21023233234882355 0.019982317462563515 -0.03166709467768669 0.15587656199932098 0.09868926554918289 -0.5124934315681458 0.280241996049881 -0.09954394400119781 0.10726131498813629 -0.06267499178647995 0.2752190828323364 0.10284309089183807 -0.1897304654121399 0.06377746909856796 -0.002248702570796013 -0.15498873591423035 -0.12446027249097824 -0.00656523322686553 0.1023675799369812 0.16497057676315308 -0.1672808676958084 0.019834721460938454 0.02789626270532608 -0.10994270443916321 -0.10190605372190475 0.09577903896570206 -0.027014579623937607 0.18543723225593567 -0.02755715511739254 0.026697183027863503 -0.05698403716087341 -0.06105835735797882 0.01240445114672184 -0.027147410437464714 0.4036100208759308 0.20081952214241028 -0.007951930165290833 -0.26602986454963684 -0.10140420496463776 -0.6788080930709839 0.16857780516147614 0.11356192827224731 0.15543335676193237 0.1452728509902954 -0.27048206329345703 -0.14523187279701233 0.007062022108584642 -0.2128233164548874 -0.14628951251506805 0.10488203912973404 -0.2256132811307907 -0.3106907308101654 -0.5908870697021484 0.053388338536024094 -0.5754460692405701 -0.16072514653205872 0.42090904712677 0.7957996129989624 0.06540966778993607 0.002935010939836502 -0.10768932849168777 0.004959344398230314 0.3875529170036316 0.1037551686167717 0.08400236070156097 -0.6530923247337341 -0.5123335719108582 -0.889055073261261 1.3302392959594727 -0.2718780040740967 0.00033419669489376247 1.3492130041122437 -0.3996678590774536 0.04226230829954147 0.27015531063079834 -0.39088889956474304 -0.05921168252825737 -0.044283900409936905 -0.09444395452737808 -0.2164529412984848 -0.7875570058822632 0.005535311996936798 1.3031703233718872 -0.09994679689407349 -0.9665639996528625 0.057886429131031036 -0.0574769489467144 -0.6113134026527405 0.12593038380146027 -0.17209374904632568 0.08074887841939926 -0.36884698271751404 0.6158102750778198 -0.22348982095718384 0.5227214097976685 -0.15106500685214996 0.4626278281211853 -0.4019501507282257 0.1557440459728241 0.11983698606491089 -0.17957453429698944 -0.8290308713912964 -0.16177554428577423 -0.20270000398159027 -0.15501707792282104 0.006168700288981199 -0.957322359085083 0.4010590612888336 0.04990759864449501 0.02749663218855858 0.2094738781452179 0.32568565011024475 0.028516925871372223 -0.24645934998989105 -0.251293420791626 -0.050683170557022095 -0.5194178819656372 -0.16793286800384521 -0.21372400224208832 -0.03428773581981659 0.6715534925460815 0.2600717842578888 0.18958480656147003 -0.29683542251586914 0.030368715524673462 -0.07394283264875412 0.06815861910581589 -0.2174224853515625 -0.34979692101478577 -0.1818610429763794 -0.1529950052499771 0.11458681523799896 -0.15886501967906952 -0.12664148211479187 0.2933952510356903 -0.40372708439826965 0.28968727588653564 -0.1729341596364975 -0.08780854940414429 0.08183198422193527 -0.0756683498620987 0.04446026682853699 0.021833235397934914 0.10718372464179993 -0.019079670310020447 0.1522592008113861 -0.025310862809419632 -0.10987427830696106 -0.2993195354938507 0.19491666555404663 0.06989076733589172 -0.020728997886180878 0.1237340047955513 -0.03334033861756325 -0.28484025597572327 0.05021076276898384 -0.041535407304763794 0.1014900952577591 -0.06487276405096054 0.012235131114721298 0.20524074137210846 0.0315520241856575 -0.1949516087770462 -0.12666209042072296 -0.3883698284626007 -0.4774065315723419 -0.10080369561910629 -0.4448188841342926 0.09875288605690002 0.02158360555768013 -0.15621599555015564 0.024233002215623856 -0.013381337746977806 -0.1080799400806427 -0.4609191119670868 0.15305832028388977 -0.47529950737953186 0.5260619521141052 -0.25912779569625854 -0.7489945292472839 -0.7372715473175049 -0.29676029086112976 -0.3739628195762634 0.44135746359825134 -0.18855123221874237 -0.06984509527683258 -0.18833491206169128 0.07342799007892609 0.21754004061222076 -0.0675416961312294 -0.12302510440349579 -0.11054006218910217 -0.48758387565612793 -0.1828593760728836 -0.6976377367973328 0.37423571944236755 0.060056064277887344 0.24385738372802734 -0.577681839466095 -0.6267194151878357 -0.24269187450408936 0.01698399893939495 0.07410892099142075 -0.1471472829580307 0.2863899767398834 0.4613047242164612 0.032579150050878525 -0.4887322783470154 -0.011042769998311996 0.5753679871559143 -0.24309141933918 -0.0731886476278305 -0.43645837903022766 0.42509713768959045 -0.1881115436553955 -0.2410990446805954 0.06137029081583023 -0.1604233980178833 0.0631992444396019 -0.08724973350763321 -0.04255315288901329 0.079997718334198 0.014831598848104477 -0.3295305669307709 -0.12029656767845154 0.17779117822647095 0.045558344572782516 0.05662171542644501 -0.1705806702375412 -0.04909663274884224 0.10562179237604141 -0.06872767955064774 -0.04583972692489624 -0.1531660258769989 -0.06073445826768875 0.30744490027427673 -0.044402461498975754 -0.011893805116415024 -0.12340887635946274 -0.08377593010663986 -0.009135153144598007 0.0643853023648262 -0.09762220084667206 0.1263909935951233 -0.2295800894498825 0.007332318928092718 0.37585875391960144 0.008628389798104763 0.16496539115905762 0.09253168851137161 0.010193031281232834 0.1449327915906906 -0.07863025367259979 -0.09568291902542114 -0.18217481672763824 -0.22583428025245667 -0.23950645327568054 -0.2615315616130829 -0.3296961486339569 -0.2774687707424164 0.15676885843276978 0.17997457087039948 -0.3359985947608948 -0.1995524764060974 -0.11348573118448257 0.01154464390128851 0.046437934041023254 0.061189915984869 -0.30950912833213806 -0.22805579006671906 -1.0491151809692383 -1.0462796688079834 -1.1822025775909424 -1.1695302724838257 -0.5700380802154541 -0.5567438006401062 -0.047749925404787064 -0.04226896911859512 -0.0671878457069397 -0.04169027507305145 0.15982921421527863 0.19373413920402527 0.06206351891160011 -0.04877153038978577 -0.09697891026735306 -0.2568737864494324 -1.1619620323181152 -1.112557291984558 -1.106895923614502 -1.1326594352722168 -0.5994096398353577 -0.7456698417663574 -0.4072248637676239 -0.21694904565811157 -0.2643880248069763 -0.32896125316619873 0.16500744223594666 0.15651194751262665 0.025576354935765266 0.21250717341899872 -0.09609683603048325 0.06225539371371269 -0.546947717666626 -0.5966998338699341 -0.7214215397834778 -0.9299349784851074 -0.5704377889633179 -0.8085014224052429 0.14442527294158936 0.17707760632038116 -0.35260263085365295 -0.20273537933826447 0.01776065304875374 -0.019267840310931206 -0.09724787622690201 -0.06344609707593918 -0.049973264336586 0.03879687935113907 0.415823757648468 0.46620941162109375 0.6518210172653198 0.3002869486808777 0.9939975738525391 -0.7627842426300049 2.207928419113159 0.9227828979492188 1.5013792514801025 1.664969801902771 -0.18730325996875763 -0.20531892776489258 -0.29487279057502747 0.09780899435281754 0.010707972571253777 0.3816785216331482 0.3756297826766968 0.5100622177124023 1.351056456565857 0.841433584690094 2.1152846813201904 1.744163990020752 2.703294038772583 2.129559278488159 1.5353671312332153 2.0591506958007812 -0.03268355876207352 0.17175228893756866 0.19206374883651733 0.4330063760280609 -0.12399273365736008 -0.17474965751171112 0.3595014810562134 0.002098905621096492 -0.4071364402770996 -0.22071991860866547 -0.7327352166175842 -0.13382308185100555 -0.08998691290616989 0.49427589774131775 0.40938475728034973 1.0464309453964233 0.5203027129173279 0.22300149500370026 -0.07339325547218323 0.034936416894197464 -0.20413738489151 0.09553217887878418 -0.22101062536239624 -0.44269123673439026 -0.4027979075908661 0.0852862074971199 -0.2004963904619217 -0.17896828055381775 -0.674933671951294 0.6942914724349976 0.41476619243621826 0.7386476993560791 1.3225018978118896 -0.1303497850894928 0.15179529786109924 0.1205865740776062 0.4304080605506897 -0.10105836391448975 0.2062445878982544 -0.12739136815071106 0.05915770307183266 -0.26323047280311584 -0.03208279609680176 -0.2445441633462906 -0.10136324167251587 -0.03750152885913849 0.7354481220245361 0.06824275106191635 1.2946348190307617 0.07178740203380585 0.04752535745501518 -0.22115258872509003 -0.21856707334518433 -0.033492326736450195 -0.21577689051628113 -0.36020323634147644 -0.42948248982429504 -0.32897648215293884 -0.30779650807380676 -0.5723806023597717 -0.32104235887527466 0.14116418361663818 0.5506237745285034 0.031216317787766457 1.356623888015747 -0.356000155210495 -0.26127997040748596 -0.04246827960014343 -0.2660907804965973 -0.3013855814933777 -0.4518924653530121 -0.26782384514808655 -0.3434860110282898 -0.38383397459983826 -0.411018043756485 -0.12692877650260925 -0.33950021862983704 -0.2163442224264145 0.293876588344574 0.7321875095367432 0.5899592041969299 0.299456924200058 -0.041554007679224014 -0.27121299505233765 -0.35807734727859497 -0.029751170426607132 -0.40162843465805054 -0.14213502407073975 -0.32251355051994324 -0.08560322970151901 -0.24486380815505981 -0.13820046186447144 -0.40518251061439514 0.058401044458150864 0.129366934299469 0.5106713175773621 0.3246081471443176 0.06576325744390488 0.14553770422935486 -0.4517322778701782 -0.33086469769477844 -0.39361485838890076 -0.5198647379875183 -0.1720663458108902 -0.24401824176311493 0.09184953570365906 -0.27565789222717285 -0.1511324793100357 -0.27653270959854126 0.17925184965133667 -0.11356130987405777 -0.0010834869462996721 0.3568432033061981 0.054006047546863556 0.17250141501426697 -0.057567670941352844 -0.44636011123657227 0.15572047233581543 -0.30370640754699707 -0.3543953597545624 -0.11727945506572723 0.32218828797340393 -0.05490871146321297 0.1785881668329239 0.2173650711774826 0.10694947093725204 0.1763579100370407 0.2932531535625458 -0.3884221315383911 -0.08857855945825577 -0.24018846452236176 0.2463574856519699 -0.48565706610679626 -0.12042931467294693 0.1104089617729187 -0.36985233426094055 -0.36695849895477295 0.04765987768769264 0.6011465191841125 -0.2630476653575897 -0.9327930212020874 -0.1647389680147171 1.8193166255950928 0.3036186099052429 -2.9747226238250732 -2.025763988494873 -0.07894034683704376 -0.09794570505619049 0.02747679129242897 -0.14930374920368195 -0.172734335064888 -0.003580471035093069 -0.09201805293560028 0.056433454155921936 -0.04923570901155472 -0.14295212924480438 -0.09702310711145401 0.14439769089221954 0.8721057176589966 -2.2078514099121094 1.6206068992614746 0.5647918581962585 -0.31121885776519775 -0.0550556480884552 0.33698204159736633 0.14416375756263733 0.2534605860710144 0.21775321662425995 -0.17327304184436798 -0.2634345591068268 0.09047547727823257 0.16080373525619507 0.07375328242778778 0.17241765558719635 -0.037723518908023834 0.06772970408201218 -1.0708398818969727 -0.1121310219168663 0.4381464421749115 -0.013949887827038765 -0.05702129751443863 -0.049827247858047485 -0.5435642600059509 -0.3121860921382904 0.09725849330425262 0.393822580575943 0.38148608803749084 0.18227815628051758 0.006476983428001404 -0.007341666147112846 -0.010804649442434311 -0.17431432008743286 0.4354826509952545 -0.32722771167755127 -0.3733501434326172 -0.023675061762332916 0.09974506497383118 0.3162080943584442 -0.08604081720113754 -0.2166856974363327 0.5054601430892944 -0.030402231961488724 0.19099624454975128 0.2282630354166031 -0.005496038589626551 -0.014395739883184433 -0.1991296410560608 -0.10608766973018646 -0.42010849714279175 -0.21616607904434204 0.3584265410900116 -0.0738576278090477 0.04007459431886673 -0.031278982758522034 -0.20966129004955292 -0.33473649621009827 0.05987564101815224 -0.11972584575414658 -0.3933054208755493 -0.38925036787986755 0.058199457824230194 0.008776129223406315 -0.18469558656215668 0.22339892387390137 0.08005553483963013 -0.2720958888530731 -0.5786722302436829 0.0257396437227726 0.11723392456769943 0.23334148526191711 0.23472897708415985 0.1363358199596405 -0.15315356850624084 -0.0706683099269867 -0.4222368597984314 -0.2325364202260971 0.32082605361938477 0.008445723913609982 -0.05348832905292511 -0.16569386422634125 -0.26803717017173767 -0.17583335936069489 0.3210766613483429 0.6146960258483887 -0.08763501793146133 0.03626447916030884 -0.017139630392193794 -0.22988924384117126 0.16798005998134613 0.01833941601216793 0.1388380378484726 0.27826347947120667 0.0212545208632946 -0.06496895849704742 -0.2162274569272995 -0.28531885147094727 -0.2960943281650543 0.1949627846479416 -0.1150650829076767 -0.6207294464111328 0.057621974498033524 0.23027418553829193 -0.02670942433178425 -0.1402093917131424 -0.0978291928768158 0.03725244477391243 -0.15286855399608612 -0.19221113622188568 -0.13652797043323517 0.14681220054626465 -0.19661572575569153 -0.35119688510894775 -0.024519020691514015 -0.13401207327842712 0.396659791469574 -0.31240013241767883 -0.05327054485678673 -0.11044053733348846 -0.13208842277526855 0.25399795174598694 0.14688600599765778 0.26783114671707153 0.11944012343883514 -0.007200160995125771 -0.10199101269245148 0.306410551071167 0.10774346441030502 0.43337783217430115 0.323896586894989 -0.5511194467544556 0.16711565852165222 0.0001227437605848536 -0.10339034348726273 0.10493183135986328 0.20430392026901245 -0.08200965076684952 -0.17704637348651886 -0.20346733927726746 -0.04156595468521118 -0.04864683002233505 0.14668747782707214 -0.047232452780008316 -0.07360508292913437 0.09478605538606644 -0.043532729148864746 0.2112029641866684 0.12062786519527435 -0.2746589481830597 -0.4626227915287018 -0.15505866706371307 -0.38897427916526794 -0.06152496486902237 -0.1902378648519516 0.12807776033878326 -0.1033325269818306 0.19591397047042847 -0.04255546256899834 -0.012777314521372318 -0.01678854413330555 0.11108891665935516 0.19487005472183228 0.20903339982032776 -0.3330787122249603 0.009995258413255215 -0.3440569341182709 -0.10084003210067749 -0.008096753619611263 -0.29440414905548096 -0.48972564935684204 -0.012104230001568794 0.03864574804902077 -0.017729289829730988 0.06679179519414902 -0.18088661134243011 -0.049687229096889496 0.11831100285053253 -0.18745256960391998 0.04076523333787918 0.1576962023973465 -0.06497684866189957 0.030729208141565323 -0.43522220849990845 -0.49730709195137024 -0.392360657453537 -0.2915198802947998 -0.39501237869262695 -0.5719261765480042 0.5596676468849182 0.02945891208946705 0.10207676887512207 -0.2395518273115158 0.23307164013385773 0.2614974081516266 0.07101456820964813 0.4259880483150482 -0.4019816219806671 -0.224229097366333 0.0385667122900486 -0.07744196802377701 -0.7039716839790344 -0.474785178899765 -0.6683847904205322 -0.7803749442100525 -0.015619161538779736 -0.5489023327827454 0.22406800091266632 -0.3111586272716522 0.89891517162323 0.4542124569416046 -0.31375205516815186 0.9157416820526123 0.13614873588085175 -0.09101343154907227 -0.21395958960056305 -0.2447386384010315 0.08918158710002899 -0.4376509189605713 -0.22321148216724396 -0.5073302388191223 0.5213005542755127 -0.011112051084637642 -0.6176681518554688 0.026471763849258423 0.9108152389526367 0.003077862784266472 -0.18941228091716766 1.1349353790283203 0.03349250927567482 -0.14979039132595062 -0.07744970172643661 0.13654537498950958 -0.27001604437828064 0.0954037457704544 0.19371359050273895 0.2744598090648651 0.05663492903113365 0.5490337610244751 0.508628249168396 1.4854563474655151 1.962634563446045 3.634131908416748 3.5493485927581787 3.02543044090271 2.8341033458709717 0.0672876238822937 -0.21842889487743378 -0.01182414498180151 -0.029209354892373085 0.0425129197537899 -0.14131900668144226 0.05610555782914162 -0.05671453848481178 0.17862850427627563 0.1538020372390747 -0.4525875449180603 0.842963457107544 1.3755834102630615 3.393815040588379 3.411130428314209 3.6304099559783936 -0.03871475160121918 -0.011251812800765038 0.23263128101825714 0.10330501198768616 -0.2898729741573334 -0.25539228320121765 -0.6680650115013123 -0.727350652217865 -1.253862738609314 -1.2306724786758423 -1.0576817989349365 -0.4057459235191345 -0.6007555723190308 0.7976210117340088 1.3788142204284668 1.7416048049926758 -0.1647588610649109 -0.2394406646490097 -0.008383781649172306 0.08186385780572891 -0.09651868790388107 -0.05543525144457817 -1.6763254404067993 -1.7000436782836914 -1.6544477939605713 -1.6582682132720947 -1.3032190799713135 -1.2476625442504883 -0.06571793556213379 0.022741036489605904 0.47667911648750305 0.38101762533187866 0.07485436648130417 0.09387257695198059 -0.04320096597075462 -0.06005806848406792 -0.4311853051185608 -0.45756977796554565 -1.674741506576538 -1.6619232892990112 -1.585719108581543 -1.680748701095581 -0.6981422901153564 -0.6211889982223511 0.11763307452201843 -0.06889036297798157 0.18029417097568512 0.03106728009879589 -0.03013242781162262 0.004268969874829054 -0.0021193246357142925 -0.15306729078292847 -0.1818086951971054 -0.2932204306125641 -0.4745195806026459 -0.6511123776435852 -0.3326755464076996 -0.22100313007831573 -0.3135964572429657 -0.4273422360420227 0.0898112878203392 -0.18860548734664917 0.03554491698741913 0.2187039703130722 0.03028922528028488 -0.024543743580579758 0.26062068343162537 0.160514697432518 -0.05478125810623169 -0.09323030710220337 -0.20082248747348785 -0.12146483361721039 0.0034628971479833126 0.08418681472539902 0.11293010413646698 0.04098763316869736 -0.007953466847538948 0.01520045567303896 0.22256746888160706 -0.22125522792339325 -0.32445642352104187 0.0661681666970253 0.04786055535078049 0.10230246931314468 0.15210455656051636 0.049528006464242935 -0.08276020735502243 -0.05522255226969719 -0.04304051026701927 -0.11539765447378159 -0.05413981154561043 0.11037729680538177 0.01697549968957901 -0.2038424015045166 -0.08570552617311478 -0.05371519923210144 -0.16849760711193085 -0.09604907780885696 -0.25395286083221436 -0.2886239290237427 -0.3347640633583069 -0.025178492069244385 -0.3920620083808899 -0.15258775651454926 -0.21037864685058594 -0.19044575095176697 -0.11556212604045868 -0.03544451296329498 -0.1382979303598404 -0.1253470629453659 -0.059563398361206055 0.10725708305835724 0.7030590176582336 -0.506245493888855 0.6020548939704895 -0.5664733648300171 -0.14774535596370697 -0.13627056777477264 -0.12639369070529938 -0.18893250823020935 -0.029324952512979507 -0.4810680150985718 -0.3386915326118469 0.06478188931941986 0.47850385308265686 -0.13030166923999786 -0.1349169909954071 -0.24827870726585388 -0.49726036190986633 0.3919318616390228 -0.29477906227111816 0.17593041062355042 0.28598758578300476 -0.18527011573314667 -0.14534397423267365 -0.28979960083961487 -0.006933052092790604 0.047525323927402496 -0.1338384747505188 0.13823460042476654 0.05696946382522583 -0.5981152653694153 0.06482548266649246 0.10897785425186157 0.11932504177093506 0.4309625029563904 -0.16042977571487427 0.007354476023465395 0.57142174243927 0.48627111315727234 0.03340896591544151 -0.2514108121395111 -0.06255965679883957 -0.22460655868053436 -0.14743643999099731 -0.03324136883020401 0.0669785737991333 0.01540532335639 -0.15295623242855072 -0.14877766370773315 -0.09947682917118073 0.1652902066707611 0.22377373278141022 0.581791341304779 0.19205154478549957 -0.11052676290273666 -0.02377055585384369 -0.19590944051742554 -0.11902020126581192 -0.20754866302013397 -0.01376743707805872 -0.39111247658729553 -0.06974270939826965 -0.3961142301559448 0.2075069099664688 -0.1260594129562378 -0.43905577063560486 -0.32992902398109436 0.2954292893409729 0.5899147987365723 0.37065374851226807 -0.001512214308604598 -0.15578825771808624 0.09021934121847153 -0.021780280396342278 0.046294067054986954 -0.09909731149673462 -0.37396860122680664 -0.04920507222414017 -0.1712266504764557 -0.10725315660238266 0.5878802537918091 0.03765852376818657 -0.49754512310028076 -0.20586010813713074 -0.3590223491191864 -0.2992837727069855 0.03860395401716232 0.4278230667114258 -0.10184220969676971 0.09494395554065704 -0.06849157810211182 0.013400920666754246 0.23080869019031525 0.48720261454582214 -0.4623068571090698 0.307007759809494 0.4564680755138397 -0.30513522028923035 0.1508614718914032 -0.017842799425125122 -0.40121540427207947 0.10701650381088257 0.07121393829584122 -0.23338060081005096 0.021042048931121826 -0.024970320984721184 -0.04003504291176796 -0.10737588256597519 0.227629154920578 -0.3213002383708954 -0.16106313467025757 -0.4274194538593292 0.10363613069057465 -0.10274600982666016 0.33738473057746887 -0.6468190550804138 0.32072538137435913 0.08022555708885193 -0.20271559059619904 -0.1865774393081665 -0.45913997292518616 0.01818755827844143 -0.13018515706062317 0.24989742040634155 -0.5016487836837769 -0.870133101940155 0.2971717119216919 0.9509089589118958 0.056981876492500305 -0.2453920692205429 0.2742466926574707 0.4195597171783447 -0.11086703836917877 -0.42995500564575195 -0.6790416836738586 0.2530384659767151 0.1426776498556137 0.15361417829990387 -0.12203161418437958 -0.032537322491407394 0.15471245348453522 -0.07484134286642075 0.14241495728492737 0.06803998351097107 -0.3171229064464569 0.5309438705444336 -0.4572421908378601 -0.6746637225151062 -0.1999349594116211 0.16069382429122925 0.0663258507847786 -0.2516005039215088 -0.13250033557415009 -0.12087035924196243 0.09089864045381546 -0.16842330992221832 -0.14768657088279724 -0.29769858717918396 -0.4672586917877197 -0.18000593781471252 -0.16421495378017426 0.2297392636537552 0.12809626758098602 0.23589935898780823 -0.043112024664878845 -0.3666836619377136 -0.25867655873298645 -0.05623267590999603 0.099319227039814 -0.0831245556473732 -0.20473511517047882 -0.10499701648950577 -0.15260441601276398 0.41580504179000854 0.14240805804729462 -0.06383677572011948 -0.12634959816932678 -0.08485350012779236 0.434822142124176 0.3620476722717285 -0.20093142986297607 0.07141105830669403 -0.1616583615541458 0.057442810386419296 -0.0695708766579628 -0.012331010773777962 -0.23834890127182007 -0.21391615271568298 -0.02432599663734436 0.17207758128643036 0.2459876388311386 -0.1983625441789627 -0.38198262453079224 0.569145143032074 0.1939830482006073 -0.43860965967178345 -0.00020845196559093893 -0.25368255376815796 -0.18673180043697357 -0.16988341510295868 -0.26295050978660583 0.3544708788394928 0.37169912457466125 -0.08347813040018082 -0.015020511113107204 0.039513662457466125 0.1434922218322754 -0.01496884785592556 0.07807932794094086 -0.5405206680297852 -0.07545051723718643 0.8435590267181396 0.33764201402664185 0.3186641037464142 -1.0588653087615967 -0.15175947546958923 -0.018095508217811584 0.407219260931015 0.36368197202682495 0.0508425198495388 -0.034894779324531555 0.09964877367019653 -0.5007651448249817 0.04447897523641586 0.13617254793643951 0.42734912037849426 0.07646527886390686 -1.9991711378097534 -0.5966659188270569 1.1426643133163452 -1.355458378791809 -0.03853224962949753 0.6594523191452026 0.7173773646354675 -0.28339967131614685 -0.7094663977622986 0.18496686220169067 0.980411171913147 -0.4391389787197113 -1.8799359798431396 -0.4913847744464874 0.3451728820800781 -0.07985127717256546 -0.056247811764478683 -0.6012870669364929 0.05822324752807617 -0.0731397271156311 0.044051676988601685 0.18914566934108734 0.5040582418441772 0.10720235854387283 -0.007659683469682932 0.05680277943611145 -0.5218997001647949 0.11227336525917053 -0.2408863753080368 0.44897112250328064 -0.5066612958908081 0.09825801104307175 -0.39622727036476135 0.4399650990962982 -0.2598145008087158 0.10073789954185486 -0.4570015072822571 0.012900943867862225 0.2066473811864853 0.04744265228509903 -0.35196152329444885 0.27574214339256287 -0.5145114660263062 -0.30333128571510315 -0.5663564205169678 0.020373491570353508 -0.19222033023834229 0.20714803040027618 -0.33905377984046936 -0.2760159373283386 -0.0180179663002491 -0.21146056056022644 -0.15584078431129456 0.18630293011665344 -0.03565492108464241 0.08647952973842621 -0.44307470321655273 0.08867968618869781 -0.4916633665561676 -0.11688604950904846 -0.8089830875396729 -0.48487767577171326 -0.7995246052742004 0.017278654500842094 -0.445163369178772 0.013045523315668106 0.135362446308136 0.05208001658320427 -0.29400578141212463 0.03139498829841614 -0.14403200149536133 -0.00410003075376153 0.31738054752349854 0.32895925641059875 0.00900654960423708 0.2929692268371582 -0.813012421131134 0.030227817595005035 -0.49367034435272217 -0.12280532717704773 -0.1131974384188652 0.0019816856365650892 0.014548716135323048 -0.04634254798293114 0.06699685752391815 0.09009793400764465 -0.007496736012399197 0.05943761393427849 0.15772950649261475 0.20840035378932953 0.010507732629776001 -0.13234135508537292 -0.6445060968399048 -0.0551559180021286 -0.4356982707977295 0.4970259368419647 0.03312568739056587 -0.49067577719688416 0.16861411929130554 -0.1658511906862259 0.009856201708316803 0.2986609935760498 0.2934125065803528 -0.048797331750392914 -0.24000132083892822 -0.14093557000160217 -0.21311970055103302 -0.018946200609207153 -0.1508239507675171 0.05568239465355873 0.35942599177360535 -0.08505525439977646 0.417367160320282 0.01002525445073843 0.32307279109954834 0.6560360193252563 -0.6039586663246155 0.20665250718593597 0.1609111875295639 -0.21654176712036133 -0.07364792376756668 -0.002741276053711772 -0.29958465695381165 -0.14627759158611298 -0.047643352299928665 0.09969038516283035 -0.4053453207015991 0.4196116328239441 0.2822433412075043 -1.0600275993347168 0.9681072235107422 -0.15443161129951477 0.5034692287445068 -0.5288591980934143 0.3620358407497406 -0.1420031487941742 0.15572364628314972 0.008132594637572765 -0.07948972284793854 -0.35684943199157715 -0.1436503380537033 0.3789287805557251 -0.16438116133213043 -0.9519080519676208 -0.06549324840307236 -0.15249714255332947 -0.7767532467842102 0.3651266098022461 0.5000620484352112 0.3092285394668579 -1.0068538188934326 -0.17772293090820312 -0.10557467490434647 -0.5734445452690125 -0.15580067038536072 -0.6141618490219116 0.1507379114627838 -0.15965785086154938 -0.7304102778434753 0.01730661280453205 0.7767035365104675 0.747362494468689 0.5780627131462097 -0.39662644267082214 -0.042643409222364426 -0.3049659729003906 -0.03135058656334877 0.013957406394183636 0.09717360138893127 -0.06119146943092346 -0.0040478575974702835 -0.4142828583717346 -0.031230414286255836 -0.35668179392814636 0.011308655142784119 0.06661893427371979 -0.3792685568332672 0.186507910490036 -0.45465877652168274 -0.2586400508880615 -0.32286739349365234 -0.1996147632598877 -0.7357814311981201 -0.5605342388153076 -0.1942308396100998 0.26512229442596436 -0.11484170705080032 -0.1531459093093872 -0.3392396569252014 -0.17366795241832733 0.155381977558136 0.01335122063755989 0.10131318122148514 -0.08387453854084015 0.6945865750312805 0.025333905592560768 0.12693630158901215 -0.10464314371347427 -0.10026860237121582 -0.25881725549697876 -0.07778344303369522 -0.3344021737575531 -0.08213566243648529 -0.18910829722881317 -0.21924497187137604 -0.26527029275894165 -0.290397971868515 0.06346168369054794 -0.16922053694725037 -0.2742232084274292 -0.5016380548477173 -0.027550389990210533 0.08804773539304733 0.2531880736351013 0.17457415163516998 0.2389591634273529 -0.13912920653820038 -0.1456456035375595 -0.06374766677618027 -0.1700466126203537 -0.0715230405330658 -0.18038873374462128 0.15420092642307281 0.07107333838939667 0.8992542028427124 -0.38489529490470886 0.047961585223674774 -0.02245302125811577 -0.0037216143682599068 -0.08026213943958282 -0.154856339097023 -0.04415386542677879 -0.1034030094742775 -0.017691010609269142 -0.1356733739376068 0.02693679742515087 0.10045073181390762 -0.02308356761932373 0.21409854292869568 0.6320822238922119 -1.3890254497528076 0.1041615679860115 -0.27033430337905884 0.21157875657081604 0.3937183916568756 0.001986087067052722 0.32828912138938904 -0.04021691903471947 0.18014249205589294 0.06580223143100739 -0.32765012979507446 0.27909213304519653 0.7075110673904419 -0.020175142213702202 0.6503434181213379 -0.09761036187410355 1.200440764427185 0.28103309869766235 0.38422536849975586 -0.29005444049835205 -0.892522931098938 -0.08309604972600937 1.095778226852417 0.3215930163860321 -0.393768846988678 0.4724573493003845 0.6764627695083618 0.6884949803352356 1.251721739768982 -0.23658229410648346 -1.4703686237335205 -0.8552525043487549 -0.21408188343048096 -0.1771930605173111 -0.1423802524805069 -0.12452689558267593 0.27840471267700195 -0.07925984263420105 -0.22774608433246613 0.17447474598884583 -0.21225515007972717 -0.12286360561847687 -0.14544817805290222 -0.22067244350910187 0.030637234449386597 0.05407840386033058 0.10149750858545303 0.2560966908931732 0.2756611406803131 0.8253024220466614 -0.831548273563385 0.04549260810017586 -0.037573955953121185 0.0007498860941268504 -0.04005119204521179 0.14791655540466309 0.05531753599643707 0.14429059624671936 0.16937993466854095 0.11466009169816971 0.14681068062782288 0.02697143144905567 -0.10364008694887161 0.18398624658584595 0.3792230784893036 1.1146705150604248 0.341079980134964 -0.05758842080831528 0.1757631152868271 -0.030155589804053307 -0.0014489205786958337 -0.2547340989112854 -0.3757795989513397 -0.4248712956905365 -0.5696890950202942 0.059128839522600174 -0.08683648705482483 -0.004071173258125782 -0.20690277218818665 -0.05035731941461563 -0.056032195687294006 0.7150252461433411 0.7946978211402893 0.12383142113685608 0.20729508996009827 -0.155321404337883 -0.3213886618614197 -0.25063109397888184 -0.37382176518440247 -0.9166118502616882 -0.86114501953125 -0.8857997059822083 -0.697571337223053 -0.5722999572753906 -0.4788190722465515 0.16975419223308563 0.12294381856918335 -0.48923248052597046 0.5463158488273621 -0.05933530256152153 -0.3346276879310608 0.03111792542040348 0.1325664222240448 -0.2675822675228119 -0.04580778256058693 -0.9148538112640381 -0.8455348014831543 -0.8396916389465332 -0.8196774125099182 -0.9144600629806519 -0.6678462624549866 -0.271068274974823 0.08881042897701263 0.12610025703907013 1.0829057693481445 -0.14770059287548065 -0.06136389821767807 0.3877387046813965 0.45059436559677124 -0.04262201488018036 -0.3000929653644562 -0.0648488700389862 -0.048190344125032425 -0.2490644007921219 -0.059143323451280594 -0.19285543262958527 -0.4193952977657318 0.4526042342185974 0.013679192401468754 -0.2906908094882965 1.494223952293396 0.00974974688142538 -0.025179846212267876 -0.0031075060833245516 -0.07304306328296661 -0.352736234664917 -0.20911461114883423 -0.2972370386123657 -0.13831618428230286 -0.357977032661438 -0.5042074918746948 -0.4165104329586029 -0.49029791355133057 0.023214200511574745 0.6201860904693604 0.2912355065345764 2.723151683807373 -0.10608842968940735 0.015127060934901237 0.1732073277235031 0.09533476829528809 -0.004645928740501404 0.04960653930902481 -0.10449623316526413 -0.09812019765377045 -0.32431191205978394 -0.08401350677013397 -0.3353346586227417 -0.5790273547172546 1.0797113180160522 1.0301105976104736 1.3175621032714844 2.606058120727539 -0.024555491283535957 0.5537777543067932 -0.06457497179508209 -0.8074274659156799 0.15076316893100739 1.1323763132095337 -0.49728065729141235 -0.18640226125717163 0.1946226805448532 -0.3630250096321106 -0.025067336857318878 1.2090872526168823 -0.601108729839325 -0.8562871813774109 -1.1090118885040283 -0.7141785025596619 -0.03319390118122101 0.1293925791978836 -0.03647030517458916 0.2834111452102661 0.22160926461219788 0.16157999634742737 -0.1996585577726364 0.10955370217561722 0.07167351990938187 -0.28127598762512207 0.15685412287712097 0.06616543233394623 -0.1524333953857422 -0.19771450757980347 -0.13326436281204224 0.3493877947330475 -0.5546999573707581 -0.44526422023773193 -0.4532893896102905 0.14212873578071594 0.025224370881915092 0.2990184724330902 0.24680306017398834 -0.011823579668998718 0.2593536376953125 0.03685341402888298 0.20593078434467316 0.24203328788280487 0.09882201999425888 -0.05095036327838898 0.01038350723683834 -0.39709901809692383 -0.19372721016407013 -0.12410350888967514 -0.130637526512146 0.023267466574907303 -0.11202676594257355 0.12941017746925354 0.16865475475788116 0.1543714851140976 -0.3060924708843231 -0.10696630924940109 -0.345838338136673 0.15497007966041565 -0.04983389750123024 -0.08240262418985367 0.11364507675170898 -0.04916601628065109 -0.2508305609226227 -0.05916236340999603 0.03190983086824417 -0.4790232181549072 -0.2443244755268097 -0.3290596008300781 -0.32747673988342285 0.07043898105621338 -0.4135718047618866 -0.2400398552417755 -0.06850042194128036 0.1490531861782074 -0.026895564049482346 0.0681336522102356 0.10720265656709671 0.2740245461463928 -0.2708631455898285 -0.3521983027458191 -0.07208766788244247 -0.01230714377015829 0.046361662447452545 -0.17878422141075134 -0.2767142355442047 -0.08165007829666138 0.043980054557323456 0.030031129717826843 -0.07153254747390747 0.24123601615428925 0.1295892596244812 0.061133019626140594 0.17046166956424713 -0.5620735287666321 0.17984044551849365 0.1935945749282837 -0.00814084429293871 0.16673949360847473 0.08036043494939804 0.22072625160217285 0.2679905593395233 -0.058417368680238724 -0.06349483132362366 0.12902778387069702 -0.007939974777400494 0.06568808853626251 -0.037592023611068726 0.0772089883685112 -0.13152119517326355 0.8296238780021667 -0.11414997279644012 0.05568445846438408 0.5635375380516052 -0.33330315351486206 -0.24390140175819397 0.21046938002109528 -0.6257715225219727 0.1832650899887085 0.5272901058197021 -0.5277647972106934 0.23507609963417053 0.4260222315788269 -0.1606243997812271 -0.6543738842010498 -0.3698313534259796 -0.39518776535987854 0.8671693205833435 -0.20128346979618073 0.18400493264198303 -0.05234624072909355 -0.027851760387420654 0.39440131187438965 0.04406498372554779 -0.26098397374153137 0.15008388459682465 0.4391114413738251 -0.17099301517009735 -0.6611530780792236 -0.21676304936408997 -0.21557322144508362 -0.10044281929731369 0.664541482925415 0.07941526174545288 0.8191174268722534 -0.10344654321670532 -0.0691085234284401 -0.1241021528840065 0.1477387547492981 -0.07109948247671127 -0.5444190502166748 0.15763035416603088 0.3163388967514038 -0.3709435760974884 0.22473379969596863 -1.0984539985656738 -0.5293530821800232 -0.20667652785778046 -0.3126814663410187 0.15737208724021912 -0.32846662402153015 -0.12282729893922806 -0.4749053120613098 -0.18031099438667297 0.1486450880765915 -0.5034357905387878 -0.4631170332431793 0.07676798850297928 0.1948784738779068 -0.15582327544689178 0.16508272290229797 -0.6655097603797913 0.11634839326143265 -0.4431602954864502 -0.2212616503238678 -0.22558611631393433 0.38305777311325073 0.13816653192043304 0.4867180287837982 -0.13606131076812744 0.02755977213382721 -0.44014668464660645 -0.2753690481185913 0.14810492098331451 0.20373113453388214 0.1915520876646042 0.22453635931015015 -0.2597537040710449 -0.2409209907054901 -0.19682733714580536 -0.20029416680335999 -0.11539968103170395 -0.6960591673851013 -0.10901036113500595 -0.3453291356563568 -0.20616313815116882 -0.08068856596946716 -0.2199329137802124 -0.2692936360836029 -0.12745995819568634 0.3519979417324066 0.05718691647052765 0.26048868894577026 -0.29950767755508423 -0.021309304982423782 -0.22856661677360535 0.07098373770713806 0.0629720389842987 0.5282422304153442 -0.6019741892814636 0.36863580346107483 -0.16380923986434937 0.15495248138904572 0.40280500054359436 -0.17281277477741241 -0.029805053025484085 -0.13686268031597137 -0.2614683210849762 -0.12667113542556763 -0.05091555789113045 0.0038502777460962534 -0.2959391474723816 -0.32996803522109985 -0.4318787157535553 0.18624284863471985 -0.35763174295425415 -0.6074134707450867 0.32635974884033203 0.665715217590332 -0.11957947909832001 0.1225915476679802 0.026374049484729767 0.39153435826301575 0.08464159071445465 0.08568356186151505 0.336590051651001 0.14613838493824005 0.2877899706363678 0.6047356724739075 -0.101474829018116 -0.24277183413505554 0.34817761182785034 0.35825157165527344 0.0031513746362179518 -0.10552201420068741 -0.5475531220436096 0.2951667606830597 0.07420379668474197 0.3366652727127075 0.3834649324417114 0.3241639733314514 -0.19451025128364563 -0.2516021132469177 0.5413956046104431 0.37408122420310974 0.24929356575012207 0.22179609537124634 0.3687974810600281 0.48042717576026917 0.43241211771965027 0.049285754561424255 0.372840017080307 1.0216714143753052 0.5968995094299316 1.1660025119781494 1.05842125415802 0.5666460990905762 1.4827457666397095 0.06630946695804596 2.0113275051116943 1.4601858854293823 1.750670075416565 1.1278698444366455 0.38981276750564575 0.17751257121562958 0.42036330699920654 -0.13445110619068146 -0.12828311324119568 0.2646353840827942 -0.03167635202407837 -0.008916274644434452 0.475350558757782 -0.19572001695632935 0.5758508443832397 -0.01946835219860077 0.7899292707443237 0.3986443877220154 0.41423487663269043 -0.17939601838588715 0.011568686924874783 -0.04894629865884781 -0.22717595100402832 0.06818529963493347 0.07146653532981873 4.265710595063865e-05 -0.2091803103685379 -0.5344627499580383 -0.6010457873344421 -0.9140010476112366 -0.8015897274017334 -0.14815814793109894 -0.020750069990754128 -0.16303369402885437 -0.3759860694408417 -0.08344406634569168 -0.4398343563079834 0.1353933960199356 0.018585724756121635 -0.03279683738946915 -0.09223106503486633 -0.3369445204734802 -0.2375577986240387 -0.7878094911575317 -0.6824498176574707 -0.8239807486534119 -0.6490125060081482 -0.09077391028404236 -0.1872195303440094 0.02258015051484108 -0.16381411254405975 -0.11041309684515 0.009219195693731308 -0.20797163248062134 -0.07898030430078506 -0.1117270216345787 0.06845491379499435 -0.21043598651885986 -0.15967655181884766 -0.6294088363647461 -0.8126071095466614 -0.7392037510871887 -0.6176341772079468 -0.0788617953658104 -0.02745101973414421 -0.144057035446167 0.02933385968208313 -0.4183981120586395 -0.3864978849887848 0.17236672341823578 -0.14892169833183289 0.13608214259147644 0.14751143753528595 0.16149848699569702 -0.17737603187561035 -0.3059968650341034 -0.11733750253915787 0.045214395970106125 -0.02577000856399536 -0.1831831932067871 -0.3454418182373047 0.16472989320755005 -0.16426685452461243 0.11169605702161789 -0.018332794308662415 0.1635885387659073 -0.2085658311843872 -0.5518795251846313 -0.14503569900989532 0.20036472380161285 0.09021230787038803 -0.118180051445961 -0.005100945010781288 0.03187289461493492 -0.25898462533950806 -0.038228780031204224 -0.06744328886270523 -0.2615906298160553 -0.41214922070503235 -0.3528042733669281 -0.18074601888656616 -0.15361760556697845 -0.2675018310546875 0.12842391431331635 -0.10410352051258087 0.08170650899410248 -0.03299848362803459 0.3038492500782013 0.09673887491226196 -0.20397953689098358 -0.18058297038078308 -0.3181689977645874 0.04010431841015816 0.27897995710372925 -0.03417447209358215 -0.10377725213766098 0.12428366392850876 0.07954075187444687 -0.07550342381000519 -0.23448549211025238 -0.4920371174812317 -0.5326924920082092 -0.03778677433729172 0.5723650455474854 0.03504312410950661 -0.32198283076286316 -0.22816121578216553 0.14521470665931702 -0.13692890107631683 -0.10412155091762543 -0.11881089210510254 0.46513664722442627 0.45632657408714294 -0.5430947542190552 0.11922311782836914 0.5780832767486572 -0.007303349208086729 0.2920246124267578 -0.2915664613246918 0.22984378039836884 -0.0047253454104065895 0.05407365411520004 0.24336889386177063 0.3548397123813629 0.303864061832428 -0.22135549783706665 0.2610985040664673 -0.05991967022418976 -0.17171815037727356 -0.0633155032992363 0.1879085749387741 -0.2841028869152069 -0.3073500692844391 -0.2995437979698181 0.18749532103538513 -0.3089309632778168 -0.1965486854314804 -0.13978636264801025 -0.09985729306936264 -0.13619661331176758 0.025361716747283936 -0.7872859239578247 0.01876772940158844 0.15899115800857544 -0.06576482206583023 -0.04446542635560036 -0.12468515336513519 0.4106840491294861 -0.02519584447145462 -0.1582111269235611 0.006086771842092276 0.2781010568141937 -0.2576967179775238 -0.07229074090719223 0.15022580325603485 -0.4545288681983948 0.07489150762557983 0.000801462447270751 -0.08401084691286087 0.002586183836683631 -0.2817274034023285 -0.019665587693452835 0.16510874032974243 -0.212019681930542 0.030372757464647293 0.12030790001153946 -0.13176490366458893 0.03110148012638092 0.3199823796749115 -0.545056164264679 -0.3128367066383362 -0.08487018942832947 -0.4470386505126953 0.01130036823451519 -0.384234756231308 -0.09018123894929886 0.22501102089881897 -0.1606425791978836 -0.18390913307666779 0.5241944193840027 0.09095099568367004 0.10985347628593445 0.37903690338134766 -0.09923205524682999 0.38007134199142456 -0.06861596554517746 0.060778871178627014 0.1305566430091858 -0.16630655527114868 -0.2140919417142868 -0.5823631882667542 -0.2451595962047577 -0.020385857671499252 0.029365763068199158 -0.29459214210510254 -0.5268999934196472 -0.01048505399376154 -0.2316160947084427 0.06740500032901764 0.17278999090194702 0.4314686954021454 0.0881367027759552 0.1704835444688797 -0.019661210477352142 -0.3661372661590576 -0.12648165225982666 0.06130410358309746 -0.012183351442217827 -0.2890903353691101 -0.5086451768875122 0.17806199193000793 -0.16936667263507843 -0.43472954630851746 0.2974124848842621 -0.3515165150165558 0.607506513595581 0.435518741607666 -0.828467845916748 0.6207810044288635 0.5706523060798645 -0.45721712708473206 0.24975800514221191 -0.5378742218017578 -0.052483536303043365 -0.0258259866386652 0.1041208803653717 -0.190887451171875 -0.3191962242126465 0.02257520891726017 0.30118072032928467 -0.08311471343040466 0.2975456416606903 -0.17434757947921753 -0.005432943347841501 -0.1093430444598198 0.030898602679371834 -0.2548274099826813 0.27491429448127747 -0.4656050503253937 -0.16635388135910034 -0.4895116090774536 -0.17193621397018433 0.013698249123990536 -0.10647247731685638 0.008200069889426231 0.06360924243927002 0.30994558334350586 0.6218533515930176 0.06951230019330978 0.06076917424798012 0.09550010412931442 -0.02337629348039627 0.0693696066737175 0.36708176136016846 -0.052098821848630905 0.06449928879737854 -0.19912189245224 -0.3475591540336609 -0.02062733843922615 0.4997405409812927 -0.2182021290063858 -0.16657765209674835 0.34110772609710693 0.10124228894710541 0.056439001113176346 